SVM-light Version V6.20
0 # kernel type
3 # kernel parameter -d 
1 # kernel parameter -g 
1 # kernel parameter -s 
1 # kernel parameter -r 
empty# kernel parameter -u 
24072 # highest feature index 
108 # number of training documents 
2 # number of support vectors plus 1 
0.35848449 # threshold b, each following line is a SV (starting with alpha*y)
1 1:-0.12562206 2:0.016333906 3:-0.04307333 4:0.033153109 5:-0.24669243 6:-0.3460215 7:-0.088949256 8:0.019279124 23:-0.068189606 24:0.09699855 25:-0.00253446 26:0.0080659389 27:0.0071926778 28:-0.061764572 29:-0.012463 30:0.0069222199 31:-0.0020091839 32:-0.02592607 33:-0.074669518 34:-0.042278495 35:0.055233661 36:-0.1546147 37:-0.07636454 38:-0.1143021 39:0.13781811 40:-0.047401205 41:-0.097197548 42:-0.03233429 43:-0.12338249 44:0.039035436 45:0.055183876 46:-0.031330768 47:-0.12203935 48:-0.020839293 49:-0.15129821 50:-0.056442011 51:-0.033363145 52:-0.022566944 53:-0.066573061 54:-0.048464019 55:-0.0098300213 56:-0.033282582 57:0.027573619 58:-0.027452039 59:0.0072777984 60:-0.16009188 61:0.014850668 62:-0.16202375 64:-0.070276462 65:0.021045962 66:0.0044888319 67:-0.033691525 68:-0.1022639 69:-0.10060066 70:0.06258668 71:-0.14275587 72:-0.039522283 73:0.015397011 74:-0.04952997 75:-0.018268399 76:-0.011860996 77:0.042969059 78:0.058041126 79:0.02008081 80:-0.0020643421 81:-0.090097412 82:-0.014875882 83:0.038029104 84:-0.061303582 85:-0.13057481 86:0.005333079 87:0.10400558 88:0.062989645 89:-0.041418578 90:-0.0617649 91:-0.03790231 92:-0.016837783 93:-0.007545949 94:-0.022909829 95:-0.011505145 96:-0.069365844 97:0.011711913 98:-0.023455333 99:0.020129848 100:-0.059215304 101:0.035681035 102:-0.035642363 103:-0.038116239 105:-0.048341718 106:-0.096968822 107:0.035318036 108:-0.017605437 109:0.0051223319 110:0.023907684 111:-0.043680422 112:-0.063907288 114:-0.044641007 117:-0.029759916 118:-0.035642363 122:0.035642363 123:-0.031036921 125:0.12562433 126:-0.062176339 127:-0.012403188 128:-0.035642363 129:0.035642363 135:-0.02592607 136:-0.047401205 137:-0.07636454 138:-0.042278495 139:-0.03233429 140:0.039035436 141:-0.022566944 142:-0.1546147 143:-0.066573061 144:-0.15129821 145:-0.033282582 146:0.021045962 147:-0.12203935 148:-0.16009188 149:0.055233661 150:0.027573619 151:-0.12338249 152:-0.10060066 153:-0.1022639 154:-0.1143021 155:-0.16202375 156:-0.039522283 157:0.02008081 158:0.055183876 159:-0.097197548 160:-0.041418578 161:-0.14275587 162:-0.074669518 163:-0.0617649 164:-0.070276462 165:0.042969059 166:-0.04952997 167:-0.033691525 168:-0.027452039 169:-0.031330768 170:-0.011860996 171:-0.023455333 172:-0.061303582 173:0.015397011 174:0.13781811 175:-0.048464019 176:-0.020839293 177:-0.090097412 178:-0.0020643421 179:-0.056442011 180:-0.0098300213 181:0.0072777984 182:0.06258668 183:-0.13057481 185:-0.007545949 186:-0.011505145 187:-0.033363145 188:0.023907684 189:-0.048341718 190:0.058041126 191:0.10400558 193:-0.035642363 194:-0.018268399 195:0.0044888319 196:0.011711913 197:0.038029104 198:-0.044641007 200:-0.038116239 201:-0.03790231 202:0.014850668 204:0.035681035 206:0.062989645 208:-0.096968822 209:-0.017605437 211:-0.022909829 213:-0.035642363 214:-0.059215304 215:-0.012403188 216:-0.063907288 217:0.020129848 218:0.005333079 220:-0.016837783 222:-0.014875882 223:-0.049302913 224:0.074002013 225:0.039799985 226:-0.041418578 227:-0.068209469 228:0.10540594 229:0.012317693 230:-0.12804736 231:-0.058066025 232:-0.012619987 233:-0.068369925 234:0.10322442 235:-0.1078096 236:-0.067030407 237:-0.089660302 238:0.035642363 239:0.0040132273 240:-0.043917809 241:-0.053221989 242:0.028106317 243:-0.060049534 244:0.056417029 245:-0.07073997 246:0.040650949 247:-0.024664186 248:0.21385927 249:-0.041158624 250:0.062084269 251:-0.02730467 252:0.11975439 253:-0.007545949 254:0.069306023 255:0.12855841 256:-0.025080871 257:0.038988829 259:0.032270607 260:0.10799257 261:0.035642363 262:0.035642363 264:0.022702027 265:-0.053227141 266:-0.09091235 268:0.081768207 269:0.071284726 270:-0.032171544 271:0.067673042 272:0.0017732905 273:0.035642363 275:0.011869066 276:-0.044641007 277:-0.16697562 278:0.076967202 279:-0.021422498 280:0.0045423554 281:0.035642363 282:0.010754579 283:-0.05307281 284:-0.0086532533 286:0.060544357 287:-0.019594882 288:-0.009371615 292:-0.013359357 296:-0.041462112 297:-0.026494997 298:-0.14440806 300:-0.067925423 301:0.0050009848 302:-0.00069496152 304:0.060419358 305:0.027257139 307:-0.15130001 308:0.0042633424 310:0.018772999 311:-0.012403188 312:0.01616778 313:-0.04570223 314:-0.035642363 317:0.065918513 319:0.0081958771 323:-0.0054743029 324:-0.035642363 325:-0.049538922 327:0.039437171 328:-0.034830853 329:-0.035642363 331:-0.015512517 332:0.062415075 334:-0.043680422 335:0.04676412 337:0.035642363 340:0.017035859 341:-0.016136076 342:0.30319768 343:-0.015634585 344:0.19901788 345:0.0594531 346:0.02751738 347:0.0692221 348:-0.026014145 349:0.035642363 350:0.017596604 351:0.14179789 352:0.11490556 353:0.009937278 354:0.085297748 355:0.12495749 356:-0.034341548 357:0.079279579 358:0.10203041 359:-0.032216188 362:0.021112604 363:-0.0011193648 365:-0.045337107 366:0.047041427 367:0.14091623 368:0.070385046 369:0.038261253 370:0.019729238 371:0.10895275 372:0.065722354 374:0.036209211 376:0.035642363 377:-0.043774709 378:0.020928869 379:-0.01607129 380:-0.094726883 381:-0.012816715 382:-0.043404944 383:0.077127345 385:0.00051597244 386:0.10733745 387:-0.0074707256 388:0.035642363 389:-0.032664359 390:1.8861505e-007 393:0.046958953 395:-0.025699165 396:-0.047232907 397:-0.16761152 399:-0.014602408 400:0.052229285 401:-0.062038962 402:0.091349393 403:0.05777096 404:0.055853128 405:-0.0072243898 407:0.032914679 410:-0.059331842 411:0.024542557 413:-0.027047651 414:0.035642363 415:0.035642363 419:0.071349114 421:0.046055503 422:-0.038688209 423:-0.0099296672 426:-0.02142044 428:0.035642363 429:0.026562313 432:-0.058271557 433:-0.033262756 434:0.026423372 436:-0.079948299 438:-0.022531772 442:0.010578915 443:0.035642363 446:0.035642363 447:0.016865822 448:0.040991977 451:0.068343058 452:-8.2945707e-016 453:-0.010351533 454:0.040254325 455:0.10682307 458:0.035777323 463:0.026509902 465:0.071284726 466:-0.042668998 468:0.010043694 474:0.096185409 480:-0.00025737815 486:0.035642363 493:0.035642363 498:0.017035859 499:-0.026014145 500:0.0594531 501:0.30319768 502:0.017596604 503:0.11490556 504:-0.0011193648 505:0.19901788 506:-0.045337107 507:-0.032216188 508:0.070385046 509:-0.01607129 510:0.12495749 511:0.065722354 512:-0.015634585 513:0.019729238 514:0.14179789 515:0.00051597244 516:0.077127345 517:0.02751738 518:0.036209211 519:-0.0074707256 520:0.052229285 521:0.085297748 522:0.035642363 523:-0.027047651 524:0.10733745 525:-0.016136076 526:0.035642363 527:-0.16761152 528:0.009937278 529:1.8861505e-007 530:-0.012816715 531:0.079279579 532:0.046055503 533:-0.047232907 534:-0.058271557 535:0.055853128 536:-0.032664359 537:0.0692221 538:0.035642363 539:0.047041427 540:0.10203041 541:0.05777096 543:-0.043404944 544:-0.062038962 545:0.091349393 548:0.14091623 549:-0.043774709 551:0.10895275 553:0.035642363 557:-0.038688209 558:0.021112604 559:-0.010351533 560:0.035642363 561:-0.014602408 562:0.035642363 563:-0.0072243898 564:0.020928869 565:0.024542557 566:0.046958953 567:-0.079948299 569:-0.094726883 570:0.071349114 571:0.038261253 572:0.026562313 573:-0.0099296672 575:-0.059331842 577:0.010578915 578:-0.034341548 579:-0.025699165 580:-0.02142044 582:0.035642363 583:-0.042668998 584:0.068343058 586:0.035642363 588:0.026509902 591:0.032914679 593:0.010043694 594:0.035777323 599:0.016865822 601:-0.033262756 606:0.035642363 608:0.040991977 611:0.10682307 626:-0.022531772 627:0.026423372 628:0.071284726 629:0.096185409 630:-8.2945707e-016 635:0.040254325 638:0.18947458 639:-0.0037972995 640:0.016965451 641:-0.027047651 642:-0.0769284 643:0.078301571 644:-0.10876214 645:0.14727296 646:-0.040786602 647:0.038925376 648:0.070138559 649:0.011945904 650:0.10018294 651:0.11947744 652:0.071284726 654:-0.10321034 655:0.035642363 656:0.084836163 658:0.023366997 659:-0.0045974078 660:-0.19226632 662:-0.0036319464 663:-0.069048434 664:0.008493253 665:0.13784762 666:-0.095674939 668:0.083437234 669:0.057210702 670:-0.15135753 671:-0.013549883 672:0.055456914 673:-0.031091738 674:0.053368594 675:-0.076369613 676:0.058603473 678:0.085370831 679:-0.014095207 681:-0.02475341 683:0.13958064 685:-0.050034694 686:0.035642363 687:-0.054507356 688:-0.049317561 689:0.059383146 690:-0.079497293 692:-0.0055451016 694:0.0016469143 696:-0.0086380662 697:0.035642363 698:-0.24287584 699:-0.018954013 702:-0.005555144 703:0.035642363 704:0.035642363 705:0.11127463 706:-0.00034842276 708:0.17883721 709:0.00056684768 710:0.035642363 711:-0.0028763732 712:0.066247202 714:0.023203833 715:-0.035642363 717:-0.022140784 719:-0.065602504 721:0.096637785 722:-0.15223497 725:-0.13931757 726:0.11887638 727:-0.015665637 728:0.071284726 732:0.035642363 733:-0.017205229 736:0.035642363 737:0.10692709 739:-0.010805131 740:0.033249132 742:-0.01066544 743:-0.010351533 746:0.071284726 747:-0.060651332 749:0.014263463 750:0.053773418 751:-0.011407658 756:0.025175838 757:0.035777323 760:-0.035642363 761:0.060043305 762:0.060650058 763:0.035642363 765:-0.14607304 768:0.049010098 773:-0.012056128 774:-0.034059223 775:-0.031185074 780:-0.092269056 782:0.035642363 783:0.035642363 785:0.035642363 786:0.010753253 789:0.040663816 791:0.072119758 797:-0.019582301 801:0.035642363 804:0.071284726 805:-0.056067169 808:0.034539722 811:0.013749132 812:-0.0076783649 813:-0.067882918 815:-0.02394517 816:-0.15794608 819:-0.023211017 820:-0.02506993 828:0.011585379 835:-0.0064514102 836:0.0025728922 840:-0.015781729 844:0.03362992 848:0.0063532805 852:-0.020939784 855:0.035642363 857:-0.088210434 860:-0.057350829 862:0.071284726 864:-0.099844888 865:-0.0011461673 874:0.00046413232 877:-0.064338282 880:-0.035642363 882:-0.12418764 883:-0.051961005 884:-0.036521725 885:0.030745685 886:0.035642363 888:0.073148578 897:-0.00099554437 898:-0.029264227 899:0.062474743 900:-0.00025737815 901:0.035642363 903:0.035642363 905:0.023653405 906:0.035005096 911:0.0098571321 912:-0.20282096 915:-0.028296486 916:0.055152148 917:-0.068214536 918:-0.012763754 919:-0.019709812 921:-0.035642363 923:0.06430871 924:0.044049121 925:-0.051532891 926:-0.023750857 927:-0.019709812 928:0.06430871 929:-0.035642363 931:0.044049121 932:-0.051532891 933:-0.023750857 935:0.045469064 936:-0.075553216 937:-0.0062443861 939:0.027679451 940:-0.066209465 941:0.2923457 942:0.051070087 943:0.011652172 944:0.071284726 945:0.071066961 946:0.050764624 948:0.0036387697 949:-0.068621263 950:-0.010064622 951:0.17821181 952:0.010538634 953:0.0068945531 954:0.078112148 955:0.012968915 956:0.061578538 957:0.13535258 958:0.050228026 959:0.11726732 960:0.018148661 961:0.218926 962:0.11004509 964:-0.040080909 965:0.064761609 966:-0.0089027835 967:-0.043994572 968:0.033419788 969:0.11413681 970:0.24949655 971:-0.0017501343 972:0.028111668 973:-0.0073806243 974:-0.05058676 976:-0.071319669 977:0.035642363 978:-0.0041543236 979:0.082408704 980:0.1486699 981:0.029939396 982:0.10692709 983:-0.062877767 984:0.032640509 985:0.048812453 986:0.035642363 987:-0.058676053 988:-0.039264452 989:-0.074319392 990:0.024224628 991:-0.054366209 992:-0.0064512994 993:-8.2945707e-016 994:-0.078819931 995:-0.00029711169 996:-0.15344748 997:0.0027214678 998:-0.064491794 999:-4.1570809e-005 1000:0.043788973 1001:0.026095347 1002:0.0057759192 1004:-0.07893794 1005:0.019276904 1006:0.25291485 1007:-0.024541283 1008:-0.034654893 1009:0.035642363 1012:-0.02430097 1013:0.12442748 1014:0.0031329072 1015:-0.0087109478 1016:0.010057099 1017:-0.1310668 1018:0.093030535 1021:-0.027975287 1022:0.027641112 1023:-0.041687764 1024:-0.039907239 1025:-0.0061125667 1027:-0.022856889 1028:0.034811344 1029:-0.035642363 1030:0.019733515 1031:-0.0062194094 1032:-0.035712253 1033:0.067899168 1034:0.035642363 1035:-0.082882687 1036:-0.046596348 1037:-0.028264925 1039:-0.041734599 1041:-0.016522733 1043:-0.02253625 1045:-0.035642363 1047:-0.064366922 1050:0.00032746754 1051:0.026885664 1052:-0.0010118274 1053:0.051323961 1056:0.074810468 1058:0.12156228 1059:0.061983325 1060:-0.022704272 1065:0.035642363 1067:0.0095074894 1068:0.035642363 1069:0.051028501 1071:-0.10699698 1072:-0.071248569 1075:0.11406223 1079:0.035642363 1080:0.043571308 1081:0.035642363 1083:0.035642363 1084:2.9475174e-005 1085:-0.033471968 1091:-0.064495601 1092:8.2945707e-016 1094:0.035642363 1095:0.029663237 1097:0.071284726 1100:0.045469064 1101:0.2923457 1102:-0.066209465 1103:0.13535258 1104:-0.068621263 1105:0.078112148 1106:0.24949655 1107:0.17821181 1108:0.050764624 1109:0.027679451 1110:0.011652172 1111:-0.02430097 1112:-0.062877767 1113:-0.0089027835 1114:-0.040080909 1115:0.218926 1116:0.026095347 1117:0.071066961 1118:-0.1310668 1119:0.051070087 1120:0.0036387697 1122:0.11726732 1123:0.033419788 1125:-0.075553216 1126:-0.0017501343 1128:-0.039264452 1129:0.018148661 1130:-0.071319669 1132:0.11004509 1133:0.029939396 1134:0.048812453 1135:-0.074319392 1136:0.071284726 1137:0.032640509 1138:-0.0087109478 1139:0.0027214678 1140:-0.0041543236 1142:-0.15344748 1144:0.12442748 1145:0.082408704 1146:0.12156228 1147:0.074810468 1148:-0.07893794 1149:0.035642363 1150:-0.058676053 1151:-0.043994572 1152:0.00032746754 1153:0.064761609 1154:-0.00029711169 1155:-0.02253625 1156:0.11413681 1157:0.0068945531 1158:-0.0061125667 1159:-0.078819931 1161:0.043788973 1162:-0.071248569 1164:-0.064491794 1165:-0.027975287 1166:0.067899168 1167:0.0095074894 1169:-0.082882687 1170:-0.0073806243 1171:0.061578538 1172:-4.1570809e-005 1173:0.0057759192 1174:-0.0062194094 1175:-0.064366922 1176:0.024224628 1178:-0.041687764 1179:0.027641112 1180:-0.0010118274 1182:0.034811344 1183:-0.022704272 1185:-0.024541283 1186:-0.022856889 1187:0.051323961 1188:-0.039907239 1190:0.010057099 1192:0.012968915 1193:0.019276904 1194:-0.034654893 1195:-0.0064512994 1196:0.026885664 1199:0.019733515 1200:0.1486699 1202:0.029663237 1203:-0.046596348 1204:0.10692709 1206:-8.2945707e-016 1207:-0.10699698 1209:0.035642363 1210:0.093030535 1211:0.035642363 1212:-0.016522733 1213:-0.05058676 1216:2.9475174e-005 1217:0.051028501 1219:-0.0062443861 1220:0.035642363 1221:0.050228026 1222:0.035642363 1223:-0.041734599 1225:0.035642363 1226:-0.010064622 1227:-0.035642363 1229:0.010538634 1230:-0.033471968 1231:0.11971016 1232:0.01721729 1233:-0.034995593 1234:0.10692709 1235:0.018764773 1236:-0.015904965 1237:0.035642363 1238:-0.043917809 1239:-0.015277005 1240:-0.19000693 1241:-0.054807033 1242:0.17600003 1243:-0.073732026 1244:0.001566687 1245:0.06128547 1246:-0.035525087 1247:-0.01183009 1248:-0.010799704 1249:0.035642363 1254:-0.010751153 1255:0.035642363 1256:-0.030783907 1258:0.080446921 1259:-0.041597273 1260:0.071284726 1261:-0.044641007 1263:0.035642363 1264:0.040748302 1266:-0.14291905 1268:-0.014324935 1269:0.035642363 1271:-0.052693602 1273:0.0052232048 1274:0.0076670782 1277:0.025950374 1279:0.017296303 1280:0.049884424 1281:-0.035303183 1283:-0.02884943 1285:-0.035642363 1286:-0.072134145 1289:0.11565755 1290:0.0505003 1291:0.00015561735 1294:-0.028268332 1295:0.03026255 1298:0.027321711 1299:0.0039899782 1302:-0.039907239 1306:0.035642363 1307:0.035642363 1308:0.38216859 1310:0.053566422 1311:-0.035642363 1312:0.0042894706 1313:-0.047240328 1315:-0.035642363 1319:0.035642363 1324:0.062415075 1326:-0.035642363 1330:-0.016522733 1331:-0.18908983 1333:-0.002197338 1337:-0.11188737 1341:-0.066787653 1342:0.021745808 1348:-0.0040436978 1349:0.029122541 1350:0.090500444 1351:0.10763966 1352:-0.21972592 1353:-0.22905733 1354:-0.0040791677 1355:0.010338731 1356:-0.12908101 1357:-0.074466072 1358:-0.094618291 1360:0.14211507 1361:-0.035642363 1363:-0.0040436978 1364:0.090500444 1365:-0.21972592 1366:0.10763966 1367:-0.12908101 1368:-0.22905733 1369:0.010338731 1370:-0.0040791677 1371:0.029122541 1372:-0.035642363 1374:-0.094618291 1375:0.028584238 1376:-0.12725075 1377:0.17321277 1378:-0.035600767 1379:0.035642363 1380:-0.018676912 1381:0.03297738 1384:-0.077810869 1385:0.0047333469 1387:-0.10849853 1389:-0.037456144 1390:-0.035642363 1391:-0.032451443 1392:-0.035642363 1393:0.035642363 1398:0.035642363 1399:0.015043515 1400:0.027104449 1401:-0.0023098378 1402:-0.07599587 1403:0.015043515 1404:-0.07599587 1405:-0.0023098378 1406:0.027104449 1407:-0.0083488235 1408:-0.095248356 1409:-0.016948199 1410:-0.029722691 1411:0.091195792 1412:-0.081913576 1413:0.10631443 1414:0.13781811 1415:-0.20881966 1416:-0.097197548 1417:-0.036207277 1418:-0.13277985 1419:-0.20916735 1420:-0.07059443 1421:0.027215485 1422:-0.059963159 1423:0.014803072 1424:-0.064076193 1425:-0.056442011 1426:-0.033869252 1427:0.019432386 1428:-0.035066634 1429:-0.048464019 1430:-0.0098300213 1431:-0.068924949 1432:-0.057582289 1433:0.037112948 1434:-0.0096195173 1435:0.00074963697 1436:-0.10291827 1437:-0.1263814 1439:0.10861346 1440:-0.13426057 1441:-0.017707597 1442:0.035875924 1443:0.0047811228 1444:0.062572107 1445:0.075003132 1446:0.022505192 1447:0.0093848156 1448:0.09790203 1449:0.035554532 1450:-0.039322246 1451:-0.10371305 1452:-0.019913552 1453:-0.045342591 1454:-0.040484753 1455:0.063840382 1456:0.0349297 1457:-0.050518248 1458:-0.016693365 1459:-0.073234208 1460:0.084537312 1461:-0.012584311 1462:0.0058797249 1463:-0.054953717 1464:0.046061132 1465:-0.097407266 1466:-0.042479157 1467:0.0042512529 1468:-0.007545949 1469:-0.022909829 1470:0.055578548 1471:-0.069365844 1472:-0.056518301 1473:-0.0046027624 1474:0.016389303 1475:-0.059215304 1476:0.013742255 1477:-0.11791454 1478:-0.038116239 1479:0.060977433 1480:-0.02188142 1481:-0.061326459 1482:0.035318036 1483:0.019415036 1484:0.059695795 1485:0.10530763 1486:-0.029900946 1487:0.086837597 1488:-0.034215849 1489:-0.044641007 1490:-0.032278612 1491:0.027299918 1492:-0.029759916 1493:-0.024485113 1496:-0.012880443 1497:0.02574468 1498:-0.052668344 1499:-0.026571471 1500:0.089981973 1501:-0.084486507 1502:-0.012403188 1503:-0.035642363 1504:0.034315825 1506:0.071284726 1507:-0.013715236 1510:-0.0083488235 1511:-0.20881966 1512:-0.081913576 1513:-0.016948199 1514:-0.036207277 1515:-0.20916735 1516:0.019432386 1517:0.091195792 1518:-0.035066634 1519:-0.064076193 1520:-0.068924949 1521:-0.13426057 1522:-0.059963159 1523:0.00074963697 1524:-0.029722691 1525:-0.057582289 1526:-0.13277985 1527:0.062572107 1528:0.0047811228 1529:0.10631443 1530:-0.1263814 1531:0.0093848156 1532:-0.040484753 1533:-0.07059443 1534:-0.097197548 1535:0.046061132 1536:0.022505192 1537:-0.095248356 1538:-0.097407266 1539:0.10861346 1540:-0.019913552 1541:0.035554532 1542:0.035875924 1543:0.037112948 1544:0.027215485 1545:-0.10371305 1546:-0.0046027624 1547:-0.073234208 1548:0.09790203 1549:0.13781811 1550:-0.048464019 1551:0.014803072 1552:0.0349297 1553:0.063840382 1554:-0.056442011 1555:-0.0098300213 1556:-0.0096195173 1557:0.075003132 1558:0.084537312 1560:-0.007545949 1561:0.055578548 1562:-0.033869252 1563:0.10530763 1564:-0.02188142 1565:-0.045342591 1566:0.0058797249 1567:-0.034215849 1568:-0.11791454 1569:-0.039322246 1570:-0.017707597 1571:-0.056518301 1572:-0.016693365 1573:-0.044641007 1574:-0.032278612 1575:-0.038116239 1576:-0.042479157 1577:-0.10291827 1578:-0.026571471 1579:0.013742255 1580:-0.012880443 1581:-0.054953717 1583:-0.061326459 1584:0.019415036 1586:-0.022909829 1587:-0.013715236 1588:-0.024485113 1589:-0.059215304 1590:-0.012403188 1591:0.086837597 1592:0.016389303 1593:-0.012584311 1594:0.027299918 1595:0.0042512529 1596:0.060977433 1597:-0.050518248 1598:-0.033709742 1599:-0.14039491 1600:0.040256452 1601:0.046061132 1602:0.061533347 1603:-0.051199693 1604:0.077910416 1605:0.063145772 1606:0.075292505 1607:-0.035242252 1608:-0.029345769 1609:0.047611296 1610:0.090041347 1611:-0.0039755022 1612:-0.089660302 1614:-0.031629138 1615:-0.043917809 1616:0.030151043 1617:-0.10738704 1618:-0.14593834 1619:0.074936457 1620:-0.010210104 1621:-0.037191354 1622:-0.024664186 1623:0.10537178 1624:-0.030119715 1625:-0.031060135 1626:0.16544068 1627:0.11767742 1628:-0.007545949 1629:0.069306023 1630:0.04830071 1631:0.00019660791 1632:0.099200644 1634:-0.013652342 1635:0.0019106441 1636:0.035642363 1637:-0.13387285 1639:0.05834439 1640:-0.019984394 1641:-0.09091235 1642:-0.048229907 1643:0.053087428 1644:0.035642363 1645:-0.032171544 1646:-0.031624686 1647:0.13288584 1648:0.00018307951 1649:-0.047470734 1650:0.011869066 1651:-0.044641007 1652:-0.12614714 1653:0.15907829 1654:-0.049775653 1655:-0.020612856 1656:-0.088370673 1657:-0.067056492 1658:-0.054118063 1659:0.024002759 1661:0.051188696 1662:-0.013609026 1663:-0.013897332 1664:0.032286115 1665:-0.017381318 1666:-0.10692709 1667:-0.013359357 1668:-0.035642363 1669:0.035642363 1670:0.020753402 1671:-0.041462112 1672:-0.026494997 1673:0.035642363 1674:0.011893767 1675:-0.086771399 1676:-0.084513851 1677:0.0055165729 1679:0.060419358 1680:0.027257139 1682:-5.8859012e-014 1683:0.0042633424 1684:0.12239061 1685:-0.082452066 1686:-0.012403188 1687:0.046913035 1688:-0.041298773 1689:-0.034872025 1690:0.060977433 1692:0.019019909 1693:-0.004888826 1694:0.022333035 1697:-0.022357447 1698:-0.0024428349 1699:-0.010580652 1700:-0.049538922 1702:0.039437171 1703:0.036453877 1704:-0.035642363 1706:-0.01925306 1707:0.062415075 1709:-0.029900946 1710:0.04676412 1712:0.035642363 1714:-0.035642363 1715:-0.023405928 1716:0.075488783 1717:0.041345801 1718:0.018707162 1719:-0.071475193 1720:0.18928532 1721:-0.10187379 1722:0.0692221 1723:0.25557992 1724:0.035642363 1725:0.0034315996 1726:0.082502112 1727:0.14710638 1728:-0.070044219 1729:0.10923401 1730:0.12601733 1731:-0.034341548 1732:0.1659639 1733:0.10203041 1734:0.0022100778 1737:0.043550704 1738:0.24496239 1740:0.1069243 1741:0.047041427 1742:0.14091623 1743:0.081190184 1744:-0.03275023 1745:0.091114558 1746:0.03766802 1747:-0.010275228 1748:-0.0024596388 1749:0.053542253 1751:0.035642363 1752:0.11521167 1753:0.030609464 1754:0.18304121 1755:0.0086454358 1756:0.10444227 1757:-0.019393876 1758:0.055099379 1760:0.014808905 1761:0.032713141 1762:0.041890513 1763:0.035642363 1764:-0.035617635 1765:-0.05528887 1768:-0.017121216 1770:-0.016828878 1771:0.10238518 1772:-0.038254723 1774:0.027083213 1775:0.055380445 1776:-0.18892874 1777:-0.043644037 1778:-0.17211948 1779:0.014970453 1780:0.081856318 1781:0.013423557 1782:-0.028803971 1785:0.011952885 1786:-0.022239527 1788:-0.045620941 1789:0.035642363 1790:0.051618442 1794:0.020572307 1796:0.10490888 1797:-0.11030541 1798:0.094062969 1799:0.035642363 1801:0.012965348 1802:-0.0066931364 1803:0.033288561 1804:0.067580529 1807:-0.10621368 1808:-0.041989539 1809:-0.0089094881 1810:-0.087421574 1813:-0.058174137 1817:-0.024778316 1818:-0.027274642 1821:0.035642363 1823:0.088995978 1826:0.081048481 1827:-8.2945707e-016 1828:-0.064012922 1829:0.026563164 1830:0.071180716 1832:0.017574426 1833:0.035777323 1834:0.063548349 1836:0.012376729 1838:-0.055305455 1839:0.035642363 1840:0.071284726 1841:0.061618984 1843:0.04394665 1861:0.035642363 1867:0.035642363 1868:0.035642363 1873:-0.023405928 1874:0.25557992 1875:0.18928532 1876:0.041345801 1877:0.0034315996 1878:0.14710638 1879:0.24496239 1880:-0.071475193 1881:0.1069243 1882:0.0022100778 1883:0.081190184 1884:0.18304121 1885:0.12601733 1886:-0.010275228 1887:0.018707162 1888:0.091114558 1889:0.082502112 1890:0.014808905 1891:0.055099379 1892:-0.10187379 1893:0.053542253 1894:0.041890513 1895:0.055380445 1896:0.10923401 1897:0.035642363 1898:-0.045620941 1899:0.032713141 1900:0.075488783 1901:0.051618442 1902:-0.038254723 1903:-0.070044219 1904:-0.05528887 1905:0.10444227 1906:0.1659639 1907:0.10490888 1908:0.10238518 1909:-0.10621368 1910:0.014970453 1911:-0.035617635 1912:0.0692221 1913:0.033288561 1914:0.047041427 1915:0.10203041 1916:-0.17211948 1918:-0.019393876 1919:-0.18892874 1920:-0.043644037 1923:0.14091623 1924:0.11521167 1925:-0.087421574 1926:0.03766802 1927:-0.0066931364 1928:0.035642363 1932:-0.11030541 1933:0.043550704 1934:-0.064012922 1935:-0.027274642 1936:0.027083213 1937:0.035642363 1938:0.081856318 1939:0.030609464 1940:-0.022239527 1941:-0.017121216 1943:0.035642363 1944:0.0086454358 1945:0.020572307 1946:-0.03275023 1947:0.067580529 1948:0.094062969 1949:0.013423557 1950:0.011952885 1951:0.063548349 1952:-0.024778316 1953:-0.034341548 1954:-0.016828878 1955:0.012965348 1957:0.035642363 1958:0.061618984 1959:0.081048481 1961:0.035642363 1963:-0.055305455 1965:0.012376729 1966:-0.028803971 1968:0.04394665 1969:0.035777323 1970:-0.0024596388 1975:0.017574426 1976:-0.041989539 1981:0.035642363 1983:0.088995978 1986:0.071180716 1996:0.035642363 2001:-0.058174137 2002:-0.0089094881 2003:0.071284726 2005:-8.2945707e-016 2010:0.026563164 2013:0.13063893 2014:0.095685311 2015:0.10830218 2016:-0.045620941 2017:0.058312908 2018:-0.04166317 2019:0.029576458 2020:0.03077337 2021:0.015920177 2022:0.10283089 2023:0.08179459 2024:0.15837023 2025:-0.046244185 2026:-0.011518866 2027:0.14478385 2029:-0.026210841 2030:-0.0023538054 2031:0.13208282 2033:0.061888542 2034:0.050805967 2035:-0.18971473 2037:-0.047610037 2038:0.071116544 2039:-0.088752493 2040:0.066261128 2041:-0.06709896 2043:0.037209053 2044:-0.052735873 2045:0.035642363 2046:-0.013549883 2047:0.035471998 2048:-0.15183689 2049:0.096633591 2050:-0.10603952 2051:0.058603473 2053:0.058486372 2054:-0.043157183 2056:-0.02475341 2060:-0.014392332 2061:0.035642363 2062:-0.11895658 2063:-0.051999521 2064:-0.0072349138 2067:0.0049946485 2069:-0.024725923 2071:0.07883051 2072:0.035642363 2073:0.040637136 2074:0.12361544 2077:0.036759652 2079:0.035642363 2080:0.028514449 2081:-0.13674405 2082:0.035642363 2083:-0.10421568 2085:0.035642363 2087:-0.0089084273 2089:0.023203833 2090:-0.034584172 2091:-0.0070109512 2092:-0.022140784 2093:0.035642363 2094:-0.039273035 2096:0.076326169 2097:-0.01356494 2100:-0.10054208 2101:0.14569917 2102:0.019976728 2103:0.035642363 2106:0.012376729 2108:0.028196445 2111:0.035642363 2112:0.10692709 2113:0.071284726 2115:0.05112556 2117:0.010037658 2118:0.0085677654 2120:0.10692709 2121:0.035642363 2122:0.035642363 2124:0.035642363 2125:0.088234566 2129:-0.035642363 2131:-0.078803435 2132:0.035777323 2135:-0.035642363 2136:-0.009891456 2137:0.03034002 2138:0.035642363 2140:-0.10652775 2141:0.017574426 2144:0.035642363 2146:0.035642363 2148:-0.070974618 2150:-0.10849739 2151:-0.044804666 2152:0.035642363 2154:0.015976077 2157:0.084902912 2158:0.035642363 2160:0.035642363 2161:0.010753253 2162:0.026514757 2164:8.2945707e-016 2166:0.036477391 2169:0.018028518 2172:0.035642363 2176:0.012549294 2178:0.044358552 2179:0.0048324168 2186:-0.060133915 2187:0.01162736 2194:0.035642363 2195:-0.02506993 2210:-0.0054077622 2211:0.0025728922 2219:0.03362992 2227:-0.25270256 2229:0.035642363 2230:0.035642363 2232:-0.030357035 2235:-0.021040455 2241:-0.10622507 2246:0.035642363 2249:0.00046413232 2252:-0.027710976 2258:-0.045308109 2260:0.030745685 2272:-0.079150721 2273:-0.038142871 2276:0.035642363 2278:0.035642363 2279:0.035642363 2281:-0.034300402 2286:-0.025785232 2287:-0.028448235 2288:0.0051223319 2292:-0.068214536 2294:0.027521962 2295:-6.5808558e-014 2296:-0.011723395 2298:-0.016064085 2299:0.1218191 2300:-0.11934359 2301:-0.041932829 2302:0.027521962 2303:-0.016064085 2304:-0.011723395 2305:-6.5808558e-014 2306:0.1218191 2307:-0.11934359 2308:-0.041932829 2310:0.46479401 2311:0.40047586 2312:0.035642363 2313:-0.061702538 2314:0.071284726 2315:0.27888906 2316:0.28242189 2318:0.012236781 2319:0.035642363 2321:0.089415781 2324:0.17119782 2326:0.17821181 2329:0.050419692 2330:0.035642363 2332:0.3546482 2333:0.19280022 2334:0.035642363 2335:0.011113255 2339:0.010382915 2345:0.27861187 2350:0.035642363 2353:0.0020687825 2354:0.055644497 2356:-0.018867575 2361:0.035642363 2362:0.035642363 2370:0.035642363 2373:0.035642363 2376:-1.2466757e-013 2381:0.19771327 2383:0.035642363 2387:0.00087404222 2389:0.073532991 2397:0.067742161 2403:-0.0079373829 2407:0.035642363 2409:0.035642363 2412:0.0073774392 2413:0.035642363 2419:0.0084617725 2431:0.035642363 2433:0.035642363 2439:0.035642363 2440:0.035642363 2445:0.035642363 2456:0.035642363 2469:0.035642363 2472:0.035642363 2475:0.46479401 2476:0.28242189 2477:0.27888906 2478:0.3546482 2479:0.17119782 2480:0.050419692 2481:0.27861187 2482:0.17821181 2483:0.089415781 2484:0.071284726 2485:0.012236781 2486:0.00087404222 2489:0.010382915 2491:-1.2466757e-013 2497:0.035642363 2499:0.035642363 2500:0.40047586 2502:-0.061702538 2504:0.011113255 2508:-0.018867575 2511:0.035642363 2515:0.0020687825 2516:0.0084617725 2520:0.055644497 2521:0.035642363 2522:0.035642363 2524:0.035642363 2525:0.035642363 2529:0.035642363 2539:0.035642363 2554:0.067742161 2557:-0.0079373829 2567:0.035642363 2569:0.035642363 2572:0.035642363 2586:0.035642363 2594:0.035642363 2595:0.035642363 2596:0.19280022 2600:0.035642363 2606:0.19786626 2607:0.016481087 2608:-0.082232557 2609:0.071125239 2610:0.039274585 2611:0.011030647 2613:-0.043917809 2614:0.091650091 2616:-0.059384815 2618:0.049260546 2619:0.001566687 2620:0.05144925 2622:-0.035642363 2624:0.040179435 2626:-0.035642363 2629:0.035642363 2630:0.035642363 2633:0.018131055 2634:-0.052064627 2635:0.035642363 2638:-0.018867575 2639:0.035642363 2644:0.035642363 2645:-0.036155295 2646:0.02694986 2648:0.035642363 2652:-1.2466757e-013 2654:0.05293867 2655:0.049884424 2658:0.035642363 2676:0.035642363 2682:0.035642363 2701:-0.087851673 2723:-0.11362815 2724:0.1253486 2725:0.36460441 2726:0.097301595 2727:-0.018070579 2728:-0.0014809057 2729:-0.0060496763 2730:0.14890631 2731:-0.062637135 2732:-0.022703554 2733:0.035995796 2734:-0.025777239 2735:0.070830345 2736:-0.047552291 2738:-0.11362815 2739:0.36460441 2740:-0.018070579 2741:0.097301595 2742:-0.062637135 2743:-0.0014809057 2744:0.14890631 2745:-0.0060496763 2746:0.1253486 2747:-0.047552291 2748:-0.025777239 2749:0.035995796 2750:0.057336926 2751:-0.19392125 2752:0.11356623 2753:-0.035600767 2754:-0.093807399 2755:0.0070635471 2756:-0.019812351 2758:-0.077736139 2759:-0.0074568004 2762:-0.035642363 2764:-0.0014692234 2767:-0.035642363 2768:-0.035642363 2770:-0.025777239 2774:0.091833912 2775:-0.033510726 2776:-0.0035818382 2778:0.091833912 2780:-0.0035818382 2781:-0.033510726 2782:-0.038619656 2783:0.0077252896 2784:-0.14696845 2785:0.11002669 3619:0.071284726 3620:0.99734259 3621:-0.016220773 3622:0.056424234 3623:0.0019372186 3624:-0.017866341 3627:0.15027918 3628:0.30078232 3629:0.18579224 3630:-0.058478918 3631:0.1027009 3632:0.13518929 3633:0.11806172 3634:0.15903418 3635:-0.73648989 3636:-0.14244942 3637:-0.11091262 3638:-0.51878303 3639:0.016687838 3640:-0.087696932 3641:-0.016948199 3642:-0.0059475852 3643:-0.026511688 3644:-0.0030189957 3645:0.09006387 3646:-0.020333942 3647:-0.4279826 3648:-0.14580432 3649:-0.20204167 3650:0.02061986 3651:0.018585125 3652:0.13781811 3653:-0.031147968 3654:-0.045025084 3655:0.14080572 3656:-0.035642363 3657:0.19802898 3658:-0.133837 3659:0.016522927 3660:-0.30609855 3661:0.020167872 3662:0.053708188 3663:-0.036148407 3664:-0.02107574 3665:0.058667149 3666:0.091840744 3667:-0.0015282211 3668:0.042454354 3669:0.081942104 3670:0.12419286 3671:-0.020805553 3672:-0.081980504 3673:0.24796259 3674:-0.050785579 3675:0.049907282 3676:-0.079535075 3677:0.084481575 3678:0.20283026 3679:0.093971103 3680:0.28255153 3681:-0.090685852 3682:0.0692221 3683:0.037904833 3684:0.035642363 3685:-0.088793069 3686:0.053142678 3687:-0.072507225 3688:0.067905568 3689:-0.019293576 3690:-0.12760577 3692:-6.5808558e-014 3693:0.01891163 3694:0.0083101541 3695:-0.044197269 3699:0.14528045 3700:-0.050385635 3701:0.0095821898 3702:0.070081204 3703:0.015381281 3704:0.08337871 3705:0.014558262 3706:-0.35215846 3707:0.0026996159 3708:0.07308244 3709:0.0096802572 3710:-0.083838865 3711:0.17941673 3712:0.070652016 3713:0.012261007 3714:0.040681779 3715:0.082107946 3716:0.1425802 3717:0.20906502 3718:0.12281156 3719:-0.0029693323 3720:0.035642363 3721:-0.10538574 3722:-0.061278503 3723:0.2325224 3724:-0.053437538 3725:-0.023502296 3726:0.066788375 3727:-0.040744919 3728:-0.012935344 3729:0.23843504 3730:0.14760931 3731:-0.15629587 3732:0.13110289 3733:-0.0017896662 3734:-0.033453889 3735:-0.027867842 3736:0.10768414 3737:-0.04692214 3738:0.015183661 3739:-0.1106632 3740:-0.18612503 3741:-0.07842344 3742:-0.17911223 3743:0.024989109 3744:-0.27250329 3745:0.068867117 3746:0.12874155 3747:-0.040230352 3748:0.10181893 3749:-0.015522853 3750:-0.047691882 3751:-0.035642363 3752:0.058800377 3753:0.028047273 3755:-0.0028755609 3756:-0.063504353 3757:-0.14614967 3759:-0.0050950367 3760:0.021780761 3761:-0.066802196 3763:0.019173812 3764:0.016620282 3765:0.080753118 3766:0.015872147 3767:-0.13866015 3768:-0.058936331 3769:0.0063088601 3771:-0.035292003 3772:0.05568257 3773:0.030451668 3774:-0.0087730745 3775:-0.029179018 3776:-0.078257285 3777:-0.070372202 3778:-0.05537631 3780:0.071284726 3782:-0.038808767 3783:-0.035642363 3784:0.011869066 3785:0.035642363 3786:-0.067398749 3788:0.093759373 3789:-0.0091669215 3791:-0.010889468 3792:-0.017759314 3793:0.046627559 3794:0.099350266 3796:0.043019805 3797:0.032408208 3798:-0.03728538 3799:0.10692709 3800:0.071284726 3802:0.1354956 3803:-0.035642363 3804:-8.2945707e-016 3805:-0.02948199 3806:-0.026123518 3807:-0.042585965 3808:0.035642363 3811:0.068295002 3812:-0.020784808 3813:-0.062834032 3814:-0.00063171884 3817:-0.040606916 3818:-0.0072847772 3819:0.040999405 3820:0.035642363 3822:-0.00088948844 3823:0.025153184 3824:0.035642363 3825:-0.032725986 3826:-0.0099214474 3827:0.030362954 3828:-0.0070684603 3829:-0.049252477 3830:0.0014656405 3831:-0.012326062 3832:0.0053817527 3833:0.12687165 3836:-0.044809286 3838:-0.10351206 3839:-0.035642363 3840:-0.020369848 3841:0.035010647 3842:-0.034473225 3844:-0.076555468 3845:-0.04570223 3846:-0.021368071 3848:0.071731411 3849:-0.039069854 3850:0.10393338 3851:0.037689384 3852:0.19314319 3853:-0.04320151 3854:0.010666572 3855:-0.057848893 3858:0.071509302 3859:-0.061519664 3860:0.035642363 3861:-0.012147579 3862:0.0039615282 3863:0.035642363 3864:0.055427786 3865:0.07428436 3866:0.035642363 3867:-0.03987404 3868:0.015316585 3869:-0.073721714 3870:-0.071284726 3872:0.024441423 3874:0.01810639 3876:-0.011716501 3877:0.091225915 3878:-0.012492448 3879:-0.021358717 3880:0.11765511 3882:-0.035642363 3883:0.027507801 3886:0.04649736 3888:0.17130105 3889:0.021022335 3890:0.11910843 3893:0.12288108 3894:-0.024419671 3895:-0.012763754 3896:0.010913619 3897:-0.035642363 3900:0.035642363 3901:-0.062738225 3902:-0.03575927 3903:0.0057251793 3904:0.089263216 3905:0.096129134 3906:0.043618027 3907:-0.019838242 3908:-6.5808558e-014 3910:0.11272717 3911:0.075556345 3912:0.0073494646 3913:0.089534245 3914:0.12117498 3915:0.15271884 3916:0.020782551 3917:0.032117181 3918:-0.035759307 3919:0.046314146 3920:0.0065485919 3921:0.089573212 3922:0.0021672181 3923:-0.27721941 3924:-0.10157422 3925:0.10791819 3926:-0.0186488 3927:-0.071284726 3928:0.069222175 3929:0.16594538 3930:-0.026905823 3931:-0.032725986 3933:0.035013597 3934:-0.035642363 3935:-0.052557655 3936:0.09406969 3937:0.0059388061 3939:-0.069928266 3940:-0.078045182 3941:-0.010667212 3942:0.12254482 3943:0.035642363 3944:0.13559733 3945:0.10947088 3946:0.088865235 3947:0.065072946 3948:0.025565343 3949:0.03357292 3952:0.013065304 3953:0.02243885 3954:0.016524149 3955:0.087649018 3956:0.0094671901 3957:-0.050598163 3958:0.021539215 3959:-0.039303966 3960:-0.013094793 3962:0.0026090159 3964:-0.03564645 3965:-0.02264932 3966:0.035642363 3967:0.071284726 3968:0.097012885 3969:-0.079165228 3970:0.035642363 3972:0.013764897 3973:0.1345288 3974:0.025137791 3975:0.045333181 3977:0.087981053 3978:-0.097132288 3979:-0.049443576 3980:-0.11348099 3982:0.035642363 3983:-0.027813302 3984:0.07304161 3985:-0.01432178 3986:-0.049688008 3987:0.035082683 3988:0.0910258 3990:-0.19312897 3991:-0.035642363 3993:0.028466217 3994:-0.0090520727 3996:0.018934429 3997:-0.025695628 3999:-0.028335718 4000:0.069556758 4001:0.014006337 4002:0.028178139 4003:0.10692709 4004:-0.10473012 4005:-0.008074088 4006:0.0099071143 4007:0.063447662 4008:-0.074047863 4009:-0.043554235 4010:-0.049155619 4011:-0.043371946 4012:-0.030933157 4013:-0.0099661276 4014:0.24514619 4016:0.031320546 4017:-0.011097893 4019:-0.028335718 4020:0.03544648 4021:-0.047979824 4022:0.047451597 4023:0.026422706 4024:0.10713682 4025:-0.024338573 4026:-0.025279095 4027:0.035642363 4028:0.060928956 4029:0.018071616 4032:-0.034681994 4033:0.0048493305 4035:-0.048806109 4037:0.24213652 4038:-0.16093722 4039:-0.035642363 4040:-0.0055933525 4041:-0.034429163 4044:-0.0034375635 4045:0.024065299 4046:-0.025678856 4047:-0.035340562 4048:0.0052567073 4049:0.054149106 4050:0.086873338 4051:-0.017991507 4052:0.035642363 4053:0.053362358 4054:0.0016440926 4055:-0.073758006 4056:-0.060712293 4057:0.01583147 4058:-0.043740738 4059:-0.023870625 4060:0.005719204 4061:-0.0056959847 4062:0.0097085796 4063:-0.13608131 4064:-0.061662707 4065:-0.038820758 4067:-0.088334665 4068:-0.019567013 4069:0.0354959 4070:0.00045180781 4071:0.025380146 4072:0.045309771 4075:0.072145887 4076:-0.13097723 4077:0.19784524 4078:0.025044776 4079:-0.082888246 4080:-0.067049339 4081:-0.031809937 4082:0.0051223319 4084:0.0063061882 4085:-0.044099499 4087:-0.043775465 4088:-0.02575752 4089:-0.035560176 4090:-0.0067395088 4091:0.060920309 4092:0.072845124 4093:0.037983295 4094:-0.085077867 4095:-0.067718565 4096:0.051902574 4097:-0.037151016 4098:-0.048132814 4099:0.0010687044 4100:-0.035642363 4101:-0.16262838 4103:0.035642363 4104:0.018719325 4105:0.015378528 4106:0.013419061 4108:-0.016644185 4109:0.035642363 4110:-0.086114034 4112:-0.083409466 4113:-0.03921983 4114:-0.066296145 4116:0.066270635 4117:-0.024256682 4118:0.010832076 4119:-0.059526093 4120:0.024065135 4121:0.06063664 4122:0.029338883 4123:0.15005445 4125:-0.024777316 4126:0.01895166 4127:-0.0089212954 4128:-0.021145022 4130:0.009185194 4131:-0.002067093 4132:0.13157754 4133:0.035642363 4136:0.15148704 4137:-0.17360198 4138:-0.088273898 4139:0.034832925 4140:-0.026688615 4141:0.079436541 4142:-0.048872378 4143:-0.075743861 4145:-0.010686789 4146:-0.041567139 4147:0.035642363 4148:-0.010343926 4149:-0.050869081 4150:-0.0588145 4151:-0.027813302 4153:-0.17335197 4154:0.035642363 4155:0.0056253118 4156:-0.029977269 4157:-0.0051895189 4158:0.0320649 4159:-0.090481557 4160:-0.028961662 4161:0.061040767 4162:-0.013499448 4163:-0.074425511 4164:-0.019078633 4165:-0.023229389 4167:-0.11688593 4168:0.026464254 4169:0.065118693 4171:-0.13942704 4172:0.0354959 4175:-0.019970348 4177:-0.006939468 4178:-0.045720804 4179:-0.01531244 4180:0.010054713 4181:-0.055883098 4182:0.10716887 4183:0.027344318 4184:0.030924018 4185:-0.049579222 4186:-0.13660023 4188:0.00051653752 4189:-0.12451597 4190:-0.091385856 4191:-0.0056759799 4192:-0.017283216 4193:-0.054209732 4194:0.0081958771 4195:0.010365441 4196:-0.031289913 4197:0.013618181 4198:-0.035642363 4199:0.03313759 4200:-0.035642363 4201:-0.069365844 4202:-0.020893747 4203:-0.049926862 4204:0.078706697 4205:-0.0093602743 4207:0.11208472 4208:0.045309454 4209:-0.053246416 4211:0.0089883665 4212:0.095634922 4215:-6.5808558e-014 4219:-0.0013359031 4220:-0.029337296 4221:-0.017730445 4223:-0.035642363 4225:0.016987015 4227:-0.045773264 4228:0.078186929 4229:0.027507801 4230:-0.032549076 4231:-0.019000225 4232:0.033601504 4233:-0.0089721326 4234:0.034011997 4235:-0.035642363 4236:-0.19354509 4237:0.03371758 4238:0.1412248 4239:0.18166083 4240:-0.018491596 4241:0.034785308 4242:-0.10833358 4243:-0.023360124 4245:-0.051336568 4246:-0.017759314 4247:-0.075176969 4248:0.030232759 4249:-0.045800596 4250:-0.022334507 4252:-0.055959199 4253:-0.039069854 4254:0.0013552731 4255:-0.071284726 4256:-0.062643111 4257:0.034230139 4258:-0.037151016 4259:-0.0043919533 4260:0.1133919 4261:0.021050151 4262:-0.069455124 4263:-0.076420352 4265:0.093383834 4266:0.010746965 4267:-0.025973024 4268:-0.026983621 4269:0.035642363 4270:0.13370989 4271:-0.0052794092 4272:-0.030546743 4273:-0.049261689 4274:0.0079910774 4276:-0.094134934 4277:0.058051616 4278:-0.071284726 4280:0.035384987 4281:0.071284726 4282:-0.053335048 4283:0.066936888 4284:0.035731796 4285:-0.035642363 4286:-0.016521513 4287:-0.13938302 4288:-0.004428497 4289:0.03244086 4291:0.18707646 4292:0.096862681 4294:-0.048872378 4296:-0.071284726 4297:0.042784404 4298:0.046970163 4301:0.03426183 4302:0.10686861 4303:0.055686146 4304:-0.035642363 4305:0.025553839 4306:-0.068564646 4307:-0.027321918 4308:-0.013406259 4309:-0.16543753 4310:0.035642363 4311:0.11303005 4313:-0.045352522 4316:0.0301245 4317:-0.035482876 4318:-0.022314874 4319:-1.3161712e-013 4321:-0.01674651 4322:-0.02572347 4323:-0.0053329477 4324:0.057715446 4325:0.035642363 4326:0.035642363 4327:-0.042847451 4328:0.025431186 4329:0.035642363 4330:0.017082818 4331:0.017313637 4332:-0.042560544 4333:0.058028854 4334:-0.042661909 4335:0.016912816 4336:0.028985247 4337:-0.0047771269 4339:-0.061958466 4341:0.052629378 4342:-0.018630063 4343:0.024520796 4344:-0.050020583 4345:0.037935492 4346:0.040910121 4347:-0.0050410395 4348:0.030707985 4349:-0.012492448 4352:-0.0089975884 4354:-0.047879871 4355:0.044021226 4356:-0.046174262 4357:-0.033243902 4358:0.088389874 4359:-0.045869153 4360:0.033428252 4363:-0.068625383 4365:0.035642363 4367:0.035642363 4368:0.035229694 4369:-0.026467161 4370:-0.035642363 4371:0.034785308 4372:-0.017730445 4373:0.077593401 4374:0.046596207 4375:0.035642363 4377:-0.073376253 4378:0.0035305112 4379:-0.016764179 4380:-0.08993572 4381:-0.1355309 4383:0.21390653 4385:0.048550218 4386:-0.035642363 4387:-0.045434423 4388:-0.10793723 4389:-0.038894091 4391:-0.025497757 4392:0.22323106 4393:-0.034473225 4394:-0.048581127 4395:-0.01422342 4396:-0.032325462 4397:-0.043940287 4398:-0.050869081 4401:-0.050517298 4402:-0.11753819 4403:-0.14382507 4405:0.035642363 4406:0.035797983 4407:-0.035642363 4408:-0.061510094 4409:-0.09353333 4410:0.035362229 4412:0.035642363 4413:-0.01409153 4414:-0.063964225 4415:-0.016030299 4417:0.013618181 4418:-0.0065940735 4420:-0.10599008 4421:0.069835521 4423:0.050482836 4424:0.10692709 4425:0.23129246 4426:0.0044933837 4428:-0.017423041 4429:0.10585319 4430:-0.13330393 4431:0.10297631 4433:0.14019713 4434:0.0035731469 4437:0.068930596 4438:0.015477955 4439:0.011190698 4440:0.04676412 4442:-0.079319298 4443:0.068810776 4445:0.019891558 4446:0.021383362 4447:0.035642363 4449:0.035154462 4450:0.0037756704 4451:0.071284726 4452:0.0090682535 4453:0.035642363 4454:-0.053907543 4456:-0.086196341 4458:0.04182535 4459:0.045014542 4460:-0.03029054 4461:-0.065347508 4462:0.04438445 4463:0.051905222 4465:0.013158342 4466:-0.038254391 4468:0.19145505 4469:-0.040796187 4470:-0.035642363 4471:0.034785308 4473:-0.057041951 4474:0.081771068 4475:-0.05928845 4476:0.081316963 4477:0.018727424 4478:0.11199584 4479:0.01075636 4480:0.035642363 4481:-0.016198991 4482:0.035642363 4483:0.15133394 4484:0.035642363 4485:0.026250971 4486:-0.063570336 4487:-0.068852209 4488:0.035642363 4490:-0.04270985 4491:0.0020051317 4492:0.036626264 4494:0.041576531 4495:0.011385825 4496:0.091246195 4497:-0.012457346 4499:-0.014967093 4500:0.063287914 4501:0.04676412 4502:-0.0013152271 4503:0.0099124825 4504:0.0051387362 4505:-0.086476281 4506:-0.084737405 4507:0.016059084 4508:-0.096130848 4509:-0.086767688 4510:-0.004107527 4511:0.036057074 4512:0.0016930217 4513:0.035642363 4514:-0.0042661633 4517:-0.0067246188 4519:0.021631423 4522:0.0088414727 4523:-0.0026824325 4524:-4.1596912e-005 4525:0.065473713 4526:0.18107307 4527:0.12092192 4529:-0.053550344 4530:-0.062965155 4531:0.014264707 4532:0.066896521 4533:-0.058449838 4534:0.071123749 4535:-0.14808612 4536:0.097314723 4537:-0.0295253 4538:-0.051073618 4539:0.0082128728 4540:-0.01224219 4541:0.014453358 4542:0.026179092 4543:0.073126338 4544:-0.059359334 4545:-0.043425355 4546:8.2945707e-016 4549:-0.086190693 4550:0.0039615282 4551:0.021905266 4552:-0.011690168 4553:0.018661629 4554:0.0013614635 4555:0.0083484473 4557:-0.048488989 4558:0.063820504 4559:-0.035642363 4560:0.05925972 4561:0.0061170645 4562:-0.02575752 4563:-0.018038586 4565:-0.0080759656 4569:-0.046553139 4570:-0.01631497 4571:-0.028384095 4572:-0.039234299 4573:0.028024787 4574:-0.044045009 4577:0.056136753 4579:0.10860521 4580:0.055427786 4581:0.035642363 4582:0.035642363 4584:0.014865699 4585:0.035642363 4586:-0.032618389 4587:0.012256823 4588:0.068188831 4590:-0.083787926 4592:-0.090110086 4594:0.13897893 4595:0.035243772 4596:0.057288814 4597:-0.042290676 4598:0.066302396 4599:-0.051023278 4600:0.08052294 4601:-0.027930982 4602:-0.011673121 4603:-0.0056087747 4604:0.15098375 4605:0.033718184 4607:0.013906498 4608:-0.0329112 4610:-0.048669897 4611:0.033291359 4614:0.027281055 4616:-0.0056087747 4618:0.088365987 4619:-0.1103342 4620:0.1315275 4621:-0.039394777 4622:0.0016850624 4623:0.11251567 4624:0.033947647 4625:-0.035642363 4626:-0.014122242 4627:0.048512608 4628:-0.035642363 4629:0.00032432709 4630:-0.035642363 4631:-0.050819572 4632:0.11629383 4633:0.01454949 4634:-0.033103086 4635:0.07197015 4637:0.035642363 4638:-0.035899743 4640:0.0068985247 4641:-0.01087802 4644:0.035642363 4645:-0.0096332338 4646:0.0081684077 4647:-0.032160372 4648:0.062713765 4649:-0.048552468 4651:0.080403313 4652:0.053875409 4653:0.028469516 4655:0.10692709 4656:0.046443 4657:-0.12959304 4659:0.0017190307 4660:-0.046740256 4661:-0.03921983 4662:-0.2733503 4663:0.028251082 4664:0.071284726 4665:-0.019838242 4667:-0.018312806 4668:-0.026074596 4670:0.02339696 4672:0.047782857 4673:-0.12579662 4676:-0.0055523482 4678:-0.0084857075 4679:0.004661757 4680:-0.14462979 4681:-0.071182013 4682:0.010473168 4683:0.035642363 4685:0.02617345 4686:0.095772445 4687:-0.0086722216 4688:0.096452422 4689:-0.020088324 4691:-0.0046267468 4692:0.013556551 4693:-0.074012525 4694:0.11518065 4695:0.035642363 4696:-0.031260539 4697:-0.048855178 4698:0.030137597 4699:-0.015959658 4700:0.0040436783 4701:-0.027873985 4702:0.034227487 4703:0.071284726 4704:0.0012575291 4705:-0.035642363 4706:-8.2945707e-016 4708:0.016997362 4710:0.088280313 4711:0.14140619 4712:-0.013730144 4714:0.0013962939 4715:0.035642363 4716:-0.041738603 4717:-0.010679687 4718:-0.019263437 4720:0.017096059 4722:-0.035642363 4723:-0.16664352 4724:-0.046433095 4725:0.023717601 4726:0.084941022 4727:-0.085475549 4728:0.006384633 4730:-0.037360158 4732:-0.035642363 4733:-0.050266217 4735:-0.15789437 4736:0.0018492771 4737:0.018134123 4740:-0.067959562 4742:-0.02124206 4743:0.013618181 4744:-0.030450217 4745:0.093290105 4746:0.036043629 4747:-0.027651288 4748:-0.035642363 4749:0.15121011 4751:-0.13510424 4752:-0.10971153 4753:0.026373534 4754:0.076163501 4755:-0.038230117 4756:0.028178139 4758:-0.03314545 4759:-0.053647336 4760:0.015860893 4761:-0.044250865 4762:0.033281595 4763:0.032766804 4764:0.021967644 4766:0.035626326 4767:0.069861531 4770:0.048877303 4771:-0.032586977 4772:-0.001406357 4773:0.068295002 4774:0.063448198 4776:0.0020434838 4777:-0.018395945 4778:-0.030357245 4779:0.048785955 4780:-0.097413607 4781:0.0046751723 4782:0.024065135 4783:-0.026483452 4784:-4.1596912e-005 4787:0.049430046 4788:-0.16238736 4789:0.071284726 4790:-0.040552594 4791:0.0042650006 4792:-0.033525523 4793:-0.10234802 4794:-0.057309672 4795:-0.020708457 4796:-0.018571267 4797:0.093623571 4798:-0.053838529 4799:0.031151837 4800:-0.035642363 4801:0.010838453 4802:-0.031294718 4806:-0.02617993 4807:-0.007589892 4808:0.061479159 4809:-0.02234056 4810:0.078339584 4811:0.037665181 4812:-0.039456684 4813:0.0069339979 4814:-0.063278668 4815:-0.11113415 4817:-0.0078986334 4819:0.025974646 4820:-0.10613902 4821:0.11640331 4822:-0.075605065 4823:-0.035566747 4824:-0.040899042 4825:-0.0048942058 4827:0.008627343 4828:0.075005226 4830:0.03004249 4833:-0.031809937 4835:-0.039573759 4836:0.012102772 4838:-0.11032806 4839:-0.0029209843 4840:0.053994574 4841:-0.047015775 4844:0.12055849 4845:-0.057912946 4849:-0.018514164 4850:0.030035837 4851:0.042222984 4854:0.035642363 4855:-0.028374061 4856:-0.010943683 4857:-0.015542479 4859:0.00025737815 4860:0.008627343 4862:0.01307013 4863:-0.056235198 4864:0.0032793824 4865:0.039696895 4867:0.032306265 4868:-0.017334608 4869:-0.051345527 4871:0.035642363 4872:0.071284726 4873:0.023908114 4874:0.027507801 4875:-0.18972303 4878:0.0089219557 4879:0.0062718466 4880:-0.035642363 4881:0.045413427 4883:-0.0033483431 4884:0.21541698 4887:-0.072469242 4889:-0.014528113 4890:0.10692709 4891:-0.16195314 4892:0.076874711 4893:-0.035642363 4895:-0.039133497 4896:-0.11844996 4897:0.02698203 4898:-0.029109711 4899:0.037537146 4900:0.061224703 4902:0.10276692 4903:-0.018041376 4904:0.089012966 4905:0.035642363 4906:0.060683407 4907:0.015426191 4908:0.010134684 4909:-0.0056087747 4910:0.035642363 4912:-0.020346884 4913:0.03568396 4914:0.0363818 4915:-0.05004603 4917:0.031032495 4918:-0.076087229 4919:0.027991481 4920:-0.0095296809 4921:0.063789368 4922:0.11607864 4923:-0.017267423 4925:0.054908078 4927:-0.064919807 4928:0.10604446 4929:-0.035642363 4931:0.15887849 4933:0.011219532 4935:-0.041345861 4936:0.022016073 4938:-0.05742738 4939:-0.013017968 4941:0.10351731 4944:0.01075636 4945:0.034698471 4946:-0.073187418 4947:0.059185483 4948:-0.11485653 4949:0.0094683878 4950:0.035642363 4951:0.071284726 4953:-0.0007604069 4954:0.011572724 4955:-0.054858193 4956:-0.005977612 4957:-0.017067069 4958:-0.075969256 4959:-0.064670391 4960:-0.07111565 4961:-0.062830634 4962:0.066896521 4963:-0.035642363 4964:0.18452178 4965:0.10936651 4966:-0.045434423 4967:-0.0074979947 4968:0.075744726 4969:-0.073712133 4970:0.032138892 4972:0.013034469 4973:-0.14419946 4974:-0.074988753 4975:0.035071526 4977:0.067932628 4978:0.10517327 4979:-0.082163736 4980:-0.031803366 4981:0.02926361 4982:0.019733356 4983:-0.0099822665 4984:0.019255104 4985:0.085572273 4986:-0.044155251 4987:-0.028787306 4988:0.035642363 4989:0.041232891 4990:0.024784315 4991:-0.040987529 4992:0.094505288 4995:-0.045967259 4996:0.035642363 4997:-0.022140784 4998:0.050891533 4999:-0.023697464 5000:-0.10502079 5001:-0.0017578809 5003:0.049024716 5004:0.071284726 5005:0.014445454 5006:-0.033691194 5007:-0.035642363 5008:0.00025737815 5009:-0.049920611 5010:-0.050932553 5011:0.035642363 5012:0.0042995317 5013:0.011478432 5014:-8.2945707e-016 5015:0.032137837 5016:0.024714282 5017:0.055325072 5018:-0.0077060116 5019:0.012023655 5020:-0.013559031 5021:-0.049511764 5022:-0.10764001 5023:0.0029765109 5025:-0.067562774 5026:-0.035803933 5027:-0.087175101 5028:0.035642363 5029:0.15588807 5030:-0.0066931364 5031:0.12033077 5033:-0.063610934 5034:-0.0083776079 5036:-0.075544901 5037:0.022655152 5038:-0.079578102 5041:-0.035642363 5042:-0.021129871 5043:-0.15087062 5044:-0.040926989 5048:-0.042877521 5049:0.14115374 5050:0.071284726 5051:0.024714282 5052:-0.010386994 5054:0.0027455851 5055:0.023529109 5056:-0.064302787 5057:-0.031849198 5058:0.038950689 5060:-0.014987774 5061:0.12760645 5063:-0.024688048 5064:-0.16824767 5065:-0.040972751 5066:-0.032460611 5067:-0.051624499 5070:-0.014580872 5071:-0.044409838 5073:-0.035642363 5074:0.063381828 5075:0.035642363 5076:-0.019531241 5077:0.035642363 5079:0.045386892 5080:-0.035817247 5082:0.024255456 5083:0.035642363 5084:-0.022168299 5085:-0.04849948 5086:-0.0052660359 5089:-0.03305956 5090:-0.019688379 5091:0.0082446737 5095:0.017659174 5096:0.008745322 5097:-0.010497171 5099:0.071284726 5101:-0.019767186 5103:0.012426483 5104:0.019221673 5105:0.0099080363 5106:-0.07332056 5107:-0.13923365 5108:-0.1776772 5110:0.031752363 5112:-0.11552839 5113:0.065034643 5114:-0.067625038 5115:0.0056777764 5117:0.035642363 5118:-0.16493329 5119:0.08444187 5120:-0.09880887 5121:0.12771806 5122:-0.10732318 5123:0.026372256 5127:-0.13178371 5128:-0.023917008 5129:0.052050918 5131:0.035642363 5132:0.077015877 5133:0.12266139 5134:0.026970215 5135:0.01162219 5137:-0.034763366 5138:-0.0047044051 5140:0.034320898 5141:0.074416138 5142:0.10380679 5143:-0.0054798792 5144:0.090147741 5146:0.023821007 5147:-0.0020398595 5148:-0.082241505 5149:0.035642363 5150:0.074004121 5151:-0.11785629 5152:-0.14636196 5153:0.016197884 5154:0.077658221 5155:-0.0050968062 5156:0.02394278 5157:0.071284726 5158:-0.068941653 5160:0.018934429 5162:0.010943221 5163:0.045227073 5164:-0.010670819 5166:0.098087251 5167:0.017406231 5168:0.044918239 5169:0.021607863 5170:-0.099179082 5171:-0.11464726 5172:0.14922264 5174:-0.0079869358 5175:-0.026244186 5176:-0.024874913 5177:0.060704723 5178:0.0043335236 5179:-0.12828197 5180:0.035642363 5181:0.032138892 5183:0.067689769 5184:-0.082550086 5185:0.043341178 5186:-0.12015134 5187:-0.00013996077 5188:0.13432945 5189:-0.00024741853 5190:-0.015941609 5191:0.031300142 5192:-0.10095704 5193:0.04739739 5194:-0.020318365 5195:-0.014569874 5198:0.035642363 5199:0.011552209 5200:-0.056558385 5201:-0.0053853691 5202:-0.059068974 5203:-0.059831209 5206:0.035642363 5207:0.0038846117 5211:0.0040715239 5212:0.03922344 5213:0.035642363 5214:0.077057533 5215:0.10692709 5216:0.0053326529 5218:-0.047018167 5219:0.0063951374 5220:0.15500978 5222:-0.067021012 5223:0.055289645 5224:0.12619215 5225:-0.10223086 5226:-0.078027852 5227:-0.19645226 5228:0.067452744 5229:-0.064811051 5232:-0.039028667 5233:0.024669111 5235:0.017900165 5236:-0.035642363 5237:-0.063610934 5238:0.0056187306 5239:0.012961261 5240:-0.044615902 5241:0.0078244684 5242:0.015488133 5243:0.022990867 5244:-0.16006413 5245:-0.093529515 5246:-0.0089884698 5247:0.0053326529 5248:0.038341302 5250:-0.072424971 5251:0.029982572 5252:-0.077018879 5253:-0.00025737815 5254:0.045322668 5255:0.07750386 5256:-0.037813731 5257:0.094844662 5258:-0.04543227 5260:0.071062595 5262:-0.031744983 5264:-0.035601195 5265:0.0099606719 5266:0.069303371 5267:0.040632002 5269:-0.022168299 5270:-0.010107965 5271:0.024208503 5272:0.02857298 5274:0.035642363 5275:0.018664051 5276:-0.20869911 5280:0.055671513 5281:0.06781099 5282:0.0076380027 5283:-0.02470603 5284:0.066296093 5285:0.035642363 5286:0.084130041 5287:0.1457497 5288:0.051815957 5289:0.012542296 5290:0.035642363 5291:0.045966644 5292:-0.10092317 5293:0.061203886 5294:-0.042792831 5295:0.023529109 5296:0.038590264 5297:0.035642363 5299:-0.064099818 5300:0.073694512 5301:-0.016209379 5304:-0.081913762 5305:0.0083564483 5306:0.052192949 5307:-0.16034029 5308:-0.041193109 5309:-0.057972468 5310:-0.049865786 5311:-0.11115845 5312:0.1642862 5313:-0.029359894 5314:0.056408845 5315:-0.032743357 5316:-0.027038554 5318:-0.034763366 5319:-0.035642363 5320:0.021594485 5321:-0.024501139 5322:0.0045954729 5323:-0.058000177 5324:-0.1332628 5326:0.10582472 5327:0.058551256 5328:-0.10329703 5329:0.035642363 5330:-0.093687534 5331:-0.040031902 5332:0.10693616 5334:-0.035077017 5335:0.0093075661 5336:-0.1400903 5337:-0.030447906 5338:-0.11230705 5339:0.035642363 5340:0.069796704 5341:-0.032025095 5343:-0.015768763 5345:0.080645807 5346:-0.0025840306 5347:-0.25998625 5348:-0.05663646 5349:0.0096019739 5350:0.00025737815 5351:-0.088891819 5353:0.16329029 5354:-0.052538726 5355:-0.022276912 5356:0.0075536817 5357:0.017140895 5358:0.057364877 5359:-0.11787492 5360:-0.0085419165 5361:0.035642363 5362:0.070449702 5363:0.12604757 5364:-0.10986228 5365:-0.027396098 5366:0.0049084686 5367:-0.1612884 5368:0.21117415 5369:0.13110186 5370:-0.052909587 5371:0.061975308 5372:-0.0068901167 5374:-0.0300931 5375:1.2844042e-013 5376:0.04576534 5378:-0.060204595 5379:-0.088681713 5380:0.028889894 5381:0.094244346 5383:-0.15693387 5384:-0.067197435 5386:0.032277331 5388:-0.011857245 5389:-0.040805694 5390:-0.048940897 5391:-0.037223428 5392:0.058230516 5393:-0.0098607186 5394:-0.019591175 5395:0.032536726 5396:0.10615303 5397:0.030887315 5398:0.01441451 5400:-0.0048305788 5402:0.0076416852 5403:-0.0059819766 5404:0.052005973 5405:0.035642363 5408:-0.024363102 5409:0.070240855 5410:0.035642363 5411:0.035642363 5412:0.11938331 5413:-0.0002560264 5414:-0.042829052 5416:0.02319837 5417:-0.056688469 5418:0.11472121 5419:-0.058483187 5420:-0.18726835 5421:0.0023058937 5422:-0.047491886 5423:0.0057878369 5426:-0.022485657 5427:-0.037300706 5428:0.16372907 5429:0.074981228 5430:-0.087941103 5431:-0.035642363 5432:0.054897469 5433:0.062139358 5434:-0.026384339 5435:-4.1570809e-005 5436:-0.049468257 5437:0.036245681 5439:-0.066289008 5440:0.023709005 5441:-0.15573306 5443:0.0095836585 5444:-0.002283944 5445:-0.13725349 5446:-0.035642363 5448:0.035642363 5452:-0.001685457 5455:0.035642363 5456:0.00046139912 5457:0.035642363 5459:0.027094401 5460:-0.0032499407 5461:-0.018016934 5462:8.8001958e-005 5463:0.035642363 5464:-0.020187289 5465:0.012207989 5466:-0.043939952 5467:-0.12004777 5468:-0.0473672 5469:-0.10932737 5470:-0.048000913 5471:0.032763217 5473:0.07051789 5474:-0.035642363 5475:0.010381633 5476:0.016599599 5477:0.011869066 5478:0.034228027 5479:-0.052113228 5480:0.30843842 5482:0.010944976 5485:0.035642363 5486:0.085386224 5487:0.066309087 5488:-0.038024943 5489:-0.038862169 5490:0.1018368 5491:-0.022422941 5492:0.082880147 5493:0.09985552 5495:0.035642363 5496:-0.029190628 5497:0.03056713 5498:0.024294728 5499:0.055734612 5500:0.073153615 5501:0.05975578 5502:0.005076265 5503:0.072913527 5504:-0.0088207899 5505:0.071284726 5506:0.00077079417 5507:0.0063369027 5508:-0.039085645 5509:0.09424568 5510:0.040536918 5511:-0.053150706 5514:0.14431643 5515:-0.085329987 5516:-0.014862944 5517:-0.045232717 5518:0.066651188 5519:0.023709005 5520:0.035642363 5521:0.0270517 5522:0.037163168 5524:0.063504666 5525:-0.048618902 5526:-0.10928212 5527:-0.010439418 5528:-0.025568567 5529:0.21413027 5530:0.032458246 5532:0.047620852 5536:0.064080171 5538:0.033498164 5539:0.0039377925 5540:-0.021828353 5541:-0.016250586 5544:-0.0013149003 5545:0.035642363 5546:0.060458571 5547:-0.027943097 5548:0.071284726 5549:-0.035328407 5551:0.10657707 5552:0.035642363 5553:0.051118735 5554:0.076113299 5555:0.0011572308 5556:-0.03038994 5557:-0.03619634 5558:0.023527348 5559:-0.048806109 5560:0.087820321 5561:-0.035133548 5562:0.059336271 5563:-0.018429037 5564:0.035642363 5568:0.071284726 5569:-0.060277592 5570:-0.036816213 5571:0.039394226 5572:0.0046110414 5573:0.035642363 5574:0.0085398108 5575:0.035642363 5576:-0.015253486 5577:0.033445027 5578:0.16701831 5579:0.054205667 5581:-0.039185852 5584:0.065929256 5585:0.01866146 5586:0.083763696 5588:0.071284726 5589:0.033445027 5590:-0.1283951 5591:0.0035881877 5594:0.024163634 5596:-0.11270098 5598:0.028182535 5599:0.032096498 5603:-0.080156282 5604:-0.078583576 5606:0.061997321 5607:-0.049620502 5608:-0.0011846602 5609:-0.01016691 5610:0.03790025 5611:0.071284726 5612:0.071284726 5613:-0.037970636 5615:0.011584918 5616:0.041605562 5617:-0.0025840306 5618:-0.053150706 5619:-0.014292849 5620:-0.12886119 5621:-0.083248436 5622:-0.10893889 5623:0.098466329 5626:-0.049865786 5627:-0.022119604 5629:0.048160356 5630:0.019682707 5631:0.022733409 5632:0.035642363 5633:-0.096374236 5635:0.0093748355 5636:0.078072682 5638:-0.0099631688 5639:0.040619351 5640:0.013678889 5641:0.028377397 5643:0.033898249 5644:0.24296042 5645:-0.04850518 5647:-0.12604019 5648:0.017452801 5649:0.014313431 5650:-0.07265912 5651:0.035642363 5652:-0.031589672 5653:0.032721106 5654:0.15649986 5655:-0.018895021 5657:-0.024678143 5658:0.015617481 5659:0.13840108 5660:-0.074009456 5661:0.011938996 5663:-0.099125728 5665:0.023975942 5666:-0.16681682 5667:0.021815944 5668:-0.0032105187 5669:0.1104095 5670:0.038963579 5672:0.053146414 5673:-0.048091479 5674:-0.0070123235 5675:-0.059341252 5676:0.0044938638 5678:-0.038901772 5680:-0.03169192 5681:0.058047481 5682:0.0033484665 5683:0.074976526 5684:-0.056052946 5685:0.035642363 5686:-0.056297164 5688:-0.024542835 5689:-0.10218972 5690:0.024454545 5691:0.023709005 5692:0.026321329 5693:8.4950196e-005 5694:0.026372256 5695:-0.054610498 5696:0.016142881 5698:0.023048891 5699:-0.039571397 5700:0.097134799 5701:-0.0036388915 5702:0.12418922 5703:0.01337314 5704:-0.091496632 5705:-0.058127172 5706:-0.063610934 5707:-0.021538567 5711:-0.012483933 5714:0.024280826 5715:-0.018783087 5716:0.0044244984 5717:0.046689395 5718:-0.20694853 5719:0.02391897 5720:-0.017127253 5723:0.093132354 5724:-0.08089564 5725:0.082461245 5726:0.0013317387 5728:0.071284726 5729:0.12393893 5730:0.17652856 5731:-0.07637614 5732:0.15438662 5733:-0.027606465 5734:-0.11554281 5735:0.035642363 5736:0.027089218 5737:0.035642363 5738:-0.26232785 5739:0.035642363 5740:-0.048647411 5741:-0.04487123 5744:0.14690588 5746:0.021154074 5747:-0.038014069 5748:-0.034584172 5749:-0.030230362 5750:0.031066885 5751:-0.00034909244 5752:-0.065832622 5753:-0.040060379 5754:0.035642363 5756:-0.27324662 5758:-0.042339329 5759:0.035642363 5760:0.029997636 5762:-0.096616067 5763:0.11766765 5764:0.11607605 5765:-0.00043774577 5766:-0.0083562136 5767:0.017706338 5769:0.019921841 5770:0.025637072 5771:0.031300142 5772:-0.065654099 5773:-0.015189149 5774:0.027895894 5775:0.026372256 5776:0.032172881 5777:0.1187734 5778:-0.030433433 5779:0.10300918 5781:-0.0063283332 5783:-0.092201382 5784:0.02051759 5785:-0.14820209 5787:0.075752318 5788:0.10311931 5790:-0.08520031 5791:-0.064894982 5793:-0.04655299 5794:0.0020687825 5795:0.035642363 5796:-0.081307545 5797:0.043866679 5798:-0.17949572 5799:0.095692649 5800:0.022926999 5801:0.02740423 5802:-0.053301852 5803:-0.10692709 5804:-0.030021721 5806:-0.019236425 5807:-0.15838675 5808:-0.18933845 5809:-0.0676907 5810:0.011826252 5811:-0.04262279 5813:-0.0087239444 5814:0.02510985 5815:0.036070477 5816:-0.0068901167 5817:-0.0079839453 5818:-0.051583976 5819:0.035642363 5820:0.035642363 5821:-0.054046798 5823:0.11191681 5824:0.014817566 5825:-0.032756526 5826:0.02043104 5827:0.033496235 5830:0.050995611 5831:0.0033881844 5832:0.12940019 5833:0.096680231 5834:-0.027878772 5835:-0.1439317 5837:0.060775295 5838:-0.10493199 5839:0.035642363 5840:-0.016021976 5842:0.018934429 5844:-0.02121095 5845:-0.021489589 5846:-0.096701123 5848:-0.061313465 5849:0.1179623 5851:0.047556948 5852:-0.10058679 5853:0.035642363 5854:-0.13217929 5856:-0.019604016 5857:-0.012897832 5858:0.026106136 5860:0.020029148 5861:0.072558597 5862:0.035642363 5863:0.010715408 5864:-0.021828353 5865:-0.025960483 5866:0.0267558 5867:0.068700701 5868:-0.040819459 5870:-0.26540524 5871:0.041608308 5872:0.046271048 5873:-0.098901004 5874:0.035642363 5875:0.035642363 5876:-0.036289006 5877:-0.19741647 5878:0.028496426 5880:0.018267523 5882:0.014579304 5884:0.027194006 5885:-0.090484954 5886:-0.065389253 5887:-0.036928486 5888:0.13277087 5889:-0.050068125 5890:-0.026176939 5891:-0.035642363 5892:-0.085181281 5894:-0.00080301048 5896:0.0021498716 5897:-0.021702457 5898:-0.024771255 5899:-0.029768165 5900:-0.020742064 5901:0.005200068 5902:0.10692709 5903:0.0081601441 5904:0.026832329 5905:0.27532095 5907:-0.0028827311 5908:-0.007027226 5909:0.063795179 5910:0.072810709 5911:0.032948826 5912:0.12371678 5913:0.13216142 5914:-0.11871783 5919:-0.14253804 5921:-0.027630297 5922:0.035642363 5923:0.0016414205 5924:0.10058895 5925:-0.0090055345 5926:0.035642363 5927:-0.017810464 5928:-0.14256945 5929:0.035642363 5930:0.047366351 5933:-0.034457333 5934:-0.051600896 5936:0.045966644 5937:-0.0001594897 5938:0.093084492 5939:-0.0047334982 5940:-0.030651655 5941:0.030363815 5942:-0.036203802 5944:0.035384987 5945:0.0995709 5946:8.2945707e-016 5947:-0.084474571 5949:-0.035642363 5950:0.021545781 5951:0.035642363 5952:0.013034469 5954:-0.058134124 5955:-0.0086865006 5956:-0.010288863 5958:-0.013001367 5959:-0.00010271537 5961:-0.087404408 5962:0.035642363 5963:0.064443946 5965:-0.026947256 5966:0.074048102 5967:0.0081378538 5968:-0.008548785 5969:0.035642363 5970:0.071284726 5971:0.064908624 5972:0.11724378 5973:0.049605884 5975:-0.050082762 5976:-0.0070131756 5977:0.071284726 5978:0.035642363 5979:-0.0078391014 5980:0.066917449 5981:0.098033778 5982:-0.018355438 5984:0.10064708 5986:0.010820675 5987:-0.044008382 5988:0.032138892 5990:0.015795201 5993:-0.0062749092 5995:-0.068679892 5996:0.036434799 5998:-0.035520788 5999:-0.025027236 6001:0.083536439 6002:0.13102406 6003:-0.039772801 6005:0.026067313 6006:0.071284726 6007:0.035642363 6008:-0.022485657 6009:-0.076054059 6010:0.063691981 6012:-0.031139156 6013:0.012402786 6014:-0.043026615 6015:0.051122844 6016:-0.049682073 6017:0.014418871 6018:-0.010386519 6019:-0.0052231913 6020:0.035642363 6022:1.2844042e-013 6023:0.025028341 6024:0.035642363 6025:0.0033831275 6026:-0.10725041 6027:-0.087916903 6028:0.069982216 6029:-0.00088493794 6032:-0.053780679 6035:-0.045134533 6036:-0.071358114 6037:-0.048399732 6038:-0.033782899 6040:0.035642363 6041:-0.084647022 6042:0.078820236 6043:0.036223985 6044:-0.035642363 6045:0.014418871 6047:0.075083643 6048:0.22690292 6049:0.0062191277 6050:-0.063610934 6051:-0.13177542 6052:0.021154074 6053:-0.035642363 6054:0.035642363 6055:0.22022715 6058:0.031541102 6059:0.035642363 6061:-0.015837047 6062:0.20514847 6065:-0.061483372 6066:-0.054356422 6068:0.071284726 6069:-0.089582741 6071:-0.0067271409 6075:0.035642363 6076:0.054088831 6077:0.0099860197 6078:0.035642363 6079:-0.036477469 6081:-0.024087608 6082:0.14866552 6084:-0.0063444134 6085:0.01960873 6086:0.034073483 6087:0.00080848532 6088:0.086145051 6089:0.024332706 6090:-4.1169456e-005 6091:-0.032148566 6093:0.026332943 6094:0.0048126611 6095:0.035642363 6096:-0.053780679 6097:0.048082594 6098:0.00070799974 6100:-0.0495115 6101:0.16334498 6102:-0.072927743 6103:0.034921128 6104:-0.037288718 6105:-0.029727597 6107:0.071284726 6109:0.10692709 6111:0.052917514 6112:0.0059676273 6113:0.00011676009 6115:0.024006398 6116:-0.035642363 6117:-0.049846739 6118:0.041324191 6119:0.071284726 6120:0.007580691 6122:0.035642363 6123:0.035642363 6124:0.093556575 6125:0.076298639 6126:0.039113376 6127:-0.034530312 6128:-0.1513624 6131:-0.010806716 6133:-0.042654689 6134:0.0030704378 6135:0.17429389 6137:-0.15470327 6139:-0.041111045 6140:-0.0063318396 6141:0.011364781 6142:-0.00089780695 6143:-0.01820856 6144:-0.035642363 6145:-0.063933745 6146:-0.0037915257 6147:-0.041061729 6148:-0.089963943 6149:0.071284726 6150:-0.160349 6151:0.035642363 6152:0.042226139 6153:0.13161297 6155:-0.032690801 6156:0.25539157 6157:0.020993346 6158:0.096383139 6159:0.086226203 6161:0.018517984 6162:-0.0035905163 6164:0.033807144 6165:0.031457614 6166:-0.015823103 6167:-0.079303488 6168:0.017283235 6169:-0.027602287 6170:0.022046683 6171:0.04342274 6173:-0.075823039 6174:-0.061378423 6175:0.022690916 6176:-0.0054905149 6177:-0.018139746 6178:0.082892917 6179:-0.11387171 6181:-0.085835472 6183:0.035405762 6184:-0.15123442 6185:0.047536381 6186:0.035642363 6187:-0.042960826 6188:-0.13235813 6189:0.030060431 6191:-0.14946443 6193:0.082484163 6195:0.1108432 6196:0.10035773 6197:-0.03165203 6198:-0.024319123 6199:0.19853064 6200:0.19340436 6201:-0.038111292 6202:0.0938017 6204:0.13265289 6206:0.036090199 6207:0.057822518 6208:-0.096383795 6209:0.055967361 6210:-0.057359718 6211:-0.10049111 6213:0.020111516 6214:0.018084817 6215:-0.032398909 6216:0.083274685 6217:-0.0071979114 6219:0.034285415 6221:-0.19830793 6222:-0.052347276 6223:0.027840603 6225:-0.097997732 6226:0.15305249 6227:0.15847944 6228:-0.089033201 6229:-0.0088384002 6230:0.037438609 6231:0.025082169 6232:-0.085644618 6233:-0.046738643 6234:0.059170492 6235:-0.02172016 6236:0.18948555 6238:0.080693983 6239:-0.018486015 6240:0.046182156 6243:-0.02631188 6244:0.051647156 6246:0.11013888 6248:0.048838187 6249:0.035642363 6250:0.035642363 6251:-0.63747495 6252:-0.0011855075 6253:0.054900158 6254:0.12848681 6255:0.071284726 6256:-0.36744696 6257:0.035642363 6258:0.14256945 6259:0.10967875 6260:-0.3353515 6261:0.64944619 6262:0.073722892 6263:-0.031619266 6264:0.28513891 6265:-0.44812542 6266:0.15986575 6268:-0.060112216 6269:0.063822351 6271:0.074313879 6272:-0.13734837 6273:-0.010098043 6274:0.27944139 6275:-0.21971393 6276:0.035642363 6278:0.035642363 6280:0.013426463 6281:-0.0017752275 6282:0.020739494 6283:0.035642363 6284:0.026288943 6285:-0.15408437 6286:-0.065021768 6287:-0.029807091 6288:0.12381107 6289:-0.040216725 6290:-0.071284726 6291:-0.0051171021 6292:0.071284726 6293:-0.13836682 6294:0.071284726 6295:-0.00054487353 6296:0.016324025 6298:0.036841709 6299:-0.029214777 6300:0.13261293 6301:-0.10040091 6302:0.055703718 6304:0.0047912472 6305:0.035870872 6306:0.016396545 6307:-0.12104114 6308:0.022288112 6309:-0.045531251 6310:0.032281175 6312:0.035642363 6316:0.039008785 6318:-8.2945707e-016 6319:-0.046603825 6321:-0.083877601 6322:-0.080604754 6326:-0.054422159 6330:0.035642363 6332:0.21599151 6338:0.076446258 6339:-0.034215849 6341:0.035642363 6342:-0.043870721 6343:0.018249664 6346:-0.12031952 6348:-0.031373989 6351:-0.023904517 6357:0.012704292 6359:-0.0043422221 6360:-0.10697889 6361:0.051248282 6362:-0.021694712 6363:-0.039602421 6365:0.035642363 6367:-0.055562962 6368:0.035642363 6377:-0.035642363 6378:-0.0159992 6379:-0.071284726 6380:-0.15338156 6382:0.02955013 6383:-0.035642363 6386:-0.13823105 6389:0.016828179 6393:0.0099588213 6396:0.036219139 6398:0.035642363 6402:0.040794656 6405:0.035642363 6406:0.035623778 6407:-0.069354467 6408:0.035642363 6409:0.062834896 6410:-0.030369133 6412:0.071284726 6415:0.035642363 6417:0.025246771 6421:0.033182725 6423:-0.023745557 6424:0.026040832 6426:-0.035642363 6427:-0.071284726 6428:-0.076723725 6432:0.024712201 6434:-0.031363819 6436:-6.5808558e-014 6441:0.15142539 6443:0.029603129 6444:0.035642363 6445:0.035642363 6446:0.037375055 6447:0.026288226 6451:-0.034896396 6457:0.027893284 6458:-0.024704514 6462:0.053074535 6463:0.021807015 6464:-0.0022575508 6465:0.01555286 6470:-0.023445351 6472:0.015382816 6473:-0.022904115 6475:-0.019877851 6477:-0.035642363 6478:0.060298819 6485:-0.035642363 6486:0.024127172 6490:0.0066807028 6491:0.10786588 6494:0.035642363 6498:-0.058689911 6503:0.082506545 6506:-0.092035845 6508:0.10692709 6509:-0.024668492 6512:0.035642363 6514:0.035642363 6518:0.012438274 6521:-0.033204202 6522:-0.042061914 6523:0.16787021 6524:-0.0024704291 6525:0.016973862 6526:0.10794149 6529:0.00010489363 6530:0.011982059 6533:0.014869102 6537:-0.21385418 6538:-0.035990827 6539:-0.035642363 6540:0.017007099 6542:-0.035642363 6543:0.035642363 6552:-0.06491486 6554:-0.035642363 6558:-0.024319755 6561:0.035642363 6564:0.074009746 6566:-0.048896141 6568:-0.035642363 6569:-0.36418658 6577:0.031225119 6588:0.035642363 6589:0.023502074 6593:0.02956821 6597:0.042634893 6606:-0.026192358 6607:-0.00045438507 6608:0.035642363 6614:-0.098176464 6617:0.0093499972 6618:0.17335552 6626:-0.018269897 6627:-0.035642363 6631:0.02598967 6633:-0.12968844 6635:0.035642363 6642:-0.10790321 6643:0.014824265 6645:0.035912469 6646:0.035642363 6650:-0.015604567 6651:0.035642363 6654:0.10692709 6661:0.011236319 6662:0.0095738824 6665:-0.0082812645 6666:-0.00069051882 6667:0.035642363 6668:0.071284726 6673:-0.03575572 6674:-0.064041115 6675:0.035642363 6676:0.014992354 6677:0.042314745 6680:-0.022216093 6683:-0.048164144 6685:0.0030832277 6686:0.037114501 6687:-0.034807339 6689:-0.017810464 6694:0.11603355 6699:0.079960398 6701:-0.013310528 6702:-0.029324403 6703:0.093986757 6709:-0.035642363 6715:0.0051652309 6716:-0.031260539 6717:-0.080979317 6718:0.13000076 6721:0.035642363 6722:-0.02617993 6724:0.035642363 6725:-0.057712611 6728:0.01864678 6729:0.035642363 6730:0.071284726 6731:0.069400012 6737:0.10529696 6739:-0.026888369 6740:-0.072641477 6741:-0.035642363 6742:0.035642363 6743:-0.035642363 6748:0.026712889 6751:0.034683917 6754:0.07528317 6756:-0.089325838 6758:-0.069365844 6759:0.035642363 6762:-0.0057762144 6772:-0.019166678 6773:0.035642363 6777:0.060474008 6793:-0.040032372 6794:-0.027434334 6795:-0.0022314917 6800:0.035642363 6813:0.12999572 6817:-0.00682117 6822:-0.032075353 6824:-0.0021389527 6828:-0.0093708849 6832:0.071284726 6837:-0.048292488 6839:-0.0059072515 6842:-0.035642363 6850:0.11689147 6852:0.063244462 6857:0.035445176 6860:0.035642363 6864:-0.010585289 6865:-0.028411571 6867:-0.09970776 6868:0.020902194 6872:0.0008284573 6873:-0.031108523 6878:-0.080173291 6879:0.035642363 6880:0.0099413106 6882:-0.01110113 6884:0.035642363 6886:-0.081835747 6887:-0.047586169 6888:0.035642363 6893:-0.023861576 6896:0.028651714 6897:-0.039700784 6899:-0.018920397 6901:0.00059006788 6903:0.035642363 6904:-0.03365114 6911:0.049816262 6915:-0.02161268 6918:-0.014029709 6919:0.035642363 6921:0.035642363 6923:0.035642363 6924:-0.055387478 6928:0.035642363 6929:0.035539649 6930:-0.017407283 6936:0.035642363 6938:0.02578027 6939:-0.03175905 6940:-0.13692494 6943:-0.0011691391 6944:0.16944237 6948:-0.016734498 6951:0.035849027 6955:-0.035642363 6958:0.035642363 6960:-0.043933101 6962:0.089647762 6967:0.035642363 6971:-0.010133604 6973:-0.024413813 6974:0.035642363 6975:-0.18194719 6979:-0.065431193 6984:-0.019832496 6985:-0.047685161 6988:-0.0079268999 6989:0.035642363 6990:-0.071284726 6994:0.10692709 6996:0.035642363 7000:0.035642363 7004:0.070282176 7009:0.056711633 7013:0.033549409 7019:-0.11905176 7020:-0.018836586 7021:0.025484348 7024:0.054061782 7026:0.064207651 7027:-0.15902121 7030:0.010618789 7031:-0.0057392586 7036:0.035642363 7045:-0.018090909 7046:0.13712551 7050:0.0016779561 7051:-0.035642363 7052:0.082064331 7057:-0.006727559 7060:0.031932645 7064:0.039635602 7065:0.08444237 7067:-0.011634476 7069:0.093544066 7073:0.035642363 7074:-0.15091744 7078:0.0042101061 7080:-0.13356313 7081:0.0081045497 7087:0.035642363 7090:0.001085948 7092:0.04688016 7095:-0.069921643 7096:0.056028616 7097:0.0046959692 7100:-0.035315387 7101:0.021646449 7103:-0.00048985484 7104:-0.01131887 7108:-0.0034432821 7109:0.035642363 7110:-0.0083562136 7112:0.013772153 7114:0.034799762 7117:0.071284726 7118:-0.035642363 7120:-0.059878483 7121:0.010161008 7122:0.035642363 7123:-0.15869437 7127:-0.035642363 7128:0.035642363 7130:0.098491587 7131:0.083475746 7132:-0.00025737815 7133:-0.051486846 7137:0.0041280803 7139:0.021641761 7141:0.035642363 7143:0.10118399 7147:0.027088571 7148:-8.2945707e-016 7151:0.035642363 7153:0.035642363 7154:-0.10551631 7156:0.060764432 7157:-0.044898801 7158:-0.050998423 7160:0.0095040668 7163:0.043640994 7168:-0.020939784 7172:-0.064688727 7178:0.069914751 7179:0.071284726 7180:-0.057586823 7184:0.035642363 7185:-0.072732605 7187:-0.045790955 7188:-0.038484287 7189:-0.12681374 7192:0.023483073 7194:-0.015100167 7196:-0.023265636 7199:0.10077593 7200:0.035642363 7205:-0.060700797 7208:-0.034821808 7211:-0.034273647 7213:-0.043524332 7214:-0.037623722 7218:-0.0071500125 7220:-0.0011461673 7221:-0.071284726 7222:-0.080201358 7224:-0.078196235 7225:0.10692709 7227:0.032553099 7228:0.058911085 7231:-0.050495621 7236:-0.076778308 7237:-0.14033875 7242:0.035642363 7246:0.0063870908 7247:-0.024543257 7249:0.035642363 7250:-0.013106978 7255:-0.043006018 7259:0.054753419 7260:0.083877742 7263:-0.033756599 7264:0.061256468 7265:-0.048052717 7267:0.0091443742 7269:0.035642363 7271:0.071284726 7276:0.080213718 7278:0.043142594 7279:-0.042341202 7282:0.071284726 7285:-0.062853873 7286:0.0064580613 7293:0.027429553 7294:0.019061767 7296:0.028691391 7299:-0.0013235457 7304:0.016111122 7310:-0.035642363 7311:-0.0036065509 7312:-0.060357809 7318:0.0084502343 7319:0.022712957 7320:0.037790049 7322:0.0077923378 7324:-0.019666288 7327:-0.035642363 7332:-0.10692709 7335:0.02654559 7336:-0.030988915 7337:-0.013832972 7339:-0.033932179 7344:-0.006241776 7345:0.031179542 7347:-0.027370151 7350:-0.086315788 7352:-0.02761825 7354:0.051582199 7356:0.0032095634 7357:0.071284726 7361:-0.050567795 7362:-0.089032449 7365:-0.015591022 7366:-0.0065319105 7372:-0.035642363 7373:-0.078473069 7375:-0.019752691 7376:-0.079768933 7377:-0.029176056 7378:-0.067813292 7379:0.052330717 7380:0.035642363 7382:0.035642363 7385:-0.045750331 7386:0.035642363 7387:0.00023897571 7389:-0.013053227 7393:0.047856834 7394:-0.01438181 7395:0.071284726 7396:-0.027553674 7399:0.051697329 7400:0.20896302 7404:0.035642363 7405:0.048877746 7408:-0.017779874 7411:-0.063040055 7417:-0.17068911 7418:-0.061963085 7422:0.01946588 7426:-0.013134196 7429:-0.059998896 7432:0.049826171 7433:-0.019856259 7437:-0.024542835 7439:0.034542125 7443:0.02534383 7449:0.0015493847 7450:0.10481405 7453:0.032569434 7457:0.068698108 7458:0.081132099 7459:0.035642363 7460:-0.00468776 7465:-0.09131185 7466:0.035642363 7472:0.075260118 7473:-0.06555061 7477:-0.031504452 7478:-0.046178587 7480:-0.048488993 7481:-0.10279445 7482:-0.069838464 7483:-0.16746691 7485:-0.046090722 7490:0.035588399 7495:-0.0038602585 7496:0.064481445 7500:0.035128575 7502:-8.2945707e-016 7503:-0.0059819766 7509:0.057723902 7510:-0.035642363 7512:0.052111369 7515:-0.075274788 7518:0.035642363 7520:0.035642363 7522:0.17251723 7524:-0.059121806 7525:0.013344963 7526:0.016004056 7527:-0.035642363 7531:-0.064902022 7533:-0.02139841 7534:-0.0044534011 7536:0.0074709551 7537:-0.035642363 7538:-0.071284726 7539:-0.041945543 7540:0.004196133 7541:0.016941329 7542:0.14091623 7546:0.011398578 7547:-0.015426798 7549:-0.054453481 7552:-0.04539717 7553:0.031688597 7554:-0.018067939 7555:0.071180716 7558:0.044951942 7560:-0.019923249 7561:0.035642363 7562:-0.0098340791 7563:-0.076943934 7565:0.11156671 7567:0.068859063 7568:0.071284726 7569:0.015879171 7571:0.058578055 7574:0.035642363 7576:-0.033836961 7578:0.10240497 7579:0.035642363 7581:-0.032930959 7582:-0.068784334 7586:-0.098808564 7587:0.043541156 7588:-0.045580614 7590:-0.071284726 7591:-0.00099554437 7592:0.018976754 7594:-0.098758683 7595:-0.033531133 7596:-0.035642363 7598:0.035642363 7599:0.051243655 7600:0.035642363 7601:-0.016028488 7603:-0.019906227 7606:-0.018078599 7608:0.021234689 7609:-0.0086925039 7610:-0.021618983 7614:0.071038991 7615:0.044843268 7618:0.013679222 7619:0.061922692 7620:-0.11629762 7621:0.038971189 7622:0.12447423 7623:-0.053328164 7624:-0.1826435 7625:-0.014675604 7626:-0.061577462 7627:-0.14835934 7628:-0.018337624 7629:-0.055445582 7630:-0.01002027 7631:-0.11689714 7632:-0.11830703 7633:0.0086735915 7634:-0.018061439 7635:-0.13394652 7636:-0.080170229 7637:-0.0049689724 7638:0.018832576 7639:-0.035642363 7640:-0.16855706 7641:0.022928519 7642:0.13520056 7643:-0.026090875 7644:0.049653385 7645:0.00013954057 7647:0.031293489 7648:0.04033003 7649:0.17798172 7650:0.014865699 7651:0.0003708477 7652:-0.03403217 7653:0.040856343 7654:0.0058093346 7655:0.18234031 7656:0.10088307 7658:8.2945707e-016 7659:-0.13697094 7660:-0.020244554 7661:0.037730269 7662:0.10296747 7663:0.0087312665 7664:-0.0066524283 7665:-0.17710522 7666:0.018751238 7667:-0.023358844 7668:-0.023099998 7669:-0.039424278 7670:-0.022805594 7671:0.082665659 7672:0.0075565446 7673:0.062522784 7674:0.021098852 7675:0.0065251323 7676:0.06478668 7677:0.026222579 7678:-0.1445857 7679:0.070467778 7680:0.0051515191 7681:-0.079453975 7682:-0.03578883 7683:0.015854843 7684:-0.1780562 7685:-0.037041385 7686:0.057005946 7687:-0.12810713 7688:-0.029097216 7690:-0.058541361 7692:-0.11828499 7693:-0.0014135179 7694:-0.087308332 7695:0.055617306 7696:0.071256436 7698:0.087446868 7699:-0.029810417 7702:-0.071254857 7703:-0.031404987 7704:0.064715236 7705:-0.025383163 7706:0.16149132 7707:-0.011806179 7708:-0.032696795 7709:0.15210924 7710:0.032867473 7711:0.001043648 7712:-0.17163476 7713:0.08273866 7714:-0.031881992 7715:0.084276624 7716:-0.1722288 7717:0.097436897 7718:0.11722266 7719:0.13667992 7720:0.072316661 7721:-0.019615378 7722:0.04407699 7723:-0.08435867 7724:0.082446098 7725:0.035642363 7726:0.13367227 7727:-0.10407731 7728:0.054423526 7729:-0.018776847 7730:-0.10322265 7731:0.041414749 7733:0.13861558 7734:0.081485577 7735:0.072848976 7736:-0.024424452 7737:-0.011593005 7738:0.05236844 7739:-0.013114529 7740:0.059936401 7741:-0.016027929 7742:-0.17785701 7744:-0.0082812645 7745:0.043471079 7746:-0.028136196 7747:0.035936266 7748:0.018222932 7749:0.070800915 7750:0.05032786 7751:-0.12214819 7752:0.068950437 7753:0.0016863937 7754:-0.052244831 7755:-0.062914215 7756:0.084430918 7757:-0.077684723 7758:0.031126212 7759:0.092827544 7760:-0.21248275 7761:-0.07544601 7762:0.021126231 7763:-0.057407476 7764:0.040535018 7765:-0.016375139 7766:0.21602826 7767:-0.10819766 7768:0.063432634 7769:0.094186336 7770:0.010281456 7771:0.064317375 7772:0.021111107 7773:0.16436751 7774:0.033708423 7776:0.0088741137 7778:-0.075061284 7779:0.025318086 7780:0.10629325 7781:-0.14966199 7782:0.15387076 7784:0.03141401 7785:0.1307943 7788:0.088457756 7789:0.035642363 7790:-0.021421881 7791:0.026936471 7792:0.035642363 7794:0.068090007 7796:-0.035642363 7798:0.035868879 7799:-0.04510577 7802:-0.0025174052 7803:-0.020467462 7804:-0.0082091698 7806:0.020621033 7807:0.0072085517 7808:0.043025587 7809:0.02001323 7810:0.035642363 7812:0.079487719 7813:0.063823111 7814:-0.11508638 7815:-0.053693622 7816:0.035642363 7817:0.05668889 7820:0.035642363 7821:0.10692709 7833:0.035642363 7834:-0.036931179 7837:0.035642363 7838:-0.044732619 7841:0.034673512 7845:0.034673512 7846:0.035642363 7848:-0.14385827 7852:-0.01503724 7853:-0.013332106 7857:0.00051603204 7858:0.035642363 7859:-0.00043410223 7874:0.015158457 7876:-0.82515872 7877:0.094464093 7878:-0.15394504 7879:-0.026023613 7881:-0.099606588 7882:0.045291767 7883:-0.068950623 7884:0.055090871 7885:0.087586738 7886:-0.091858141 7887:-0.046315726 7888:-0.058632154 7889:0.13395756 7890:-0.071254164 7891:-0.042894088 7892:0.0018122856 7893:-0.025781367 7894:-0.074648395 7895:0.0038046406 7896:0.16586162 7897:0.2201703 7898:0.018977996 7899:0.16143999 7900:0.059787087 7901:-0.076367848 7903:-0.03305956 7904:-0.10878216 7905:-0.037981436 7906:-0.0023390695 7907:0.10356869 7908:0.038595285 7909:0.10698338 7910:0.039214958 7911:-0.039661828 7912:-0.035642363 7913:0.029176705 7914:0.0052084238 7915:-0.016521513 7916:-0.02048685 7918:0.008968384 7919:-0.025224557 7920:0.0076670782 7922:-0.047422372 7923:-0.071284726 7924:0.16400941 7925:0.047831535 7926:-0.1348259 7927:0.048681054 7928:-0.10189124 7929:0.04668716 7930:-0.089242317 7931:-0.061400011 7932:-0.10756291 7933:-0.096985079 7934:-0.011135306 7935:0.16075085 7936:0.00081010745 7937:-0.032276366 7938:-0.0031637133 7939:0.059098367 7940:0.092391096 7941:0.035642363 7942:0.035642363 7944:-0.07840763 7945:-0.0017278418 7946:-0.0088871038 7947:-0.01427866 7948:-0.092170216 7949:-0.034683648 7950:0.022046102 7951:0.11550195 7952:-0.019236425 7953:-0.054063719 7954:-0.11604157 7955:-0.023825577 7956:0.081092738 7957:0.17339966 7958:-0.4887358 7959:-0.11516684 7960:-0.0017480419 7961:-0.0019048115 7962:0.035642363 7963:0.011714607 7964:0.2165354 7965:-0.049733639 7966:0.01126428 7967:-0.064907476 7968:-0.09362115 7969:0.16178384 7970:-0.033013269 7971:0.038034495 7972:0.13184568 7973:-0.027610097 7974:-0.034756325 7975:-0.021988835 7976:-0.132736 7977:0.054738171 7978:-0.027352829 7979:-0.035642363 7980:-0.059767701 7981:-0.070324048 7982:0.047196936 7983:-0.023344735 7984:0.11111061 7985:0.07335823 7986:0.0010649551 7987:0.13776012 7988:-0.022912875 7989:0.096008793 7990:-0.030968197 7991:-0.031873595 7992:0.06893643 7993:0.13447079 7994:0.010949537 7995:-0.031774674 7996:0.044148821 7997:0.14274274 7998:-0.017053764 7999:-0.078519888 8000:-0.057626884 8001:0.020986104 8002:-0.0094408104 8003:0.02429292 8004:0.059093531 8005:-0.0037541569 8006:0.028145244 8007:0.060542088 8008:0.0044991905 8011:-0.090026177 8013:0.14525525 8014:0.063086785 8015:-0.071635656 8016:0.044312119 8017:0.045901619 8018:-0.0075233034 8019:0.016512977 8020:-0.0083156331 8021:0.018165978 8022:-0.016305823 8023:0.0022841089 8024:-0.0079404796 8025:0.14637598 8026:0.045786746 8027:0.13501661 8028:0.030767869 8029:0.073219195 8030:-0.075725876 8031:-0.10534208 8032:0.17046207 8033:-0.019338155 8034:0.029539624 8035:-0.064411163 8036:-0.11013677 8037:0.12201059 8038:0.049530961 8039:0.066117235 8040:0.015657181 8041:0.027872281 8042:-0.030882804 8043:-0.065855332 8044:0.062624961 8045:-0.031159939 8047:0.018379351 8048:-0.00032432709 8049:0.03027837 8050:-0.039333016 8051:0.057492632 8052:0.17950031 8053:-0.032405134 8054:0.035642363 8055:0.073638059 8056:-0.0094739972 8057:0.006043632 8058:-0.035642363 8059:0.052711114 8060:0.082446791 8061:0.071413271 8062:-0.025078475 8063:-0.11314423 8064:0.12507309 8065:-0.075290926 8066:-0.12148878 8067:-0.046602625 8068:0.048220105 8069:0.10845244 8070:-0.10953072 8072:-0.01964356 8073:-0.01964356 8074:-0.01964356 8075:-0.12590301 8076:0.15645364 8077:-0.027677683 8078:0.051173329 8079:0.07765574 8080:0.0085633267 8082:0.059433367 8083:0.011748079 8084:0.23623987 8085:0.093294531 8086:0.051490355 8087:0.0098899929 8088:0.028955439 8089:-0.070549943 8090:-0.019021379 8092:-0.067529254 8093:0.17395577 8094:-0.034326918 8095:-0.077717781 8096:-0.14006142 8097:0.066075742 8098:0.036121067 8099:0.03525193 8100:-0.054785933 8101:-0.030758327 8102:-0.020264991 8103:-0.020264991 8104:-0.020264991 8105:0.071284726 8106:0.025675543 8108:0.064614475 8109:0.03725256 8110:-0.023914123 8111:-0.16141413 8112:0.17338926 8113:-0.1346449 8114:-0.023852434 8115:0.07242956 8116:-0.0048827664 8117:-0.032947145 8118:-0.032701839 8119:-0.032811861 8120:0.012148661 8121:-0.0099564968 8122:-0.017702822 8123:-0.046786502 8124:-0.0067950916 8126:0.035384987 8127:0.015423734 8128:-0.035207018 8129:-0.030026155 8130:-0.0041103917 8131:-0.047217205 8132:0.10278787 8133:-0.11223774 8134:0.11670794 8136:-0.0023245146 8137:-0.036889892 8138:-0.053778667 8141:0.035724554 8142:0.024044702 8143:-0.052335422 8144:-0.024209213 8145:-0.063934743 8146:-0.036422122 8147:-0.13281317 8148:-0.023646964 8149:0.050288141 8150:0.032382905 8151:0.044423271 8153:0.055124037 8154:0.037089262 8155:0.010287125 8157:0.013931904 8158:-0.023786793 8159:-0.023786793 8160:-0.023786793 8161:-0.027395574 8162:0.059511531 8163:-0.11236258 8164:-0.020264991 8165:-0.020264991 8166:-0.049138773 8167:0.05883643 8168:0.25030616 8169:0.073366985 8170:0.17885792 8171:0.02908501 8172:0.055424605 8173:-0.14600268 8174:-0.035642363 8175:0.086720109 8176:0.0041341884 8177:0.11856304 8178:-0.055144496 8179:0.12206941 8180:-0.18228611 8181:0.0085713528 8182:0.031303015 8183:-0.010583643 8184:-0.058209538 8185:-0.033338487 8186:0.030974984 8188:-0.04871159 8190:-0.14041853 8191:-0.0063620759 8192:0.21726573 8193:0.082035191 8194:0.02235302 8195:0.11949286 8196:-0.21005206 8197:0.0141753 8198:-0.022362372 8200:-0.002097382 8201:-0.022362372 8202:0.11758585 8203:-0.1063512 8204:-0.042893928 8205:0.1133984 8206:0.022399586 8207:0.0082493126 8208:-0.099981479 8209:-0.23748672 8210:-0.089795023 8211:-0.0012731549 8212:-0.0032239556 8213:-0.12746827 8214:0.022918547 8215:-0.035642363 8216:-0.054617766 8217:-0.0013359031 8218:0.029046157 8219:-0.025466036 8220:0.054901388 8221:-0.097409584 8222:-0.035642363 8223:0.16517586 8224:0.10766453 8225:-0.12662621 8226:0.06512589 8227:0.0061572734 8228:-0.088828295 8229:0.064324372 8230:-0.045114443 8231:0.01270914 8232:0.036005273 8233:-0.05659046 8234:0.087534577 8235:-0.090064712 8236:-0.065000243 8237:-0.094838314 8238:0.12287132 8239:-0.030552756 8240:-0.11383101 8241:0.048485026 8242:0.065333389 8243:0.023953479 8244:0.084491119 8245:0.018536661 8246:0.025141377 8247:0.068325147 8248:0.044178165 8249:-0.035642363 8250:-0.031306133 8251:-0.012403188 8252:0.19202664 8253:-0.022657409 8254:0.016965298 8255:-0.30571738 8256:-0.06201515 8257:0.1682459 8258:0.10946666 8259:0.029084956 8260:-0.001318836 8261:0.05365967 8262:-0.11034865 8263:0.25675258 8264:0.034812283 8265:-0.066041619 8266:-0.046797149 8267:0.066521719 8269:-0.087473959 8271:0.035034288 8272:0.090533972 8273:0.014074695 8274:0.046617284 8275:-0.024297856 8276:-0.066564694 8277:-0.090111792 8278:0.0087324884 8279:0.081639759 8280:0.030624341 8281:-0.070555471 8282:-0.039993741 8283:-0.093797557 8284:-0.15734941 8285:-0.040117446 8286:-0.01631497 8287:-0.20519744 8288:-0.0045518856 8289:0.070695668 8290:-0.0793605 8291:0.0017251717 8292:-0.014834061 8293:-0.04063179 8294:0.069354914 8295:-0.012968321 8296:-0.049920917 8297:-0.0072061527 8298:-0.023527643 8299:0.043633088 8300:0.0035801546 8301:-0.15755081 8302:-0.13585733 8303:0.14766991 8304:0.021514608 8305:0.047764488 8306:0.028605692 8307:-0.11411229 8308:-0.046204336 8309:-0.028003903 8310:-0.10452075 8311:-0.049266227 8312:0.0085375709 8313:0.0085375709 8314:0.061430059 8315:0.15694351 8316:0.073384084 8317:-0.048535954 8318:0.11970034 8319:-0.030743744 8320:-0.16710462 8322:-0.035642363 8323:0.10791051 8324:-0.1318464 8325:-0.040776584 8326:0.0042782049 8327:0.081931636 8328:0.046289269 8329:0.089857265 8330:0.036627058 8331:-0.0064520342 8332:0.095946118 8333:0.001860682 8334:0.095866427 8335:-0.067954965 8336:0.042716153 8337:0.021631423 8338:0.0099004107 8340:-0.16726738 8341:0.022535082 8342:0.10612013 8343:-0.022107372 8344:-0.010286105 8345:-0.045603059 8346:-0.025436789 8347:-0.16269745 8348:-0.10677499 8349:-0.01903672 8350:-0.035803344 8351:-0.066202484 8352:-0.11958787 8353:0.05354638 8354:0.078500271 8355:-0.06070311 8356:0.027098881 8357:-0.00033614479 8359:-0.025375087 8360:-0.094070166 8361:-0.0086865006 8362:0.032030337 8363:0.0491312 8364:0.026390681 8365:0.035381239 8366:0.12275235 8372:-0.082602337 8373:-0.08573018 8375:0.045517512 8376:0.071119688 8377:0.13739286 8378:0.016230145 8379:-0.003607539 8380:0.07186503 8381:0.01678396 8382:0.035642363 8383:0.039377373 8384:-0.018858405 8385:0.071284913 8386:-0.094643109 8387:0.027607055 8388:-0.15564923 8389:0.1156653 8390:-0.042005643 8391:-0.023268161 8392:0.018808341 8393:-0.0098405005 8394:-0.00097106415 8395:-0.17569792 8396:0.066513695 8397:0.13665505 8398:0.13275689 8399:-0.054653689 8400:0.035671841 8401:0.035671841 8402:0.070814915 8404:-0.018196337 8406:-0.099055164 8407:-0.0034951512 8408:0.076918855 8409:0.096018381 8410:-0.0917252 8411:-0.038740642 8412:0.016560003 8413:0.002613263 8414:0.017313637 8415:0.050484005 8416:0.018866258 8417:-0.13782366 8418:-0.0066499631 8419:0.012185537 8420:-0.077309571 8421:-0.029320937 8422:-0.087863885 8423:-0.099439524 8424:-0.10227537 8425:0.03263339 8426:0.079947591 8427:0.1010001 8428:-0.01038882 8429:-0.059433531 8430:0.052157681 8431:0.056963723 8432:0.0057800398 8433:0.027854098 8434:0.0910258 8435:0.091185294 8436:-0.012512672 8437:0.058772057 8438:0.042119946 8439:-0.037760593 8440:0.081497021 8441:0.042774476 8442:0.081500821 8443:-0.081549414 8444:-0.038867511 8445:0.0072541004 8446:-0.069589563 8447:0.13362731 8448:0.042881213 8449:-0.084058888 8450:0.083747081 8451:0.0061994097 8452:0.027899953 8453:0.088299014 8454:0.036249571 8456:-0.059715807 8457:0.011568922 8458:-0.047607712 8459:0.034015507 8460:-0.0036770059 8461:-0.0063131135 8462:-0.034557179 8463:0.026493603 8464:-0.10148077 8465:-0.1512336 8466:-0.063833199 8467:-0.11063496 8468:-0.05542168 8469:-0.11164648 8470:-0.02747165 8471:0.0052671684 8472:-0.11473977 8473:-0.022402549 8474:-0.098399125 8475:0.01118847 8476:0.11570922 8477:-0.029973479 8478:0.087879576 8479:-0.036485333 8480:0.059330482 8481:-0.069997914 8482:0.15590632 8483:0.088068068 8484:-0.12980136 8485:-0.052636258 8486:-0.033373091 8487:-0.0017790587 8488:-0.096386775 8489:0.050384216 8491:0.01488918 8492:-0.064723521 8493:0.021623427 8494:-0.1630259 8495:0.12385523 8496:-0.069523439 8497:0.054324206 8498:-0.011955629 8499:0.20743354 8500:-0.1434512 8501:-0.027146893 8502:-0.076439664 8503:0.14619388 8504:-0.10558938 8505:-0.079502232 8506:0.095876679 8507:-0.018022329 8508:-0.072100393 8509:-0.032318104 8510:0.054311942 8511:-0.051360045 8512:-0.075761639 8513:0.06893643 8514:-0.16794652 8515:-0.024012191 8516:0.13609965 8517:-0.00014646444 8518:0.055936981 8519:0.086588487 8520:-0.031677194 8521:0.090508498 8522:0.064476199 8523:-0.086655438 8524:0.079111218 8525:0.10926574 8526:0.080757171 8527:-0.037429553 8528:0.0037827822 8529:-0.0026263457 8530:-0.035964966 8531:0.071284726 8532:-0.035939131 8533:0.10584714 8534:0.038330294 8535:0.062415075 8536:0.031419285 8537:-0.017660338 8538:-0.01964356 8539:0.071180776 8540:0.083003439 8541:0.042464845 8542:0.13145544 8543:0.071284726 8544:-0.0054992163 8545:0.013329688 8546:-0.0069450154 8547:-0.0069450154 8548:0.06893643 8549:0.06893643 8550:0.012965399 8551:-0.079322129 8552:0.048991702 8553:0.073871516 8554:-0.0045826584 8555:-0.15984026 8556:-0.028895438 8557:0.027096378 8558:-0.022951445 8559:-0.052082304 8560:0.077031553 8562:0.035642363 8563:0.035865225 8564:0.18443866 8565:-0.20557949 8566:-0.072320588 8567:0.015900748 8568:0.0051223319 8569:0.1748139 8570:0.0051223319 8571:-0.16083395 8572:-0.058667403 8573:0.10692709 8574:0.0060136504 8575:-0.020776665 8576:0.050508063 8577:0.062513061 8579:0.0031902047 8580:0.0031902047 8581:0.021664033 8582:0.081737995 8583:0.054413095 8584:0.076386407 8585:-0.1568875 8586:0.037537739 8587:0.16315889 8588:0.096065335 8590:0.002136023 8591:0.025484348 8592:0.12516281 8593:0.00086717895 8594:0.11967358 8595:-0.055134576 8596:-0.012457346 8597:-0.042861603 8598:0.018113635 8599:0.12088753 8600:-0.035642363 8601:-0.035642363 8602:-0.021673884 8603:0.031754512 8604:0.016292939 8605:0.03036675 8606:-0.061024006 8607:-0.064654045 8608:-0.1492954 8609:0.088286974 8610:0.1372637 8611:0.085009523 8612:0.016795661 8613:-0.03320571 8614:-0.049641386 8616:0.014750321 8617:0.19838761 8618:-0.018204696 8620:0.0036783414 8621:-0.051640041 8622:-0.051760577 8623:0.022689331 8624:-0.048201475 8625:-0.076205835 8626:0.20803571 8627:0.054807413 8628:0.024192743 8629:0.081314474 8630:-0.0098981969 8631:0.01448073 8632:0.041063078 8633:-0.00058108993 8634:-0.083310045 8635:0.15727714 8636:-0.11780512 8637:-0.017474934 8638:-0.11322989 8639:-0.0038977673 8640:0.0096760225 8641:0.08450067 8643:0.034052242 8645:-0.02487893 8646:0.069682986 8647:0.13872726 8648:-0.017209575 8649:-0.17588748 8650:-0.088556856 8651:0.016868282 8652:0.0050968062 8653:-0.11677681 8655:-0.11864493 8656:0.028449591 8657:-0.062215816 8658:0.031616826 8659:-0.048041817 8660:-0.068757616 8661:-0.045991343 8662:0.031845991 8663:-0.023065802 8664:0.025543101 8665:-0.038271587 8666:0.075330339 8667:-0.020368505 8668:-0.0017873357 8669:-0.082195096 8670:-0.074935712 8671:0.015031129 8672:-0.044460904 8673:-0.01422342 8674:0.047829397 8675:0.064842984 8676:0.028760986 8677:-0.01958373 8678:-0.062813595 8680:-0.045128915 8681:-0.062421653 8682:0.071285479 8683:-0.063971274 8684:0.038532414 8685:-0.034429163 8686:-0.034429163 8689:0.0074709798 8690:0.010174411 8691:0.14377563 8692:-0.030968197 8693:-0.11996277 8694:0.01604248 8695:-0.14546591 8696:-0.021673884 8697:0.078966305 8698:-0.012288991 8699:-0.031573106 8700:0.01563542 8701:0.022475746 8702:0.035642363 8704:-0.095483638 8705:0.029369034 8706:-0.060319409 8707:0.15809818 8708:0.14962979 8709:0.067013286 8710:-0.072785854 8711:-0.038825978 8712:-0.027825875 8713:0.0040030167 8714:0.029909449 8715:0.21125761 8716:0.0063951374 8718:-0.0086854277 8719:0.12610635 8720:-0.071264431 8722:-0.05528691 8723:0.0058622938 8724:-0.081634298 8725:-0.046287905 8726:-0.11261797 8727:-0.055971563 8728:0.025348937 8730:0.041942667 8732:-0.018610395 8733:0.069735341 8734:-0.058070682 8735:0.046107125 8737:-0.092046291 8738:-0.068112053 8739:-0.016973834 8740:0.027038248 8741:0.044262346 8742:-0.048748635 8743:-0.091752745 8744:-0.044991121 8745:0.12359405 8746:0.018687163 8747:-0.026031092 8748:0.092019759 8749:-0.014261282 8750:0.076476775 8751:2.3860932e-005 8755:-0.098449148 8756:0.047696471 8757:-0.064979658 8758:0.023749674 8759:-0.12695658 8760:0.20266078 8761:-0.093137205 8762:-0.18178436 8763:0.041632637 8764:-0.035507403 8765:0.067815676 8766:0.065658659 8767:0.047812495 8768:-0.14993797 8771:-0.072179869 8772:0.1146804 8773:-0.11209632 8774:-0.11209632 8775:-0.031161046 8776:0.00070331653 8777:0.03153152 8778:-0.12643567 8779:0.02351944 8780:0.02351944 8781:-0.052937064 8782:-0.051783513 8783:-0.04868947 8784:-0.032154907 8785:0.14324249 8786:-0.0042069084 8787:-0.069037795 8788:-0.082093351 8789:0.18870735 8790:-0.026124455 8795:-0.060384702 8796:-0.058936331 8797:-0.058936331 8798:-0.058936331 8799:0.086048983 8800:0.075541951 8801:0.06893643 8803:0.06893643 8805:-0.025456242 8806:-0.049148984 8808:0.071284726 8809:0.032098196 8810:0.069830112 8811:0.024269961 8812:-0.14256945 8813:-0.035642363 8814:-0.035642363 8815:-0.065178692 8816:0.073218971 8817:-0.001670896 8819:-0.10764538 8820:-0.12651788 8821:-0.059369549 8822:0.048682649 8824:0.035302024 8825:0.067069896 8826:0.075690024 8827:-0.057939373 8828:-0.08995416 8829:0.024217138 8830:-0.11136266 8831:0.2396843 8832:-0.0012827689 8833:-0.0012827689 8834:-0.00071982562 8835:-0.060139086 8836:0.06099765 8837:0.013416146 8838:0.10469023 8839:-0.069365844 8840:0.096436583 8844:0.077173606 8845:0.036840308 8846:-0.0087784473 8849:-0.071070179 8850:-0.081098959 8851:0.055607706 8852:-0.073730126 8853:0.0087543754 8854:0.050135877 8855:0.045309771 8856:0.036209833 8857:0.040040769 8858:-0.091821752 8859:0.26875398 8860:0.12592457 8861:-0.11719798 8862:0.11810049 8863:-0.016392877 8864:-0.047444712 8865:0.00042971014 8866:0.012065871 8867:0.00042971014 8868:0.15408078 8869:0.041780353 8870:-0.12798387 8871:-0.016849453 8872:-0.065383635 8873:0.018271755 8874:0.0048848283 8875:-0.043014646 8876:-0.043014646 8877:-0.043014646 8879:-0.097732984 8880:-0.039828967 8881:0.021600783 8883:0.16283219 8884:-0.11671086 8885:0.15227628 8886:0.099075116 8887:-0.035642363 8888:0.067286283 8889:-0.13115409 8892:-0.013473504 8893:0.028482288 8894:0.021896573 8895:-0.12962219 8896:-0.002716966 8897:-0.095428914 8899:-0.015163533 8900:-0.0098491134 8901:-0.11101542 8902:-0.035642363 8903:-0.035642363 8904:0.0073010451 8905:-0.04911587 8906:-0.054409832 8907:-0.16858196 8908:-0.1041067 8909:-0.033103228 8910:-0.029380398 8911:-0.033610757 8912:-0.0045166831 8913:-0.048485745 8914:0.088690303 8915:0.033449907 8916:-0.034304313 8917:-0.05934003 8918:-0.087034635 8919:-0.0038028192 8920:0.10305277 8921:-0.044477094 8922:0.071410365 8923:-0.0083640832 8924:-0.1071253 8925:0.035642363 8926:-0.05313281 8928:-0.091605633 8929:0.0057245051 8930:-0.010901839 8931:-0.084430277 8932:0.013764897 8933:-0.035483263 8936:0.027083693 8937:0.0027559251 8938:-0.095330417 8939:0.094824955 8940:-0.20222071 8941:-0.0031304765 8942:-0.082613535 8943:-0.029101156 8944:-0.033150416 8945:-0.033150416 8946:-0.034449212 8947:0.0011931513 8949:-0.035642363 8950:-0.035642363 8951:0.065817937 8952:-0.15115154 8953:-0.017464017 8954:0.0020105659 8955:0.078400508 8956:-0.11195815 8957:0.003078474 8958:0.071284726 8959:0.013732879 8960:0.030241925 8961:0.047906801 8962:0.06805294 8963:-0.095136553 8964:-0.075530335 8965:-0.13043304 8966:0.026985049 8967:0.0065579973 8968:0.028480634 8969:-0.0508232 8970:0.06893643 8971:0.06893643 8972:-0.15522352 8973:0.14697906 8974:0.025171228 8975:-0.097768731 8976:-0.10512102 8977:0.025604639 8978:-0.0098039564 8979:0.098582417 8980:0.026051713 8981:-0.14256945 8982:-0.014587075 8983:0.11900245 8984:0.079503231 8985:0.061595302 8986:0.05889339 8987:-0.026235748 8988:0.080911189 8989:0.04526883 8992:0.035642363 8993:-6.5808558e-014 8994:0.035642363 8995:-0.050261158 8996:-0.045617227 8997:-0.045617227 8998:-0.10148234 8999:0.17919327 9000:-0.0057546222 9001:0.05931003 9002:-0.072442181 9003:-0.039320961 9004:0.041943833 9005:-0.11253807 9006:-0.0035398216 9008:-0.1760423 9009:0.1615856 9010:0.017551366 9011:-0.09002126 9012:0.026839359 9013:0.026839359 9014:0.020398865 9015:-0.0099416906 9016:0.062391613 9018:-0.11452648 9019:-0.18392083 9020:-0.017466431 9021:-0.017466431 9022:-0.016209379 9023:-0.016209379 9024:-0.15670754 9025:-0.16234797 9026:-0.062083144 9027:0.045983978 9028:0.0038764141 9029:0.063386016 9030:-0.039960235 9031:0.20354345 9032:0.03881865 9033:0.17735806 9034:-0.16792102 9035:-0.15625563 9036:0.0078855231 9037:0.035221733 9038:-0.0012861225 9039:0.10290983 9040:0.095257968 9041:-0.038056795 9042:0.075956218 9043:0.071284726 9044:0.14539795 9045:0.074772716 9046:-0.04381587 9047:-0.07020051 9048:0.056943692 9049:-0.10167383 9052:0.026593715 9053:-0.0064987531 9054:0.0035645557 9055:0.066564918 9058:-0.0023094036 9059:0.028836774 9060:0.069114946 9061:-0.001051003 9062:-0.18345168 9063:-0.056621652 