SVM-light Version V6.20
0 # kernel type
3 # kernel parameter -d 
1 # kernel parameter -g 
1 # kernel parameter -s 
1 # kernel parameter -r 
empty# kernel parameter -u 
24072 # highest feature index 
157 # number of training documents 
2 # number of support vectors plus 1 
0.0021913261 # threshold b, each following line is a SV (starting with alpha*y)
1 1:0.0023118134 2:0.037990429 3:-0.18131936 4:-0.1154732 5:-0.20000534 6:-0.1344368 7:0.011341651 8:-0.077976815 9:1.0169248e-013 10:0.094007045 11:1.5490179e-015 12:0.094007045 13:-0.035345767 14:0.024587303 15:0.00077727018 16:0.082190007 17:1.0169248e-013 21:-0.085898221 22:0.094007045 23:-0.25329953 24:0.34839988 25:0.31640744 26:-0.23233342 27:-0.31087172 28:-0.44499382 29:0.12668046 30:-0.017299322 31:0.0011602826 32:-0.0039965562 33:-0.11081401 34:-0.14123151 35:0.16082108 36:-0.014144282 37:0.13963524 38:-0.041183241 39:0.052911993 40:0.30457112 41:-0.074989177 42:0.075681262 43:-0.19739722 44:0.027484434 45:-0.14430359 46:0.023657307 47:0.013118307 48:-0.04938205 49:-0.11635058 50:-0.15047795 51:0.1091093 52:0.01606355 53:-0.18854523 54:-0.11308233 55:-0.050523903 56:0.056415658 57:-0.08951924 58:-0.063630834 59:0.017765392 60:-0.1729773 61:0.041869793 62:-0.028441545 63:-0.094025917 64:-0.026926763 65:0.12354045 66:0.137963 67:0.044888664 68:0.1876073 69:0.25599161 70:-0.018821677 71:0.0048786444 72:0.027501134 73:-0.01969151 74:-0.057974502 75:0.063004792 76:-0.03452025 77:-0.10229477 78:-0.034455828 79:0.044047907 80:0.039627727 81:0.016012711 83:-0.062314831 84:-0.020242279 85:0.088383697 86:0.0131403 87:0.0033259378 88:0.17049119 89:-0.085883237 90:-0.084808871 91:-0.049624674 92:0.11736626 93:0.09871199 94:0.08249408 95:0.01787309 97:-0.046642773 98:0.13878898 99:-0.03119492 100:-0.086573794 101:0.017542213 102:0.080333248 103:0.062891431 104:-0.036922082 105:-0.066685267 106:0.10370675 107:0.035821509 108:-0.041739121 109:-0.032881498 110:-0.0209597 111:0.042824347 112:0.21168724 113:0.031304836 114:0.051988948 115:0.0069343806 116:-0.0062929476 117:-0.037201323 118:-1.0178138e-013 119:0.068752266 120:-0.039067492 121:0.015583262 122:0.13314079 123:0.094007045 124:0.00026675794 126:-0.01210879 128:0.094614834 129:0.10972366 130:-0.10642273 131:-0.022596152 132:0.13335708 134:0.16910556 135:-0.0039965562 136:0.30457112 137:0.13963524 138:-0.14123151 139:0.075681262 140:0.027484434 141:0.01606355 142:-0.014144282 143:-0.18854523 144:-0.11635058 145:0.056415658 146:0.12354045 147:0.013118307 148:-0.1729773 149:0.16082108 150:-0.08951924 151:-0.19739722 152:0.25599161 153:0.1876073 154:-0.041183241 155:-0.028441545 156:0.027501134 157:0.044047907 158:-0.14430359 159:-0.074989177 160:-0.085883237 161:0.0048786444 162:-0.11081401 163:-0.084808871 164:-0.026926763 165:-0.10229477 166:-0.057974502 167:0.044888664 168:-0.063630834 169:0.023657307 170:-0.03452025 171:0.13878898 172:-0.020242279 173:-0.01969151 174:0.052911993 175:-0.11308233 176:-0.04938205 177:0.016012711 178:0.039627727 179:-0.15047795 180:-0.050523903 181:0.017765392 182:-0.018821677 183:0.088383697 184:-0.094025917 185:0.09871199 186:0.01787309 187:0.1091093 188:-0.0209597 189:-0.066685267 190:-0.034455828 191:0.0033259378 192:0.031304836 193:0.080333248 194:0.063004792 195:0.137963 196:-0.046642773 197:-0.062314831 198:0.051988948 199:0.0069343806 200:0.062891431 201:-0.049624674 202:0.041869793 203:0.00026675794 204:0.017542213 205:0.015583262 206:0.17049119 207:-0.039067492 208:0.10370675 209:-0.041739121 210:0.068752266 211:0.08249408 212:0.13335708 213:-1.0178138e-013 214:-0.086573794 216:0.21168724 217:-0.03119492 218:0.0131403 219:-0.0062929476 220:0.11736626 221:-0.036922082 223:0.035233259 224:-0.064528137 225:-0.14692405 226:-0.085883237 227:0.14359163 228:-0.34804276 229:-0.10815004 230:0.18777309 231:-0.10201903 232:-0.15477791 233:0.053237431 234:-0.013206941 235:-0.12957957 236:0.26629055 237:-0.013347525 238:0.22959818 239:0.065473676 240:-0.38143948 241:0.048450306 242:-0.042122085 243:-0.0041959565 244:-0.30567282 245:-0.074149728 246:0.17579055 247:0.022032132 248:0.42055359 249:-0.074582711 250:0.082679056 251:0.24919485 252:0.068092093 253:0.14446001 254:-0.0074059069 255:0.061828855 256:0.043557167 257:0.09505266 258:-0.01062106 259:-0.015879763 260:-0.091714613 261:0.14911163 262:-0.10429025 263:-0.030561436 264:0.041286357 265:0.034398265 266:0.0057879658 267:0.18072286 268:-0.0010383489 269:-0.02781954 270:-0.0067599746 271:0.060118329 272:0.0403689 273:-0.025960512 274:0.034670893 275:0.16139479 276:0.051988948 277:0.013075857 278:0.18877973 279:0.13137925 280:-0.019771982 281:0.010872927 282:-0.096736327 283:0.009728374 284:-0.075575255 285:0.015583262 286:-0.11519453 287:0.030406605 288:0.057499796 289:-0.064329684 290:0.0772058 291:0.22213593 292:0.082637601 293:0.12629326 294:-0.0067819031 295:-0.033417836 296:0.10370675 297:0.11035222 298:0.20563503 299:-0.097736552 300:0.12894011 301:0.058683019 302:-0.058035307 303:0.027441131 304:4.0676991e-013 305:0.10459241 306:0.3308157 307:-0.05783201 308:-0.094007045 309:0.1446673 310:0.032116465 312:-0.018623231 313:0.012991785 314:0.14119864 315:-0.036922082 316:-0.038428415 317:-0.010120206 318:0.07071586 319:0.082105085 320:0.085320361 321:-0.045748025 322:0.010475751 323:-0.025110459 324:-0.001116517 325:-0.059847955 326:-0.046770494 327:0.012574785 328:-0.041818354 329:0.0047289701 330:4.0676991e-013 331:-0.03119492 332:0.062625952 334:0.042824347 336:2.0347386e-013 337:0.18564421 338:1.5490179e-015 339:-0.0020412798 340:-0.061577905 341:0.10018297 342:0.071431488 343:-0.021025121 344:-0.076187 345:0.041509219 346:-0.034255601 347:-0.070132598 348:-0.15791333 349:-0.059327953 350:-0.068633169 351:0.095511951 352:0.052175052 353:-0.0057702214 354:-0.022998942 355:0.016692461 356:-0.10964701 357:0.10809209 358:-0.049606372 359:-0.070111006 360:-0.17311798 361:0.085422277 362:-0.081196107 363:-0.10562053 364:-0.042146686 365:0.00051455182 366:-0.012128974 367:0.10647693 368:0.036445573 369:0.13055211 370:0.070927091 371:-0.091133863 372:-0.080572106 373:-0.074445106 374:0.12786193 375:-0.02549302 376:0.099826202 377:-0.036937028 378:-0.092281349 379:-0.061859481 380:0.20689489 381:0.10375428 382:-0.033518847 383:-0.069310173 384:-0.10539285 385:-0.23813562 386:-0.027235856 387:0.02872874 388:0.043527685 389:-0.01968137 390:-0.020971375 391:0.10818203 392:0.083408773 393:-0.0321193 394:0.094007052 395:-0.072102025 396:-0.010302688 397:-0.036274485 398:-0.045113217 399:-0.10921989 400:-7.1337941e-005 401:-0.041126497 402:-0.054713789 403:-0.055581871 404:-0.15129378 405:0.061624918 406:0.025091903 407:-0.058680885 408:0.054274917 409:0.0022642466 410:-0.10393709 411:0.16912696 412:0.056437641 413:-0.13183485 414:0.067723148 415:0.044802874 416:0.049815614 417:-0.11223478 418:0.0095479721 419:0.026753629 420:0.24118383 421:0.0081792595 422:-0.060618937 423:-0.05314951 424:0.1931926 425:0.039639391 426:-0.050959941 427:0.041883618 428:-0.098799437 429:-0.027608478 430:-0.072191887 431:0.10140412 432:-0.082629912 433:-0.04425139 434:-0.06161252 435:0.28740409 436:0.01495696 437:-0.033476494 438:0.040730566 439:0.22882143 440:0.044257104 441:0.011863721 442:-0.084076054 443:-0.061464354 444:-0.13050437 445:-0.094007045 446:0.0787616 447:-0.06947232 448:-0.049076088 449:0.068010189 450:0.036501609 451:-0.12964588 452:-0.098548219 453:-0.085933872 454:0.0082463836 455:1.6379107e-015 456:-0.10253546 457:0.094007052 458:0.028194876 459:-1.7778572e-016 460:-0.011115577 461:0.089685135 462:0.045815773 463:-0.065065384 464:0.23495147 465:-0.048089314 466:-0.027809991 467:-0.18801409 468:-0.10465603 469:-0.058756761 470:-0.0021279452 471:0.029390894 472:0.065402836 473:-0.12150064 474:0.13721435 475:0.096268259 476:0.093369603 477:0.0082830833 478:-0.064037457 479:-0.022250801 481:0.047127608 482:-0.076065712 483:-0.13767841 484:0.0095824618 485:0.0143622 486:-0.049376737 487:0.18129723 488:-0.03296376 489:-0.083055049 490:-0.083155975 491:0.0016755108 492:-0.28202114 493:0.18801409 494:-0.0019720995 496:0.21281795 497:-0.018780138 498:-0.061577905 499:-0.15791333 500:0.041509219 501:0.071431488 502:-0.068633169 503:0.052175052 504:-0.10562053 505:-0.076187 506:0.00051455182 507:-0.070111006 508:0.036445573 509:-0.061859481 510:0.016692461 511:-0.080572106 512:-0.021025121 513:0.070927091 514:0.095511951 515:-0.23813562 516:-0.069310173 517:-0.034255601 518:0.12786193 519:0.02872874 520:-7.1337941e-005 521:-0.022998942 522:-0.059327953 523:-0.13183485 524:-0.027235856 525:0.10018297 526:0.044802874 527:-0.036274485 528:-0.0057702214 529:-0.020971375 530:0.10375428 531:0.10809209 532:0.0081792595 533:-0.010302688 534:-0.082629912 535:-0.15129378 536:-0.01968137 537:-0.070132598 538:-0.098799437 539:-0.012128974 540:-0.049606372 541:-0.055581871 542:-0.17311798 543:-0.033518847 544:-0.041126497 545:-0.054713789 546:0.085422277 547:0.24118383 548:0.10647693 549:-0.036937028 550:0.28740409 551:-0.091133863 552:0.041883618 553:0.0787616 554:-0.042146686 555:-0.02549302 556:-0.11223478 557:-0.060618937 558:-0.081196107 559:-0.085933872 560:-0.061464354 561:-0.10921989 562:0.099826202 563:0.061624918 564:-0.092281349 565:0.16912696 566:-0.0321193 567:0.01495696 568:0.1931926 569:0.20689489 570:0.026753629 571:0.13055211 572:-0.027608478 573:-0.05314951 574:0.025091903 575:-0.10393709 576:-1.7778572e-016 577:-0.084076054 578:-0.10964701 579:-0.072102025 580:-0.050959941 581:0.056437641 582:0.067723148 583:-0.027809991 584:-0.12964588 585:0.029390894 586:0.043527685 587:0.044257104 588:-0.065065384 589:0.045815773 590:0.089685135 591:-0.058680885 592:0.22882143 593:-0.10465603 594:0.028194876 595:-0.074445106 596:-0.13767841 597:0.0143622 598:0.0095479721 599:-0.06947232 600:0.094007052 601:-0.04425139 602:0.065402836 603:0.18129723 604:0.094007052 605:0.068010189 606:-0.049376737 607:0.0082830833 608:-0.049076088 609:-0.0021279452 610:-0.0019720995 611:1.6379107e-015 612:0.0016755108 613:0.0022642466 614:0.096268259 615:0.047127608 616:0.10140412 617:-0.10253546 618:-0.022250801 619:0.039639391 620:0.036501609 621:0.23495147 622:0.011863721 623:0.093369603 624:-0.03296376 626:0.040730566 627:-0.06161252 628:-0.048089314 629:0.13721435 630:-0.098548219 631:-0.018780138 632:-0.12150064 633:-0.083155975 634:0.21281795 635:0.0082463836 636:-0.072191887 637:0.054274917 638:-0.010366598 639:-0.07580214 640:0.049339168 641:-0.13183485 642:0.083499096 643:-0.24577641 644:-0.070025668 645:-0.084344514 646:0.15197811 647:-0.22243094 648:0.08654879 649:-0.11724279 650:-0.045507759 651:-0.18864079 652:-0.060834952 653:0.14426702 654:-0.094593853 655:-0.098799437 656:0.04971252 657:0.3045021 658:0.066139214 659:0.28809106 660:-0.052411936 661:0.094157271 662:-0.057663504 663:-0.023396004 664:0.1111561 665:-0.099578522 666:0.11699457 667:-0.037948348 668:-0.12120322 669:-0.04262808 670:-0.021131285 671:0.0032754662 672:0.016576571 673:-0.17609373 674:0.083300076 675:0.087314576 676:-0.061859831 677:0.06541349 678:-0.022147672 679:-0.0093975654 680:0.10135941 681:-0.082760058 682:-0.050228462 683:0.17926726 684:0.12734377 685:-0.18266223 686:-0.23223582 687:-0.054104704 688:0.051469769 689:-0.11717065 690:-0.12060691 691:0.071040951 692:0.12198922 693:0.12237831 694:-0.13738227 695:0.13528091 696:-0.020841468 697:-0.23104298 698:-0.0098709334 699:-0.078239955 700:0.28202114 701:0.17452022 702:-0.20583875 703:-0.18268883 704:0.0033679456 705:0.077209383 706:0.015434601 707:-0.37801075 708:-0.1258947 709:-0.068678997 710:-0.026893603 711:0.17728114 712:0.0039374279 713:0.12891333 714:0.10878548 715:0.17692563 716:0.034485586 717:0.026298191 718:-0.069185592 719:0.013409374 720:0.041211911 721:0.057702813 722:-0.03753544 723:0.045815773 724:0.0198348 725:-0.12456833 726:-0.17948835 727:-0.055716507 728:0.074153915 729:0.048675902 730:0.13817227 731:0.089685135 732:-0.049843907 733:-0.17854598 734:0.044122536 735:0.028571369 736:-0.051321547 737:0.0025762776 738:0.056952693 739:0.084914558 740:0.039585434 741:-0.042108629 742:-0.087326802 743:0.039752085 744:0.19939692 745:0.14870198 746:0.08808516 747:0.16121738 748:0.035042718 749:0.0080727953 750:-0.12328129 751:-0.11905185 752:0.067896582 753:0.0141775 754:-0.057919364 755:0.14832124 756:0.14812206 757:-0.065812171 758:0.094007052 759:0.094502687 760:0.010611666 761:0.1211808 762:0.1126058 763:-0.049376737 764:0.0082830833 765:0.026117593 766:0.094007052 767:0.14023019 768:-0.0097579863 769:0.18955652 770:1.0178138e-013 771:0.19152677 772:-0.017629726 773:0.15436377 774:-0.013804884 775:0.20359594 776:0.13549258 777:0.17650786 778:0.028878869 779:-0.11685396 780:0.0056045949 781:0.14684851 782:-0.005762096 784:1.032415e-013 785:-0.15737887 786:-0.087818258 787:0.027668238 788:0.0016755108 789:0.013816147 790:0.15918857 791:-0.12933005 792:-0.022398248 793:0.093665041 794:0.041233197 795:0.10113902 796:-0.082598366 797:-0.12540662 798:-0.0094077699 799:0.1064906 800:-0.058048002 801:-0.12964588 802:8.8892859e-017 803:0.13636152 804:-0.11526984 805:0.007768908 806:-0.058355525 808:0.0049348092 809:0.029707642 810:-0.14959961 811:0.014568883 812:0.020875398 813:-0.0072805965 814:0.040807322 815:9.7840879e-005 816:-0.024257405 817:0.011147057 818:0.070548624 819:0.031350989 820:-0.28485709 821:-0.084402613 822:0.10939729 823:0.085898586 824:0.093369603 825:1.6379107e-015 826:0.078202382 828:-0.011201541 829:0.14238597 830:0.040046986 832:-0.11221977 833:-0.057898175 834:0.091361955 835:-1.0169248e-013 836:-0.027954381 837:0.084710144 838:0.010359262 839:0.1429942 840:-0.15050763 841:0.0097146891 842:-0.03436273 843:-0.03296376 844:-0.16630383 845:0.16261034 846:-0.049490158 847:0.054216448 848:0.094007052 849:0.027833613 850:0.049135558 851:-0.089169286 852:-0.094007045 853:-0.091632493 854:-0.10756265 855:-0.13700531 856:-0.083370052 857:0.062577158 858:-0.10177534 859:-0.0016594855 860:-0.08093854 861:0.18801409 862:-0.093502179 863:0.049434979 864:-0.017727422 865:0.031163737 866:2.0338496e-013 867:0.019279923 868:1.032415e-013 869:0.15188743 870:-0.090093076 871:0.14006087 872:-0.094919696 873:0.02729756 874:-0.091545977 875:0.17959048 876:-0.073555045 877:0.048371747 878:0.12382592 879:-0.08409787 881:0.21281795 882:-0.094007045 883:0.072528638 884:2.0338496e-013 885:0.016593292 886:-0.0023371456 887:-0.019075448 888:0.012490466 889:0.0048366887 890:-0.05386338 891:-0.077268615 892:0.012146779 893:0.097672917 894:0.0021080219 895:0.016808152 896:0.11104645 897:0.0040199556 898:0.05571695 899:0.020987265 901:-0.10883522 902:0.005599082 903:-0.0097209159 904:-0.064789049 905:-0.02128667 906:-0.17215009 907:-0.094007052 908:-0.030845059 909:-0.089110196 910:-0.037032086 911:0.040730566 912:0.016970601 913:-0.0013571652 914:0.057671703 915:0.10411951 916:0.008639507 917:-0.091886453 918:-0.012453875 919:-0.15020593 920:-0.02493611 921:0.047578763 922:0.094007052 923:0.051196788 924:0.022224674 925:-0.016987961 926:-0.094007045 927:-0.15020593 928:0.051196788 929:0.047578763 930:-0.02493611 931:0.022224674 932:-0.016987961 933:-0.094007045 934:0.094007052 935:0.068481766 936:-0.083788648 937:-0.014561926 938:0.083385989 939:0.13506404 940:-0.026375098 941:-0.058903564 942:-0.15915731 943:0.13676846 944:-0.083416678 945:0.056678277 946:0.07934878 947:0.3308157 948:0.065227978 949:-0.21854697 951:0.017534038 952:-0.10860283 953:-0.060194392 954:-0.10831521 955:-0.16782804 956:-0.046900827 957:-0.094131649 958:0.15224878 959:0.063176975 960:-0.037579134 961:0.098632768 962:0.089010812 963:-0.14903857 964:0.12535113 965:-0.18738313 966:-0.021444103 967:0.32365966 968:-0.03766118 969:0.023203177 970:-0.00039069759 971:-0.021331813 972:-0.078124754 973:-0.026372449 974:-0.14995028 975:-0.12125771 976:0.15870336 977:-0.11661387 978:0.086007662 979:-0.19633511 980:-0.077452123 981:-0.013084394 982:-0.012311197 983:0.033531994 984:0.066809438 985:-0.16494431 986:-0.017710701 987:0.12143975 988:-0.029575279 989:-0.061627019 990:-0.00030560349 991:2.0338496e-013 992:-0.051412441 993:-0.070247322 994:0.0088247471 995:0.074999548 996:-0.084176436 997:0.054017063 998:0.043740027 999:-0.076023407 1000:0.077502333 1001:-0.034234621 1002:0.0087953201 1003:0.036159761 1004:0.10821948 1005:0.0069810296 1006:-0.17439975 1007:-0.019703506 1008:0.0033141866 1009:0.0053511378 1010:0.069301173 1011:-0.054870363 1012:0.0099012442 1013:-0.10363182 1014:-0.44244406 1015:-0.03009541 1016:0.021880675 1017:0.043564819 1018:-0.02088787 1019:-0.095772326 1020:0.06893789 1021:-0.030422594 1022:-0.017073376 1023:-0.07535807 1024:-0.062455349 1025:-0.059932008 1026:-0.04129323 1027:0.10783846 1028:-0.020852868 1029:0.15381238 1030:-0.057053328 1031:0.10397019 1032:-0.0034779813 1033:0.026423812 1034:-0.041753042 1035:-0.094297685 1036:0.037160065 1038:0.0018933074 1039:0.029296426 1040:-0.015824866 1041:-0.019775715 1042:0.0079584131 1043:-0.022393458 1044:0.029262882 1046:0.18842824 1047:-0.13003846 1048:0.28202114 1049:0.02707082 1050:0.089383066 1052:-0.0096923569 1053:0.094645865 1054:0.03341946 1056:0.025512109 1057:-0.12820883 1058:0.027012914 1059:0.066939063 1060:-0.02908466 1061:0.17534718 1062:0.015583262 1063:-0.002862199 1064:-0.075838007 1066:0.094007052 1067:-0.16807389 1068:0.031994645 1069:0.17619705 1070:0.18801409 1071:0.005195953 1072:0.078949846 1073:-0.045196466 1074:0.088883482 1076:-0.049194302 1077:0.02588989 1078:-0.070906371 1079:0.026515529 1081:0.02289629 1082:-0.0068636546 1083:1.0169248e-013 1084:-0.020348234 1085:-0.0003942044 1086:0.03039979 1087:0.06314031 1088:-0.037410054 1090:0.085320361 1091:-0.077020302 1092:0.026376594 1093:-0.003767577 1094:-0.094007045 1095:0.018467039 1096:-0.12312935 1097:-0.044078376 1098:0.087769076 1099:-0.022554951 1100:0.068481766 1101:-0.058903564 1102:-0.026375098 1103:-0.094131649 1104:-0.21854697 1105:-0.10831521 1106:-0.00039069759 1107:0.017534038 1108:0.07934878 1109:0.13506404 1110:0.13676846 1111:0.0099012442 1112:0.033531994 1113:-0.021444103 1114:0.12535113 1115:0.098632768 1116:-0.034234621 1117:0.056678277 1118:0.043564819 1119:-0.15915731 1120:0.065227978 1121:0.0079584131 1122:0.063176975 1123:-0.03766118 1124:0.0018933074 1125:-0.083788648 1126:-0.021331813 1127:0.083385989 1128:-0.029575279 1129:-0.037579134 1130:0.15870336 1131:0.036159761 1132:0.089010812 1133:-0.013084394 1134:-0.16494431 1135:-0.061627019 1136:-0.083416678 1137:0.066809438 1138:-0.03009541 1139:0.054017063 1140:0.086007662 1141:0.029262882 1142:-0.084176436 1143:0.03341946 1144:-0.10363182 1145:-0.19633511 1146:0.027012914 1147:0.025512109 1148:0.10821948 1149:-0.017710701 1150:0.12143975 1151:0.32365966 1152:0.089383066 1153:-0.18738313 1154:0.074999548 1155:-0.022393458 1156:0.023203177 1157:-0.060194392 1158:-0.059932008 1159:0.0088247471 1160:0.015583262 1161:0.077502333 1162:0.078949846 1163:-0.12820883 1164:0.043740027 1165:-0.030422594 1166:0.026423812 1167:-0.16807389 1168:-0.054870363 1169:-0.094297685 1170:-0.026372449 1171:-0.046900827 1172:-0.076023407 1173:0.0087953201 1174:0.10397019 1175:-0.13003846 1176:-0.00030560349 1177:-0.070906371 1178:-0.07535807 1179:-0.017073376 1180:-0.0096923569 1181:0.088883482 1182:-0.020852868 1183:-0.02908466 1184:-0.095772326 1185:-0.019703506 1186:0.10783846 1187:0.094645865 1188:-0.062455349 1189:-0.002862199 1190:0.021880675 1191:0.02707082 1192:-0.16782804 1193:0.0069810296 1194:0.0033141866 1195:-0.051412441 1197:-0.12125771 1198:-0.0068636546 1199:-0.057053328 1200:-0.077452123 1201:0.3308157 1202:0.018467039 1203:0.037160065 1204:-0.012311197 1205:-0.003767577 1206:-0.070247322 1207:0.005195953 1208:0.094007052 1209:0.0053511378 1210:-0.02088787 1211:-0.094007045 1212:-0.019775715 1213:-0.14995028 1214:-0.04129323 1215:0.02588989 1216:-0.020348234 1217:0.17619705 1218:0.087769076 1219:-0.014561926 1221:0.15224878 1222:-0.11661387 1223:0.029296426 1224:0.06314031 1225:-0.041753042 1228:0.085320361 1229:-0.10860283 1230:-0.0003942044 1231:0.11255574 1232:0.027701726 1233:-0.40398601 1234:0.042903453 1235:0.07144516 1236:-0.0055261725 1237:0.22959818 1238:-0.38143948 1239:-0.35430819 1240:-0.046804506 1241:0.16751374 1242:-0.13759571 1243:-0.10418407 1244:-0.07666298 1245:-0.0049340893 1246:-0.02055504 1247:0.061287638 1248:0.014163789 1249:0.19232227 1250:-0.01062106 1251:-0.017563669 1252:-0.018522874 1253:-0.030561436 1254:-0.11236936 1255:0.17261881 1256:-0.0010926881 1257:-0.046044506 1258:-0.0095009273 1259:-0.0084933639 1260:-0.02781954 1261:0.051988948 1262:-0.0022499622 1263:-0.023957476 1264:0.064798042 1265:0.080534942 1266:-0.001793661 1267:0.015583262 1268:-0.13605788 1269:-0.10657724 1270:-0.0070228688 1271:-0.0093403738 1272:-0.017545173 1273:0.035953701 1274:0.046283003 1275:-0.12078301 1276:-0.018105768 1277:0.17303318 1278:-0.036926456 1279:-0.089904748 1280:0.036473155 1281:-0.15393905 1282:-0.071761057 1283:-0.050267022 1284:0.0018684214 1285:0.013837432 1286:-0.055987962 1287:2.0347386e-013 1288:-0.068592019 1289:0.0032460389 1290:-0.16406277 1291:-0.0052655721 1292:0.3308157 1293:-0.094007045 1294:2.0338496e-013 1295:-0.010377054 1297:-0.058549028 1298:-0.095223844 1299:-0.0092007844 1300:1.0160359e-013 1301:-0.094007045 1302:-0.027244285 1303:-0.044753805 1304:0.014612174 1305:-0.052496523 1306:-0.10484042 1307:-0.11086884 1308:0.12123745 1309:0.094007045 1310:-0.066379555 1311:-0.10013121 1312:-0.068151169 1313:0.0058335313 1314:0.012062852 1316:0.032116465 1317:0.085320361 1318:-0.045748025 1319:0.020735806 1320:-0.0077963029 1321:0.053927392 1322:0.0085507827 1323:0.022434214 1324:0.062625952 1325:0.034213893 1326:0.024821918 1328:0.033954058 1329:0.094007045 1330:0.061311401 1332:0.1880141 1333:-0.045097299 1334:-0.091036551 1335:-0.09315902 1336:0.032634296 1337:-0.17590882 1338:-0.041818354 1339:0.05575715 1340:0.094007045 1341:-0.065458953 1342:-0.02088787 1343:0.027138999 1344:0.049434979 1346:0.02905239 1348:0.14741203 1349:0.044459809 1350:0.0295799 1351:0.17914031 1352:0.25841621 1353:0.5098871 1354:0.06176227 1355:0.061661392 1356:-0.035428748 1357:0.17575009 1358:0.15061511 1359:0.093916588 1360:0.60498512 1361:0.075432278 1362:0.094007045 1363:0.14741203 1364:0.0295799 1365:0.25841621 1366:0.17914031 1367:-0.035428748 1368:0.5098871 1369:0.061661392 1370:0.06176227 1371:0.044459809 1372:0.075432278 1373:0.093916588 1374:0.15061511 1375:-0.10497082 1376:-0.20553188 1377:-0.060743492 1378:0.035368551 1379:0.41116893 1380:0.19832674 1381:0.20643283 1382:0.3045021 1383:0.33480445 1384:-0.12068886 1385:0.10557655 1386:-0.11354608 1387:0.13481972 1388:0.19939692 1389:0.05013679 1390:0.10400423 1391:-0.035658952 1392:0.034149457 1393:0.17086796 1394:0.05063381 1396:0.094007045 1397:0.037455097 1398:0.18801409 1399:-0.01579622 1400:0.13765456 1401:0.04088293 1402:-0.091650069 1403:-0.01579622 1404:-0.091650069 1405:0.04088293 1406:0.13765456 1407:0.077648193 1408:-0.11081401 1409:0.084003188 1410:-0.0062840427 1411:0.0114177 1412:-0.16901141 1413:0.13414948 1414:0.052911993 1415:-0.20663464 1416:0.019017875 1417:0.2502588 1418:0.26816517 1419:0.048427619 1420:0.099427454 1421:0.067071103 1422:0.081106894 1423:-0.04938205 1424:0.034549978 1425:0.037536152 1426:0.065292835 1427:0.052748144 1428:0.036480218 1429:-0.094862603 1430:-0.050523903 1431:-0.14345731 1432:0.14276873 1433:-0.063630834 1434:0.03475409 1435:0.046757426 1436:0.041869793 1437:-0.028441545 1438:-0.094025917 1439:0.029378252 1440:0.013024641 1441:0.137963 1442:-0.07683029 1443:-0.051201031 1444:-0.10433304 1445:-0.018821677 1446:-0.0064711962 1447:-0.0053071151 1448:-0.11164676 1449:0.05927147 1450:0.063004792 1451:-0.10057826 1452:0.061633285 1453:-0.034455828 1454:-0.094892383 1455:0.13363478 1456:0.048459057 1458:-0.062314831 1459:-0.23159041 1460:-0.027811231 1461:0.0131403 1462:0.0033259378 1463:0.17049119 1464:-0.085883237 1465:0.0077824667 1466:0.044382375 1467:0.11736626 1468:0.09871199 1469:0.08249408 1470:0.01787309 1472:-0.11597344 1473:0.12044552 1474:0.061942793 1475:-0.086573794 1476:0.017542213 1477:-0.013673802 1478:0.062891431 1479:0.017593857 1480:-0.036706064 1481:0.10370675 1482:0.035821509 1483:-0.041739121 1484:-0.032881498 1485:-0.11496675 1486:0.085218333 1487:0.21168724 1488:0.023821026 1489:0.051988948 1490:0.0047112326 1491:-0.0062929476 1492:-0.037201323 1493:-1.0178138e-013 1494:0.068752266 1495:-0.039067492 1496:0.026439982 1497:0.13314079 1498:0.094007045 1499:-0.014961956 1501:-0.01210879 1503:0.094614834 1504:0.045533974 1505:-0.10642273 1506:-0.022596152 1507:0.13335708 1509:0.16910556 1510:0.077648193 1511:-0.20663464 1512:-0.16901141 1513:0.084003188 1514:0.2502588 1515:0.048427619 1516:0.052748144 1517:0.0114177 1518:0.036480218 1519:0.034549978 1520:-0.14345731 1521:0.013024641 1522:0.081106894 1523:0.046757426 1524:-0.0062840427 1525:0.14276873 1526:0.26816517 1527:-0.10433304 1528:-0.051201031 1529:0.13414948 1530:-0.028441545 1531:-0.0053071151 1532:-0.094892383 1533:0.099427454 1534:0.019017875 1535:-0.085883237 1536:-0.0064711962 1537:-0.11081401 1538:0.0077824667 1539:0.029378252 1540:0.061633285 1541:0.05927147 1542:-0.07683029 1543:-0.063630834 1544:0.067071103 1545:-0.10057826 1546:0.12044552 1547:-0.23159041 1548:-0.11164676 1549:0.052911993 1550:-0.094862603 1551:-0.04938205 1552:0.048459057 1553:0.13363478 1554:0.037536152 1555:-0.050523903 1556:0.03475409 1557:-0.018821677 1558:-0.027811231 1559:-0.094025917 1560:0.09871199 1561:0.01787309 1562:0.065292835 1563:-0.11496675 1564:-0.036706064 1565:-0.034455828 1566:0.0033259378 1567:0.023821026 1568:-0.013673802 1569:0.063004792 1570:0.137963 1571:-0.11597344 1572:-0.062314831 1573:0.051988948 1574:0.0047112326 1575:0.062891431 1576:0.044382375 1577:0.041869793 1578:-0.014961956 1579:0.017542213 1580:0.026439982 1581:0.17049119 1582:-0.039067492 1583:0.10370675 1584:-0.041739121 1585:0.068752266 1586:0.08249408 1587:0.13335708 1588:-1.0178138e-013 1589:-0.086573794 1591:0.21168724 1592:0.061942793 1593:0.0131403 1594:-0.0062929476 1595:0.11736626 1596:0.017593857 1598:-0.077092215 1599:0.026985459 1600:0.10938748 1601:-0.085883237 1602:0.006994064 1603:0.13994956 1604:0.038883124 1605:0.16297406 1606:-0.10201903 1607:-0.046798151 1608:0.053237431 1609:0.11053569 1610:-0.091733359 1611:0.078276448 1612:-0.013347525 1613:0.049047511 1614:0.021140387 1615:-0.009884133 1616:0.048450306 1617:0.031466525 1618:0.10679814 1619:-0.21166578 1620:-0.16799882 1621:0.19174485 1622:0.022032132 1623:0.37779787 1624:-0.074582711 1625:0.082679056 1626:0.10439356 1627:0.068092093 1628:0.14446001 1629:-0.0074059069 1630:0.15057856 1631:-0.027215155 1632:0.090128571 1633:-0.01062106 1634:-0.08107987 1635:-0.061958551 1636:0.14911163 1637:-0.069688737 1638:-0.030561436 1639:-0.052720692 1640:-0.059608784 1641:0.0057879658 1642:0.11009746 1643:-0.03554346 1644:0.028224325 1645:-0.0067599746 1646:0.0056023886 1647:0.0403689 1648:-0.025960512 1649:0.034670893 1650:0.22435172 1651:0.051988948 1652:0.013075857 1653:0.16741332 1654:0.037372194 1655:-0.019771982 1656:0.010872927 1657:-0.096736327 1658:0.064897075 1659:-0.075575255 1660:0.015583262 1661:-0.11519453 1662:-0.016512768 1663:0.081596002 1664:0.080112576 1665:0.0027550261 1666:0.22213593 1667:0.082637601 1668:0.21888459 1669:0.087225147 1670:-0.033417836 1671:0.10370675 1672:0.11035222 1673:0.11162797 1674:-0.097736552 1675:0.12156836 1676:0.058683019 1677:-0.2460494 1678:0.027441131 1679:4.0676991e-013 1680:0.10459241 1681:0.18801409 1682:-0.05783201 1683:-0.094007045 1684:0.23867436 1685:0.032116465 1687:-0.018623231 1688:-0.0842048 1689:0.15474397 1690:0.017593857 1691:-0.038428415 1692:-0.010120206 1693:0.07071586 1694:0.082105085 1695:0.085320361 1696:-0.045748025 1697:0.010475751 1698:-0.025110459 1699:-0.095123567 1700:-0.059847955 1701:-0.06499023 1702:0.012574785 1703:-0.041818354 1704:0.0047289701 1705:4.0676991e-013 1706:0.061942793 1707:0.062625952 1709:0.085218333 1711:2.0347386e-013 1712:0.18564421 1713:1.5490179e-015 1714:-0.083366945 1715:0.076205388 1716:0.10018297 1717:0.12116542 1718:0.0085763205 1719:0.033193711 1720:0.20136872 1721:0.061088692 1722:-0.070132598 1723:0.1319457 1724:-0.24734205 1725:-0.052774239 1726:-0.006742436 1727:-0.097537749 1728:-0.0057702214 1729:-0.039967909 1730:0.10485817 1731:-0.10964701 1732:-0.0041796342 1733:-0.049606372 1734:0.09971264 1735:-0.079110935 1736:-0.10259182 1737:0.042880561 1738:0.059272978 1739:-0.026669379 1740:-0.052949257 1741:-0.10613602 1742:0.10647693 1743:0.08011958 1744:0.13055211 1745:0.068639241 1746:-0.091133863 1747:-0.022399656 1748:-0.074445106 1749:-0.067480944 1750:-0.02549302 1751:0.099826202 1752:0.035136536 1753:-0.092281349 1754:0.0065489691 1755:0.18001051 1756:-0.013349206 1757:-0.033518847 1758:-0.21333712 1759:-0.10539285 1760:-0.021773765 1761:0.039748337 1762:-0.068148032 1763:-0.056742121 1764:0.060896561 1765:-0.016935879 1766:0.10818203 1767:0.083408773 1768:-0.0321193 1769:0.094007052 1770:-0.064160623 1771:-0.035528522 1772:0.10501446 1773:-0.045113217 1774:-0.10921989 1775:-0.089668378 1776:-0.13513355 1777:-0.047342181 1778:-0.14958891 1779:0.036720313 1780:0.06888748 1781:0.025091903 1782:-0.058680885 1783:0.054274917 1784:0.0022642466 1785:-0.10393709 1786:-0.018887138 1787:0.056437641 1788:-0.13183485 1789:0.14727929 1790:0.044802874 1791:0.049815614 1792:-0.11223478 1793:0.0095479721 1794:-0.052858751 1795:0.24118383 1796:0.0081792595 1797:-0.10287796 1798:-0.05314951 1799:0.1931926 1800:0.039639391 1801:-0.050959941 1802:0.041883618 1803:-0.098799437 1804:-0.027608478 1805:-0.072191887 1806:0.10140412 1807:-0.082629912 1808:-0.04425139 1809:-0.06161252 1810:0.11310636 1811:-0.062989764 1812:-0.033476494 1813:0.040730566 1814:0.22882143 1815:0.044257104 1816:0.011863721 1817:-0.054491665 1818:-0.061464354 1819:-0.13050437 1820:-0.094007045 1821:0.07917808 1822:-0.06947232 1823:-0.049076088 1824:0.068010189 1825:0.036501609 1826:-0.12964588 1827:-0.098548219 1828:-0.095963836 1829:0.0082463836 1830:1.6379107e-015 1831:-0.0085284151 1832:0.094007052 1833:0.028194876 1834:-0.2194172 1835:-0.011115577 1836:0.089685135 1837:0.045815773 1838:-0.043352462 1839:0.23495147 1840:-0.048089314 1841:-0.027809991 1842:-0.18801409 1843:-0.10465603 1844:-0.058756761 1845:-0.0021279452 1846:0.029390894 1847:-0.16646583 1848:-0.12150064 1849:0.27697986 1850:0.096268259 1851:0.093369603 1852:0.0082830833 1853:-0.064037457 1854:-0.022250801 1856:0.047127608 1857:-0.076065712 1858:-0.13767841 1859:0.0095824618 1860:0.0143622 1861:-0.049376737 1862:0.18129723 1863:-0.03296376 1864:-0.083055049 1865:-0.083155975 1866:0.0016755108 1867:-0.1880141 1868:0.18801409 1869:-0.004884053 1871:0.039254766 1872:-0.018780138 1873:0.076205388 1874:0.1319457 1875:0.20136872 1876:0.12116542 1877:-0.052774239 1878:-0.097537749 1879:0.059272978 1880:0.033193711 1881:-0.052949257 1882:0.09971264 1883:0.08011958 1884:0.0065489691 1885:0.10485817 1886:-0.022399656 1887:0.0085763205 1888:0.068639241 1889:-0.006742436 1890:-0.021773765 1891:-0.21333712 1892:0.061088692 1893:-0.067480944 1894:-0.068148032 1895:-0.089668378 1896:-0.039967909 1897:-0.24734205 1898:-0.13183485 1899:0.039748337 1900:0.10018297 1901:0.044802874 1902:0.10501446 1903:-0.0057702214 1904:-0.016935879 1905:-0.013349206 1906:-0.0041796342 1907:0.0081792595 1908:-0.035528522 1909:-0.082629912 1910:0.036720313 1911:0.060896561 1912:-0.070132598 1913:-0.098799437 1914:-0.10613602 1915:-0.049606372 1916:-0.14958891 1917:-0.079110935 1918:-0.033518847 1919:-0.13513355 1920:-0.047342181 1921:-0.10259182 1922:0.24118383 1923:0.10647693 1924:0.035136536 1925:0.11310636 1926:-0.091133863 1927:0.041883618 1928:0.07917808 1929:-0.026669379 1930:-0.02549302 1931:-0.11223478 1932:-0.10287796 1933:0.042880561 1934:-0.095963836 1935:-0.061464354 1936:-0.10921989 1937:0.099826202 1938:0.06888748 1939:-0.092281349 1940:-0.018887138 1941:-0.0321193 1942:-0.062989764 1943:0.1931926 1944:0.18001051 1945:-0.052858751 1946:0.13055211 1947:-0.027608478 1948:-0.05314951 1949:0.025091903 1950:-0.10393709 1951:-0.2194172 1952:-0.054491665 1953:-0.10964701 1954:-0.064160623 1955:-0.050959941 1956:0.056437641 1957:0.14727929 1958:-0.027809991 1959:-0.12964588 1960:0.029390894 1961:-0.056742121 1962:0.044257104 1963:-0.043352462 1964:0.045815773 1965:0.089685135 1966:-0.058680885 1967:0.22882143 1968:-0.10465603 1969:0.028194876 1970:-0.074445106 1971:-0.13767841 1972:0.0143622 1973:0.0095479721 1974:-0.06947232 1975:0.094007052 1976:-0.04425139 1977:-0.16646583 1978:0.18129723 1979:0.094007052 1980:0.068010189 1981:-0.049376737 1982:0.0082830833 1983:-0.049076088 1984:-0.0021279452 1985:-0.004884053 1986:1.6379107e-015 1987:0.0016755108 1988:0.0022642466 1989:0.096268259 1990:0.047127608 1991:0.10140412 1992:-0.0085284151 1993:-0.022250801 1994:0.039639391 1995:0.036501609 1996:0.23495147 1997:0.011863721 1998:0.093369603 1999:-0.03296376 2001:0.040730566 2002:-0.06161252 2003:-0.048089314 2004:0.27697986 2005:-0.098548219 2006:-0.018780138 2007:-0.12150064 2008:-0.083155975 2009:0.039254766 2010:0.0082463836 2011:-0.072191887 2012:0.054274917 2013:-0.004507483 2014:0.022944296 2015:-0.031312115 2016:-0.13183485 2017:-0.17747839 2018:-0.064075224 2019:-0.13961597 2020:-0.059564356 2021:0.15197811 2022:0.082624324 2023:0.08654879 2024:-0.04090146 2025:-0.18132845 2026:-7.1156734e-005 2027:0.033172101 2028:0.14426702 2029:-0.061378546 2030:-0.098799437 2031:0.13855098 2032:0.14854445 2033:0.1408186 2034:0.16147983 2035:0.00062554452 2036:0.094157271 2037:-0.16955516 2038:-0.06843438 2039:0.1111561 2040:-0.14009611 2041:0.037794035 2042:-0.037948348 2043:-0.14293431 2044:-0.04262808 2045:0.0061230357 2046:-0.17904188 2047:0.0087160859 2048:-0.082086682 2049:0.083300076 2050:-0.030687558 2051:-0.061859831 2052:0.06541349 2053:-0.022147672 2054:-0.071760692 2055:0.088752769 2056:-0.082760058 2057:-0.050228462 2058:-0.089274734 2059:0.12734377 2060:-0.18266223 2061:-0.23223582 2062:-0.10185419 2063:0.051469769 2064:-0.17477198 2065:-0.10081906 2066:0.071040951 2067:-0.11637153 2068:0.12237831 2069:-0.18878154 2070:0.13528091 2071:-0.2206731 2072:-0.23104298 2073:-0.1031588 2074:-0.078239955 2075:0.28202114 2076:0.17452022 2077:-0.11183171 2078:-0.20623372 2079:0.023313215 2080:0.077209383 2081:0.015434601 2082:-0.18378884 2083:-0.1796487 2084:-0.068678997 2085:-0.026893603 2086:0.17728114 2087:0.042420782 2088:0.034906283 2089:0.10878548 2090:0.27093267 2091:0.040401053 2092:0.026298191 2093:-0.2571997 2094:0.013409374 2095:0.041211911 2096:0.043338705 2097:-0.026652554 2098:0.045815773 2099:0.0198348 2100:-0.12456833 2101:-0.17948835 2102:-0.055716507 2103:0.074153915 2104:0.048675902 2105:0.13817227 2106:0.089685135 2107:-0.024650646 2108:-0.084538937 2109:0.044122536 2110:-0.058474638 2111:-0.055546947 2112:0.0025762776 2113:-0.037054356 2114:0.084914558 2115:0.039585434 2116:-0.031904899 2117:-0.021262076 2118:0.039752085 2119:0.19939692 2120:0.14870198 2121:0.08808516 2122:0.25522444 2123:0.035042718 2124:0.0042172745 2125:-0.12328129 2126:-0.025044803 2127:0.067896582 2128:0.0080925757 2129:-0.057919364 2130:0.14832124 2131:0.14812206 2132:-0.065812171 2133:0.094007052 2134:0.094502687 2135:0.010611666 2136:0.1616637 2137:0.1126058 2138:-0.049376737 2139:0.0082830833 2140:0.026117593 2141:0.094007052 2142:0.14023019 2143:-0.0097579863 2144:0.095549472 2145:1.0178138e-013 2146:0.097519726 2147:-0.017629726 2148:0.15436377 2149:-0.013804884 2150:0.20517553 2151:0.13549258 2152:0.17650786 2153:0.028878869 2154:-0.11685396 2155:-0.015173576 2156:0.14684851 2157:-0.005762096 2159:1.032415e-013 2160:-0.15737887 2161:-0.087818258 2162:0.027668238 2163:0.0016755108 2164:-0.080469921 2165:0.080658831 2166:-0.12933005 2167:-0.022398248 2168:0.093665041 2169:0.041233197 2170:0.10113902 2171:-0.082598366 2172:-0.074409343 2173:-0.0094077699 2174:0.1064906 2175:-0.058048002 2176:-0.12964588 2177:8.8892859e-017 2178:0.13636152 2179:-0.11526984 2180:0.031299956 2181:-0.058355525 2183:0.061988138 2184:0.029707642 2185:-0.14959961 2186:0.16155705 2187:0.020875398 2188:-0.10128765 2189:0.040807322 2190:0.023218006 2191:-0.053680107 2192:0.011147057 2193:0.070548624 2194:0.031350989 2195:-0.28485709 2196:-0.084402613 2197:0.10939729 2198:0.085898586 2199:0.093369603 2200:1.6379107e-015 2201:0.078202382 2203:-0.011201541 2204:0.14238597 2205:0.091446258 2207:-0.11221977 2208:-0.057898175 2209:0.091361955 2210:-1.0169248e-013 2211:-0.023038207 2212:0.084710144 2213:0.012433552 2214:0.1429942 2215:-0.056500584 2216:0.0097146891 2217:-0.03436273 2218:-0.03296376 2219:-0.16630383 2220:0.16261034 2221:-0.049490158 2222:0.054216448 2223:0.094007052 2224:0.027833613 2225:0.049135558 2226:-0.055672519 2227:-0.094007045 2228:-0.091632493 2229:-0.10756265 2230:-0.13700531 2231:-0.083370052 2232:0.01650859 2233:-0.10177534 2234:0.092347562 2235:0.013068506 2236:0.18801409 2237:-0.093502179 2238:0.049434979 2239:-0.017727422 2240:0.031163737 2241:2.0338496e-013 2242:0.019279923 2243:1.032415e-013 2244:0.15188743 2245:-0.090093076 2246:0.14006087 2247:-0.094919696 2248:0.02729756 2249:-0.091545977 2250:0.17959048 2251:-0.073555045 2252:0.048371747 2253:0.12382592 2254:-0.08409787 2256:0.039254766 2257:-0.094007045 2258:0.072528638 2259:2.0338496e-013 2260:0.016593292 2261:-0.22846705 2262:0.074931599 2263:0.012490466 2264:0.0048366887 2265:-0.05386338 2266:-0.077268615 2267:0.012146779 2268:0.097672917 2269:0.0021080219 2270:0.016808152 2271:0.11104645 2272:0.0040199556 2273:0.05571695 2274:0.020987265 2276:-0.080743298 2277:0.005599082 2278:-0.0097209159 2279:-0.064789049 2280:-0.02128667 2281:-0.078143038 2282:-0.094007052 2283:-0.030845059 2284:-0.089110196 2285:-0.037032086 2286:0.040730566 2287:0.11097765 2288:-0.0013571652 2289:0.057671703 2290:0.11918877 2291:0.062522516 2292:-0.091886453 2293:-0.012453875 2294:0.1861116 2295:-0.02493611 2296:0.14158581 2297:0.094007052 2298:0.043355573 2299:0.069150157 2300:0.015228027 2301:1.0014347e-013 2302:0.1861116 2303:0.043355573 2304:0.14158581 2305:-0.02493611 2306:0.069150157 2307:0.015228027 2308:1.0014347e-013 2309:0.094007052 2310:-0.35850433 2311:-0.34978566 2312:0.0031638814 2313:-0.01062106 2314:-0.38545737 2315:-0.28295293 2316:-0.20267403 2317:0.077976115 2318:-0.014649946 2319:-0.027372813 2320:-0.16975704 2321:0.022329893 2322:0.18801409 2323:0.32579941 2324:-0.32928663 2326:0.098051429 2327:-0.10860283 2328:0.036854178 2329:-0.5303055 2330:-0.081197754 2331:-0.049679775 2332:-0.40453979 2333:-0.13891639 2334:0.022358853 2335:-0.088732973 2336:0.087235853 2337:-0.048619233 2338:-0.053385843 2339:-0.17555198 2340:0.00063096202 2341:0.18572797 2342:0.058276724 2343:0.030563027 2344:0.10184353 2345:-0.08816874 2346:-0.044146508 2347:-0.078124754 2348:-0.026372449 2349:-0.11836959 2350:-0.11254229 2351:0.063110724 2352:-0.11661387 2353:0.02338171 2354:-0.020232121 2355:-0.040234972 2356:0.15478411 2357:0.080610462 2358:0.11739542 2359:0.15992294 2360:-0.077503145 2361:-0.017710701 2362:0.22688913 2363:-0.0061810096 2364:0.03238003 2365:-0.0016428507 2366:2.0338496e-013 2367:-0.051412441 2368:0.03338436 2369:-0.085182302 2370:0.046676371 2371:-0.084176436 2372:0.2038943 2373:0.13713929 2374:-0.076023407 2375:0.077502333 2376:0.17293547 2377:0.0039139693 2378:0.036159761 2379:0.10948889 2381:-0.087687291 2382:0.07183741 2383:0.052540313 2384:0.099358186 2385:0.16330822 2386:-0.029762121 2387:0.0099012442 2388:-0.017987696 2389:-0.07753516 2390:-0.03009541 2391:-0.01482401 2392:-0.046915352 2394:-0.18228187 2395:0.06893789 2396:-0.12442964 2397:-0.36806503 2398:0.11265603 2399:0.058795985 2400:-0.059932008 2401:-0.055408966 2402:0.19221388 2403:-0.020852868 2404:0.059805326 2405:1.0169248e-013 2406:0.11800972 2407:-0.0034779813 2408:0.026423812 2409:-0.041753042 2410:0.02461954 2411:0.037160065 2413:0.0018933074 2414:0.029296426 2415:-0.015824866 2416:-0.11378276 2417:-0.013980739 2418:0.0027198449 2419:0.029262882 2421:0.18842824 2422:0.088074796 2423:0.28202114 2424:0.02707082 2425:0.094804473 2427:0.051601935 2428:0.096820362 2429:0.03341946 2431:0.025512109 2432:-0.12820883 2433:0.013032991 2434:0.066939063 2435:0.033067036 2436:0.17534718 2437:0.015583262 2438:0.019076953 2439:-0.075838007 2441:0.094007052 2442:-0.16807389 2443:0.031994645 2444:0.082190007 2445:0.18801409 2446:0.10290533 2447:-0.0018901313 2448:0.013152298 2449:0.088883482 2451:-0.049194302 2452:0.02588989 2453:-0.070906371 2454:0.026515529 2455:-0.094007045 2456:0.02289629 2457:-0.0068636546 2459:0.049487084 2460:-0.076735176 2461:0.03039979 2462:0.06314031 2465:0.085320361 2466:-0.077020302 2467:0.094007045 2468:-0.003767577 2469:-0.094007045 2470:0.1842088 2471:-0.12312935 2472:-0.044078376 2473:0.087769076 2474:-0.022554951 2475:-0.35850433 2476:-0.20267403 2477:-0.28295293 2478:-0.40453979 2479:-0.32928663 2480:-0.5303055 2481:-0.08816874 2482:0.098051429 2483:0.022329893 2484:-0.38545737 2485:-0.014649946 2486:0.0099012442 2487:0.11739542 2488:0.18572797 2489:-0.17555198 2490:0.087235853 2491:0.17293547 2492:-0.16975704 2493:-0.046915352 2494:0.077976115 2495:0.32579941 2496:-0.013980739 2497:0.022358853 2498:0.030563027 2499:0.0018933074 2500:-0.34978566 2501:-0.044146508 2502:-0.01062106 2503:-0.0061810096 2504:-0.088732973 2505:0.063110724 2506:0.036159761 2507:-0.048619233 2508:0.15478411 2509:-0.077503145 2510:0.03238003 2511:-0.027372813 2512:0.15992294 2513:-0.03009541 2514:0.2038943 2515:0.02338171 2516:0.029262882 2517:-0.084176436 2518:0.03341946 2519:-0.017987696 2520:-0.020232121 2521:0.013032991 2522:0.025512109 2523:0.10948889 2524:-0.017710701 2525:0.22688913 2526:0.058276724 2527:0.094804473 2528:0.00063096202 2529:0.046676371 2530:0.0027198449 2531:0.10184353 2532:0.036854178 2533:-0.059932008 2534:-0.085182302 2535:0.015583262 2536:0.077502333 2537:-0.0018901313 2538:-0.12820883 2539:0.13713929 2540:-0.12442964 2541:0.026423812 2542:-0.16807389 2543:-0.029762121 2544:0.02461954 2545:-0.026372449 2546:-0.049679775 2547:-0.076023407 2548:0.0039139693 2549:0.11800972 2550:0.088074796 2551:-0.0016428507 2552:-0.070906371 2553:0.11265603 2554:-0.36806503 2555:0.051601935 2556:0.088883482 2557:-0.020852868 2558:0.033067036 2559:-0.18228187 2560:0.07183741 2561:0.19221388 2562:0.096820362 2563:0.058795985 2564:0.019076953 2565:-0.01482401 2566:0.02707082 2567:-0.081197754 2569:0.052540313 2570:-0.051412441 2572:-0.11254229 2573:-0.0068636546 2574:1.0169248e-013 2575:-0.040234972 2576:0.18801409 2577:0.1842088 2578:0.037160065 2579:0.080610462 2580:-0.003767577 2581:0.03338436 2582:0.10290533 2583:0.094007052 2584:0.099358186 2586:-0.094007045 2587:-0.11378276 2588:-0.11836959 2589:-0.055408966 2590:0.02588989 2591:0.049487084 2592:0.082190007 2593:0.087769076 2594:0.0031638814 2596:-0.13891639 2597:-0.11661387 2598:0.029296426 2599:0.06314031 2600:-0.041753042 2603:0.085320361 2604:-0.10860283 2605:-0.076735176 2606:-0.30697834 2607:-0.35738465 2608:-0.31941286 2609:-0.050746087 2610:0.15544322 2611:-0.19186217 2612:0.049047511 2613:-0.009884133 2614:-0.17094173 2615:-0.039917786 2616:-0.018596411 2617:-0.095150992 2618:0.079989336 2619:-0.07666298 2620:0.16120629 2621:-0.11129496 2622:0.24904212 2623:-0.016955685 2624:0.19232227 2625:-0.01062106 2626:-0.017563669 2627:-0.018522874 2628:-0.030561436 2629:-0.19638056 2630:0.17884782 2631:-0.0010926881 2632:0.047962543 2633:-0.049060032 2634:-0.0084933639 2635:0.028224325 2636:0.051988948 2637:-0.0022499622 2638:0.024901373 2639:0.13449524 2640:0.080534942 2641:0.039385475 2642:0.015583262 2643:0.02783154 2644:-0.20058429 2645:-0.012783362 2646:0.14280611 2647:-0.074728303 2648:0.035953701 2649:-0.047724046 2650:-0.12078301 2651:-0.018105768 2652:0.24076548 2653:-0.034365665 2654:-0.089904748 2655:0.036473155 2656:-0.15393905 2657:0.012403188 2658:0.043132246 2659:0.0018684214 2660:0.013837432 2661:-0.055987962 2662:2.0347386e-013 2663:-0.068592019 2664:0.0032460389 2665:-0.070055716 2666:-0.087715521 2667:0.18801409 2668:-0.1880141 2669:0.011547727 2670:-0.010377054 2672:-0.058549028 2673:0.11845585 2674:0.099118084 2675:1.0160359e-013 2676:-0.085291639 2678:0.33127439 2679:0.014612174 2680:-0.052496523 2681:-0.00071411929 2682:-0.11086884 2683:0.12123745 2684:0.094007045 2685:-0.066437297 2686:0.02461954 2687:-0.16671053 2689:0.012062852 2691:0.032116465 2692:0.085320361 2693:-0.045748025 2694:0.11474285 2695:-0.0077963029 2696:0.053927392 2697:0.0085507827 2698:0.022434214 2700:0.034213893 2701:0.083957665 2703:0.033954058 2704:0.094007045 2705:0.061311401 2707:0.1880141 2708:-0.045097299 2709:0.0029704974 2710:-0.09315902 2711:0.032634296 2712:-0.17590882 2713:-0.041818354 2714:0.05575715 2715:0.094007045 2716:-0.065458953 2718:0.027138999 2719:0.049434979 2721:0.02905239 2722:-1.0169248e-013 2723:0.20127305 2724:0.65849447 2725:0.4942219 2726:0.49641651 2727:-0.02360495 2728:0.34026781 2729:0.06176227 2730:0.62770158 2731:0.23326652 2732:0.26975715 2733:0.24462217 2734:0.041767653 2735:0.37893972 2736:0.14003591 2737:0.094007045 2738:0.20127305 2739:0.4942219 2740:-0.02360495 2741:0.49641651 2742:0.23326652 2743:0.34026781 2744:0.62770158 2745:0.06176227 2746:0.65849447 2747:0.14003591 2748:0.041767653 2749:0.24462217 2750:0.034948688 2751:0.2151933 2752:0.3094317 2753:0.1913262 2754:0.27876595 2755:0.010312634 2756:0.16124177 2757:0.14854445 2758:0.22541334 2759:-0.080019057 2760:-0.17050953 2761:-0.12927525 2762:0.14281753 2763:0.19939692 2764:-0.23188436 2765:0.0099971769 2766:-0.09189903 2767:-0.059857592 2768:0.07686092 2769:0.11523744 2770:-0.052148938 2771:-0.33294266 2772:0.15032795 2773:0.094007052 2774:0.29200524 2775:-0.26864189 2776:0.11930894 2777:0.36704519 2778:0.29200524 2779:0.36704519 2780:0.11930894 2781:-0.26864189 2782:0.038617559 2783:0.077147029 2784:-0.41706291 2785:0.4942219 3619:0.24652258 3620:1.1604462 3621:0.36203384 3622:2.4811466 3623:0.38680401 3624:0.56380719 3627:0.51056206 3628:0.39651185 3629:0.15947589 3630:-0.0088312495 3631:0.27181491 3632:0.23854887 3633:0.42463887 3634:0.36207205 3635:-0.62727749 3636:-0.45795667 3637:0.44500884 3638:-0.55166185 3639:-0.064575911 3640:-0.42189333 3641:-0.010003868 3642:-0.092198849 3643:-0.042278823 3644:0.023926526 3645:0.0044532944 3646:0.046757426 3647:-0.35429156 3648:0.31395808 3649:-0.39025131 3650:-0.11215355 3651:-0.13630609 3652:0.052911993 3653:0.04794348 3654:0.2334632 3655:-2.0338496e-013 3656:0.077637278 3657:-0.043450948 3658:0.20449609 3659:0.043538131 3660:-0.3805677 3661:-0.39397791 3662:0.06146903 3663:0.20513637 3664:0.068169303 3665:-0.48166856 3666:0.66370422 3667:0.29792753 3668:-0.31042513 3669:0.1174293 3670:-0.36630151 3671:0.044754144 3672:0.19759513 3673:0.22675416 3674:0.018789839 3675:0.26636696 3676:-0.063021608 3677:-0.72598809 3678:-0.074046396 3679:0.2295303 3680:0.0422909 3681:-0.074718602 3682:-0.06440036 3683:-0.073079668 3684:0.07917808 3685:-0.090802222 3686:-0.083741479 3687:0.013624644 3688:0.13411027 3689:-0.086584359 3690:0.014881582 3691:-0.061824106 3692:-0.02493611 3693:0.24496491 3694:-0.11536156 3695:1.0014347e-013 3696:0.060635988 3697:0.094007052 3698:0.077637278 3699:0.05478077 3700:0.082355961 3701:0.079618201 3702:-0.2688309 3703:-0.021693176 3704:0.10800309 3705:0.096675821 3706:-0.34538788 3707:-0.0044458481 3708:0.078076176 3709:-0.080775462 3710:-0.25937837 3711:-0.17726487 3712:-0.026786098 3713:0.15382804 3714:0.1402797 3715:-0.29626304 3716:0.21787004 3717:-0.1771782 3718:-0.2389731 3719:-0.37838212 3720:0.14546941 3721:0.12547806 3722:0.094007045 3723:0.12999767 3724:0.0040040924 3725:-0.043150853 3726:0.095743738 3727:-0.12425338 3728:-0.17388357 3729:0.04065625 3730:0.12034927 3731:0.34431392 3732:-0.089815982 3733:0.14560254 3734:0.053278428 3735:-0.2376536 3736:-0.072877914 3737:-0.049977548 3738:0.10912477 3739:0.1350795 3740:0.028454509 3741:0.60363555 3742:-0.10146371 3743:0.023181506 3744:-0.14708616 3745:-0.16557637 3746:-0.07293015 3747:0.38112819 3748:0.11803782 3749:0.010232922 3750:-0.015210513 3751:0.0094016539 3752:-0.044354212 3753:-0.16106652 3754:-2.0338496e-013 3756:0.012414292 3757:0.013849821 3758:0.0034864144 3759:-0.013129725 3761:0.093002245 3762:0.036001947 3763:-1.0169248e-013 3764:0.15779158 3765:0.0057321368 3766:-0.010424307 3767:0.084151357 3768:2.0338496e-013 3769:-1.0169248e-013 3770:1.0169248e-013 3771:-0.18801409 3772:0.079609238 3773:0.028822472 3774:0.043763112 3775:0.12030831 3776:-0.087624595 3777:0.066558458 3778:-0.07830324 3779:-0.021307837 3780:-0.078974433 3781:0.049442504 3782:-0.18485276 3783:0.023023412 3784:-0.068694741 3785:0.094007045 3786:0.10060794 3787:-0.0023412129 3788:0.14126228 3789:0.094007045 3790:-1.0169248e-013 3791:-0.013642872 3792:0.027583582 3793:0.015341305 3794:-0.082476236 3795:-0.041676238 3796:-0.13286623 3797:1.0169248e-013 3798:0.079609238 3799:0.15847476 3800:-0.0045881122 3802:-0.27611396 3803:0.0053825411 3804:0.023988348 3805:0.083427958 3806:-0.015271045 3807:-0.12141597 3808:-0.0036215407 3809:-0.056634855 3810:0.094007045 3811:1.5490179e-015 3812:-1.0169248e-013 3813:0.10903966 3815:0.1073688 3817:0.033104498 3818:0.1539782 3819:-0.013708995 3820:-0.08158958 3822:0.11449976 3823:1.4098531e-014 3824:0.094007045 3826:-0.21791503 3827:0.011716886 3828:0.09007214 3829:-0.064032502 3831:-0.014400262 3832:0.093813188 3833:0.0016175951 3834:0.11958638 3835:0.070448518 3836:0.13314079 3837:-0.011499131 3838:0.12672465 3839:-0.018823272 3840:0.070662186 3842:0.08739946 3843:1.0169248e-013 3844:-0.10301302 3845:-0.070757836 3846:0.094007045 3847:1.0169248e-013 3848:-0.013397426 3849:0.018337861 3850:-0.2633554 3851:-0.15474826 3852:0.010036235 3853:0.027564252 3854:0.099857435 3855:-0.14894165 3856:0.0076901796 3857:0.016637547 3858:-0.03875307 3859:0.1290928 3860:-1.032415e-013 3861:-0.018823272 3862:-0.053431891 3863:0.054854441 3864:0.053300902 3865:0.057622451 3867:-0.09327814 3868:-0.016678406 3869:-0.022277391 3870:-0.06287279 3871:0.020130871 3872:0.064376563 3873:1.0169248e-013 3874:0.026643081 3876:0.0072837966 3877:0.0073589231 3878:0.080722362 3879:-0.03706811 3880:0.030440658 3881:-0.0079800105 3882:0.0088543445 3883:-0.058760744 3884:0.048948247 3885:0.042796992 3886:0.03942949 3888:-0.062240612 3889:1.0169248e-013 3890:-0.097567692 3892:0.02024198 3893:0.028059945 3894:-0.05823528 3895:0.036541943 3896:1.0169248e-013 3897:-0.048035167 3898:-1.5490179e-015 3899:0.18801409 3900:1.0169248e-013 3901:-0.18051785 3902:-0.10454328 3903:-0.042762071 3904:-0.31481284 3905:0.0019381387 3906:-0.082060039 3907:0.0027499616 3908:0.0022612098 3909:0.029762749 3910:0.16856988 3911:0.05543166 3913:0.21537758 3914:0.0082567977 3915:-0.0037600331 3916:-0.059576176 3917:0.0055183051 3918:0.094007045 3921:0.10122523 3922:-0.018694671 3923:0.056027368 3924:-0.11300108 3925:-0.094007045 3926:-0.0029738676 3927:-1.0169248e-013 3928:-0.1248311 3929:-0.094007045 3930:0.040354919 3932:0.01338023 3933:0.062732629 3935:-0.094007045 3936:-0.038175892 3937:-0.013129725 3938:0.0063566375 3939:0.15421335 3940:-0.089652769 3941:0.039201278 3942:0.0054721534 3943:-0.092957757 3944:0.21819574 3945:-0.093936265 3946:0.14470467 3947:0.029212868 3948:0.094772674 3949:-0.16762961 3950:0.0016448768 3951:0.072633065 3952:-0.025504593 3953:0.081858389 3954:0.076848961 3955:-0.024105504 3956:0.0082882559 3957:0.15357672 3958:1.0169248e-013 3959:-0.13402012 3960:0.092958182 3961:0.052600078 3962:0.031124631 3963:-0.022277391 3964:-0.041739121 3965:0.094007052 3966:0.001581842 3967:0.094007045 3969:-0.00059903652 3971:0.016842633 3972:1.0169248e-013 3973:-0.053729694 3974:0.033998042 3975:-0.07793507 3976:0.094007045 3978:-0.084296167 3979:0.2058862 3980:-0.29865578 3981:-1.0178138e-013 3982:-0.035463993 3983:0.062283952 3984:0.025513398 3985:0.012071985 3987:0.055736516 3989:0.073756784 3990:-0.07890024 3991:1.0169248e-013 3992:-0.0068636546 3993:-0.0054531889 3994:0.030421505 3997:-0.074865475 3998:0.26484525 3999:0.0051853843 4000:0.18961734 4002:-0.0070830532 4003:-0.015745098 4004:-0.0030486684 4005:-0.024221143 4006:-0.158571 4007:0.45361382 4008:0.014630103 4010:0.072768331 4011:0.18747036 4012:-0.076499224 4013:-0.0016871388 4014:-0.099370532 4016:-0.11716677 4017:-0.064402312 4019:0.034726478 4021:0.010508841 4022:0.13231857 4023:0.13920367 4024:-0.089532763 4025:0.0089801354 4026:1.0169248e-013 4027:-0.082364872 4028:-0.043981425 4030:0.04948213 4031:0.076270945 4032:0.19649231 4033:-0.058760744 4034:-0.094007045 4035:1.0169248e-013 4036:0.094007045 4037:0.11371031 4038:-0.043763362 4039:-0.0041182856 4040:0.19610664 4041:-0.027102413 4042:0.094007045 4044:-0.16775565 4045:0.12318384 4046:-0.068986304 4047:0.012207961 4048:0.094007045 4049:0.20202577 4050:0.094007045 4051:0.081490338 4052:0.046609741 4053:0.10052282 4054:-0.027391549 4055:-0.10021599 4056:0.086897492 4057:1.0169248e-013 4058:0.42842522 4059:0.058873929 4060:0.017097337 4061:0.072221711 4062:-0.098644868 4063:0.05769287 4064:0.10415082 4065:0.0048855119 4066:-1.0169248e-013 4067:0.27363235 4068:-0.094007045 4069:0.034586444 4070:0.094007045 4071:-0.10128992 4072:-0.016561773 4073:0.073319979 4074:-1.0178138e-013 4075:0.05940228 4076:0.028236534 4077:-0.1041881 4079:-0.042049315 4080:0.056589942 4082:0.021062553 4083:-0.0069050463 4085:-0.019212477 4086:0.072631285 4088:-0.053461313 4090:0.064798698 4091:0.033134911 4092:0.12335005 4093:0.029762678 4094:0.040545736 4095:-0.022641176 4096:-0.097619213 4098:-0.11004195 4099:0.0623261 4100:-0.012121499 4101:0.13554797 4102:-2.0338496e-013 4104:0.0005898003 4106:-0.12013647 4107:0.0055646691 4108:0.095638156 4109:0.058840029 4110:0.047243558 4111:-0.057894055 4112:0.13465412 4113:0.094007045 4114:0.011874762 4117:0.36382601 4118:0.09844178 4119:0.063482225 4120:1.0169248e-013 4121:0.23318043 4122:0.053878341 4123:-0.028873622 4124:-0.01079623 4125:0.032551408 4127:-0.0068336078 4128:0.078200839 4129:0.017481966 4130:0.094007045 4131:0.058009606 4132:0.020507261 4133:1.0178138e-013 4134:-0.094007045 4136:-0.060664546 4137:-0.06294664 4138:-0.0230335 4139:0.11683198 4140:0.029736223 4142:0.0033566649 4144:-0.08005771 4145:-0.1728493 4146:0.010694635 4147:0.00065937336 4148:-0.15163529 4149:-1.0169248e-013 4150:0.001404664 4151:0.062283952 4152:0.033104498 4153:0.00095102075 4154:-0.04801771 4155:-2.0347386e-013 4156:0.020085389 4157:0.20808552 4158:0.015630011 4159:0.041616619 4160:-0.11919485 4161:-0.11298425 4162:0.012120815 4163:-0.018811654 4164:-0.26648313 4165:-0.01936583 4166:-0.15005165 4167:-0.032752406 4168:0.040895451 4169:-0.059871767 4170:0.026403256 4171:0.052840102 4172:0.034586444 4173:0.094007045 4174:0.059378058 4175:0.20894225 4176:0.0051196469 4177:0.020501737 4178:0.080820888 4179:0.0039300765 4180:0.092816718 4181:-0.086300649 4182:-0.16589631 4183:-0.12197118 4184:-0.023333762 4185:0.069683097 4186:-0.025838412 4188:0.020507261 4189:-0.061883204 4190:0.038313229 4191:-0.095758125 4192:0.013864265 4196:-0.084675372 4197:0.078536592 4198:0.0088796299 4199:0.07631959 4202:1.0160359e-013 4203:-0.18467565 4204:-1.0169248e-013 4205:0.11169264 4206:1.0169248e-013 4207:0.12014254 4210:0.094007045 4211:1.6379107e-015 4212:-0.030223656 4213:-0.015530568 4214:-1.0169248e-013 4216:-0.0068636546 4217:-0.094007045 4218:0.037041422 4220:0.013546039 4221:0.023298718 4223:0.089856535 4224:1.0169248e-013 4226:0.091092058 4227:0.094007045 4228:0.091879107 4229:-0.058760744 4230:0.01930609 4231:0.099733181 4232:0.15714322 4233:0.12706153 4234:0.2032067 4235:-0.032199033 4236:-0.14723778 4237:-0.028917437 4238:-0.07952138 4239:0.14841235 4240:0.0033566649 4242:-0.04996099 4243:0.28202114 4244:0.079349816 4245:-0.028030872 4246:0.027583582 4247:0.14929824 4248:-0.014801073 4249:-0.045916621 4250:0.056925628 4251:0.094007045 4252:0.017078936 4253:0.018337861 4254:0.012278495 4255:0.097639792 4256:0.16340327 4257:0.091101453 4259:0.000655615 4260:0.39000785 4261:0.35435519 4262:0.048987154 4263:-0.2216678 4264:0.074962921 4265:-0.0070897443 4267:0.005065144 4269:-0.01740185 4270:0.032276873 4271:0.14805791 4272:0.31885734 4273:0.084827162 4276:-0.25642189 4277:-0.11119281 4278:0.0085390154 4279:0.094007045 4280:0.027429117 4282:0.086248651 4283:-0.064368904 4284:0.30391511 4285:1.0169248e-013 4286:0.021734608 4287:-0.068915673 4288:-0.057589419 4289:0.17495218 4291:-0.0090373177 4292:0.1536359 4294:0.0033566649 4296:0.011783679 4297:0.012839797 4298:0.0021080219 4299:-0.094007045 4300:0.058877744 4301:0.08377704 4302:1.0169248e-013 4303:-0.0071812193 4304:2.0338496e-013 4305:0.16875355 4306:0.0020257637 4307:1.0169248e-013 4308:0.098013036 4309:0.13216542 4310:0.0083214091 4311:0.033428956 4313:0.039224278 4315:0.088457234 4316:-0.094007052 4317:-0.1079225 4318:-0.03530883 4319:0.1697821 4320:0.094007045 4321:-0.049631059 4322:0.015957624 4324:0.0095689995 4325:0.0083214091 4328:0.089001037 4329:0.070296995 4330:0.16541493 4331:-0.094007045 4332:0.035052344 4333:0.079793587 4334:-0.093083456 4335:0.0083616553 4337:0.09807311 4338:0.090393759 4339:0.078043364 4341:0.034653638 4342:0.034771401 4343:0.0018676762 4344:-0.033957496 4346:0.069312133 4347:0.034339048 4348:-0.016561773 4349:0.080722362 4350:-0.085970871 4352:0.14007109 4353:0.052104522 4354:0.047675975 4355:6.5548433e-005 4356:0.10628264 4357:0.19879901 4358:0.040175255 4359:0.28689426 4361:-0.020378413 4363:0.20234622 4364:0.0006143839 4365:0.036204372 4366:0.094007045 4369:-0.0550454 4370:1.6379107e-015 4372:0.023298718 4373:-0.1880141 4374:0.085205339 4375:0.094007045 4376:0.095484659 4377:0.10516398 4378:-0.0022852276 4379:0.001404193 4380:0.068963796 4381:0.03286726 4382:0.036511313 4383:0.026636187 4384:0.094007045 4386:0.045578178 4387:0.029989328 4388:0.036586799 4389:-0.044121649 4391:-0.048575334 4392:-0.094007045 4394:0.074858837 4395:-0.053702965 4396:0.097107299 4397:-0.0080034593 4398:0.0069198031 4400:0.088457234 4401:0.068963796 4402:0.15591864 4403:-0.015675602 4404:0.077637278 4405:-0.0036731092 4406:-0.11955152 4407:0.0097949971 4408:-0.05022366 4409:0.17097528 4410:0.0030405135 4411:0.032374829 4412:0.075694077 4413:-0.088261873 4414:-0.057390347 4416:0.092835516 4417:0.078536592 4418:0.04948213 4419:1.0169248e-013 4420:-0.020616839 4421:0.18801409 4422:0.18801409 4423:0.042840458 4424:-0.049412005 4425:0.14152633 4426:0.13163415 4427:1.0169248e-013 4429:0.094007045 4430:-0.069565505 4431:-0.11789065 4432:1.0178138e-013 4433:0.28244537 4435:1.0169248e-013 4436:0.11807308 4438:0.15005399 4439:0.24328373 4440:0.073909052 4441:0.0065020048 4442:0.072500676 4443:0.0018804325 4444:0.094007045 4445:1.032415e-013 4446:-0.010043759 4447:0.07369075 4449:0.030453444 4450:0.08997535 4452:8.8892859e-017 4453:-0.13906667 4454:1.5490179e-015 4455:0.033251785 4456:0.020226847 4458:0.014285172 4459:0.080839977 4460:0.039277762 4461:0.039176073 4462:-0.16200414 4463:-0.0097091347 4465:-0.13920294 4466:0.026964616 4467:-0.026085768 4468:-0.15530813 4469:-0.094007045 4473:0.068963796 4474:-0.011448788 4475:-0.025549084 4476:0.18017915 4477:-0.20983112 4478:0.0073589231 4479:0.0085045164 4480:0.03181123 4481:0.0033581175 4482:0.038620405 4483:0.019158462 4484:0.03181123 4485:0.0071815681 4486:0.039904643 4487:0.084209524 4488:0.027291819 4490:-0.10406623 4491:0.17977306 4492:0.12724322 4494:-0.094007045 4495:0.027880179 4496:0.092179947 4497:-0.028803702 4499:0.056971379 4502:-0.0597394 4503:-0.11261644 4504:-0.0076750834 4506:0.16184734 4507:0.032550976 4508:0.14892787 4509:0.1884395 4510:0.0045269504 4511:0.038421735 4512:0.090764359 4513:0.0083214091 4514:0.016909404 4515:-0.055197082 4516:0.016970601 4517:-0.07521072 4518:-0.061936621 4520:-0.098781362 4521:0.051581211 4522:-0.0084778881 4524:0.042390145 4525:-0.14719495 4526:-0.016605243 4527:0.35936266 4528:0.094007045 4529:-0.14468949 4530:-0.0096921222 4531:0.11793261 4533:0.095638156 4534:-0.087422356 4535:0.032739177 4536:-0.065037735 4537:-1.0169248e-013 4538:-0.029476408 4539:-0.018264432 4540:-0.017518062 4541:-0.10139482 4542:-0.25177422 4543:-0.13559167 4544:0.093779989 4545:0.015031098 4546:-0.1918633 4547:8.8892859e-017 4548:0.035522781 4549:0.11836904 4551:0.069921166 4552:-0.1589366 4553:0.04639177 4554:0.07194604 4555:0.044686656 4556:1.0169248e-013 4557:0.094007045 4558:-0.17027447 4559:0.0006143839 4560:0.097249739 4561:0.034653638 4562:-0.021224318 4563:1.5490179e-015 4565:0.23727024 4566:0.18801409 4567:0.026704591 4568:0.0075518973 4569:1.0169248e-013 4572:0.083081067 4574:0.025024761 4575:0.090540521 4576:0.072073564 4577:-0.13704181 4578:0.058873929 4579:0.034796316 4580:-0.040706147 4581:-0.035463993 4582:-0.0083790822 4583:0.075940102 4584:0.045308109 4585:0.038776875 4586:0.0033275965 4590:0.18902372 4592:0.093488969 4593:0.014804355 4594:0.022625284 4595:-0.049267363 4596:0.029676352 4597:0.29254228 4598:0.053988133 4600:-0.10974924 4601:-0.039146081 4602:1.0169248e-013 4603:0.070183404 4604:-0.2321621 4605:-0.15930961 4606:0.0048313225 4608:0.18801409 4609:0.01945384 4610:0.012995619 4611:0.0033689975 4612:0.020130871 4613:0.0069577903 4614:-0.029229881 4615:0.094007045 4616:0.030278763 4617:1.0178138e-013 4618:0.041703753 4619:0.030887591 4620:-0.020562904 4621:-0.015757149 4622:-0.20340288 4623:0.039216984 4625:1.6379107e-015 4626:0.094007052 4627:0.0040229484 4628:0.10952283 4629:0.023369605 4630:1.6379107e-015 4631:0.050952669 4632:0.10779933 4633:0.23694725 4635:-0.11169277 4636:0.037041422 4637:0.081794038 4638:0.14309537 4639:0.083868273 4640:-0.10180061 4641:-0.0087892767 4643:0.026406461 4644:-0.094007045 4646:0.035587229 4647:-0.051364604 4648:-0.15166648 4649:0.067983188 4651:0.085390173 4652:1.0169248e-013 4655:-0.094550237 4656:-0.14000267 4657:0.067030884 4658:0.08482413 4659:1.7268035e-015 4660:0.12276991 4661:0.094007045 4662:-0.038713925 4663:0.061255459 4664:-0.087679781 4665:-0.094007045 4666:0.022285115 4667:0.094007045 4668:0.023111966 4669:-0.0068410253 4670:-0.15401447 4671:0.014804355 4672:0.002994173 4673:-0.19054401 4674:-0.0068410253 4675:0.0068070195 4676:0.089863189 4677:0.0085390154 4678:-1.0169248e-013 4679:0.029092146 4680:-0.094007045 4681:0.007765552 4682:0.0048168502 4683:0.023909304 4684:0.012414292 4685:-0.23909861 4686:0.064737253 4687:0.16777013 4688:0.05517406 4689:0.099906109 4690:-0.094007045 4691:0.057846945 4692:0.17252977 4693:-0.15507928 4694:0.08201015 4695:0.053348158 4696:8.8892859e-017 4697:0.19235127 4698:-0.14705074 4699:-0.027701607 4700:2.0347386e-013 4702:0.094007045 4703:-0.0085677495 4704:-0.021820357 4705:0.020459443 4706:-0.054758228 4707:0.071951382 4708:0.072181292 4709:-0.015530568 4710:-0.10971539 4711:0.042600829 4712:-0.0098799048 4714:-0.15654036 4715:0.10944463 4716:0.063917674 4717:-0.072107337 4718:0.14614788 4720:-0.014571898 4723:0.06729304 4724:-0.15614517 4725:0.0066606738 4726:0.044366073 4727:-0.07058233 4729:-1.0169248e-013 4730:0.1472245 4731:0.094007045 4732:0.0079278694 4733:0.039225135 4734:0.084883921 4735:0.076785393 4736:0.012887609 4737:0.10038734 4739:0.094007045 4740:-0.18397583 4741:1.0169248e-013 4742:0.14164929 4743:0.078536592 4744:0.0022955127 4745:-0.034339149 4746:-0.088730775 4749:-0.10222649 4750:-0.0040317005 4751:0.043468073 4752:0.036573697 4753:-0.094007045 4754:-0.044663858 4755:0.046064042 4756:0.092250712 4757:0.074962921 4758:0.028784096 4759:0.036204372 4760:-0.09994749 4763:-0.016310381 4764:0.065790758 4765:0.0006143839 4766:0.094007045 4767:-0.026150776 4768:0.08482413 4769:2.0338496e-013 4770:0.023183947 4771:-0.051471125 4772:-0.0529024 4773:1.5490179e-015 4774:-0.010138779 4775:-0.046096742 4777:-0.026800165 4778:-0.0094042327 4779:-0.051972352 4780:-0.025839027 4781:0.072963268 4782:1.0169248e-013 4783:-0.23233972 4784:0.12047742 4786:0.18801409 4787:0.056685504 4788:0.09691903 4789:1.0169248e-013 4790:0.12442856 4791:-0.015530568 4792:-0.094007045 4793:0.052289907 4794:0.10255519 4795:-0.014400262 4796:-0.019072702 4797:0.070226006 4798:-0.15046741 4799:0.033998042 4800:0.055635784 4801:-0.017793991 4802:0.095438473 4803:0.074873902 4805:1.5490179e-015 4806:0.094007045 4807:-0.03930857 4808:0.029019237 4809:-0.022972103 4810:0.059578355 4811:-0.036602326 4812:-0.026085768 4813:0.088985547 4814:0.10635882 4815:0.11953809 4817:1.0169248e-013 4818:0.094007045 4819:0.051057797 4820:-0.043086778 4821:0.34571394 4822:0.20542163 4823:0.089267485 4824:-0.065859497 4825:-0.030663343 4826:0.038530339 4827:-1.0169248e-013 4828:-0.19202875 4829:-0.027785076 4830:0.051714089 4832:0.031457007 4833:-0.024372486 4834:0.0048813508 4835:0.045952544 4836:-0.068549767 4837:0.045592759 4838:-0.053492997 4839:0.22311097 4840:0.069592401 4841:1.0169248e-013 4842:0.039133735 4843:1.0178138e-013 4844:0.0071472037 4845:0.0032730855 4846:-0.094007045 4847:0.094007045 4848:-0.094007045 4849:-0.056053955 4850:0.20863882 4852:0.0086441599 4853:-0.021817017 4854:-0.020662244 4855:0.17519884 4856:0.094007045 4857:-0.10890681 4858:-0.094007045 4859:0.052235056 4860:-1.0169248e-013 4861:0.094007045 4862:0.10180114 4863:-0.2139063 4864:-0.03396488 4865:0.09573897 4866:0.0038783168 4868:-0.01664762 4869:-0.11731437 4870:0.060255077 4871:0.094007045 4872:0.094007045 4873:0.18594432 4874:-0.058760744 4875:-0.069924146 4876:0.094007045 4877:0.082091533 4878:0.039456367 4879:-0.22743605 4881:-0.19817474 4882:-0.0048978366 4883:-0.026418313 4884:-0.017176811 4885:0.094007045 4887:-0.094007045 4889:-0.037626043 4891:0.053588875 4892:-0.17086677 4893:0.0023908392 4895:0.021909364 4896:-0.21214224 4897:-1.4187424e-014 4898:0.05879553 4900:-0.17199452 4902:-0.17389433 4903:-0.14155422 4904:0.10341316 4905:0.009390844 4906:-0.074502699 4907:0.077623531 4908:0.022136999 4909:0.030278763 4910:0.027291819 4911:-0.035574701 4912:0.056389276 4913:0.032906372 4915:-0.21521014 4916:1.0169248e-013 4917:0.079112232 4918:0.18869835 4919:0.0032426887 4920:-0.10910062 4921:-0.094007045 4922:-0.054387361 4923:-0.22451624 4924:-0.094007052 4925:-0.02391048 4926:-0.057218924 4927:-0.017518062 4928:0.11922813 4929:1.0169248e-013 4931:-0.15007195 4932:-0.035583034 4933:-0.067479819 4935:0.055928517 4936:0.024140257 4937:-0.015271045 4940:0.071522504 4941:0.12530935 4942:1.0178138e-013 4943:-0.0010795386 4944:0.0085045164 4945:0.21867175 4946:-0.12463295 4947:0.028441325 4948:0.012455667 4949:-0.010927173 4950:-0.094007045 4951:-0.21842088 4953:-0.026443133 4954:-0.035583034 4956:0.123147 4957:-0.14936657 4958:0.015957624 4959:0.00085602055 4961:0.10936589 4963:-1.032415e-013 4964:-0.1263424 4965:-0.03137707 4966:-1.0169248e-013 4968:0.32524604 4969:0.057558857 4973:-0.02569709 4974:-0.085734852 4975:-0.02185078 4976:-0.11651216 4977:-0.036521371 4978:0.099721648 4979:-0.094740376 4981:0.1040264 4982:-0.065785058 4983:0.051520273 4984:0.0082721962 4986:-0.020222254 4988:-0.05555797 4989:0.14616102 4990:0.067699783 4991:-0.14627837 4992:-0.1279541 4994:0.023023412 4995:0.063598283 4996:-0.094007045 4997:0.094007045 4998:0.12174763 5000:-0.011929913 5003:0.015225841 5004:-0.094007052 5005:-0.0097579863 5006:-0.16658673 5007:-1.0169248e-013 5008:0.047407385 5009:-0.06653443 5010:-0.032199033 5011:1.0169248e-013 5012:0.014806281 5013:-0.17643049 5014:-0.094007045 5015:-0.24949315 5016:-0.028999867 5017:0.031054169 5018:-0.043225933 5019:0.36601996 5020:-0.10058917 5021:0.050142698 5022:0.14229777 5023:-0.078143977 5024:0.015685905 5025:0.0044002491 5026:-0.029290821 5027:-0.054601766 5029:0.11846033 5030:0.044242062 5031:-0.015080925 5032:0.0087066088 5033:0.036166381 5034:0.048827253 5035:-0.0036731092 5037:-0.20598203 5038:0.060111646 5039:0.026558844 5041:-0.033437159 5042:-0.013124812 5043:-0.094007045 5046:-0.028999867 5048:0.094007045 5049:-0.054234609 5052:-0.044910297 5053:0.071650572 5054:0.062106069 5055:0.0073053278 5056:0.023249215 5057:0.18784335 5058:-0.0009114173 5059:-0.11651216 5060:-0.1268355 5061:-0.040761881 5062:-0.094007045 5063:-1.6045302e-005 5064:-0.081839696 5066:0.16810717 5067:0.094007045 5068:0.028139735 5069:-0.18801409 5070:-0.071805343 5071:0.09542276 5072:1.0178138e-013 5074:-0.076354228 5075:0.0097940033 5080:8.8892859e-017 5082:0.083130307 5083:-0.1387722 5084:-0.092211217 5085:0.30757314 5086:0.0015889287 5087:-0.068062939 5088:0.015758393 5089:1.0169248e-013 5090:0.10009708 5091:0.0043311077 5092:0.011335936 5095:-0.094007045 5097:-0.094007045 5098:-0.074450776 5099:-0.084236637 5100:1.0169248e-013 5101:-0.094007045 5103:0.094007045 5106:0.11105585 5107:-0.28926539 5108:-0.041937262 5109:0.094007045 5112:-0.094007045 5113:0.020013398 5114:8.8892859e-017 5115:0.02878516 5117:-0.094007045 5118:-0.18019733 5119:0.17039923 5120:-0.094007045 5121:-0.16387384 5122:-0.33010978 5124:0.011280793 5125:1.0169248e-013 5126:0.083529331 5127:0.094007045 5128:-0.019387603 5129:-0.34970266 5131:-0.094007045 5132:0.14762507 5133:0.14257784 5134:1.0169248e-013 5135:0.094007045 5136:-0.061099049 5138:1.5490179e-015 5140:-0.13419907 5141:0.032244448 5142:-0.12660889 5143:-0.011237311 5144:-0.0090420227 5146:0.037888575 5147:0.22042035 5148:0.0082721962 5150:0.10473999 5151:-0.005895141 5152:0.048914593 5153:0.11165093 5154:-0.20621438 5155:0.094007052 5156:-0.11076502 5158:0.044453025 5159:-0.080461703 5160:0.092622347 5161:0.026793713 5162:0.10576577 5164:0.030227436 5165:0.074162669 5166:0.020830594 5167:-0.094007045 5168:-0.094007045 5169:-0.066186652 5170:0.018171592 5171:-0.053671133 5172:-0.029551925 5174:0.1573576 5177:-0.094060972 5178:1.0169248e-013 5179:-0.069790728 5180:-0.095057398 5182:-0.0057162009 5183:0.015685905 5184:0.011955043 5185:0.084072538 5187:1.0169248e-013 5188:0.067219235 5189:0.034436289 5190:0.11583117 5192:0.21755326 5193:-0.094007045 5194:2.0338496e-013 5195:1.0169248e-013 5196:0.094007045 5197:-0.066529728 5198:0.0093414104 5199:-0.0098637436 5201:0.077627279 5202:0.095719121 5203:0.0013372472 5204:0.063568622 5205:-0.12125344 5206:0.08228796 5207:-0.23685852 5209:-0.10813319 5210:0.094007045 5212:1.0169248e-013 5213:0.094007045 5214:-0.13090242 5215:0.097772837 5216:1.0169248e-013 5217:0.094007045 5218:-0.051531304 5220:-0.065221891 5222:-0.083831593 5223:-0.38672885 5224:-0.064886048 5225:-0.021634107 5226:-0.0642443 5227:0.09250088 5228:0.0097635556 5229:0.00013775274 5230:0.0066425609 5232:0.074688435 5234:0.051712237 5237:0.036166381 5239:0.026103646 5240:-0.12022149 5242:0.030415345 5243:-1.0169248e-013 5244:-0.18079475 5246:0.0038117603 5247:1.0169248e-013 5248:0.00039295366 5249:-0.049617328 5250:-0.053896226 5251:0.12961805 5252:-0.12091655 5253:0.16001008 5255:-1.0169248e-013 5257:-0.0076100738 5258:0.051967688 5259:1.0169248e-013 5260:0.030138401 5262:0.083699733 5263:0.063568622 5264:0.072831258 5265:-0.35829693 5267:-0.034349006 5270:-0.089641497 5271:0.094007045 5272:-0.049748495 5273:0.074494302 5274:1.0169248e-013 5275:0.0072073843 5276:-0.12798056 5280:0.094007045 5281:1.0178138e-013 5282:-0.060309153 5283:-0.094132468 5284:0.08652667 5285:-0.09397871 5286:-0.032104239 5287:0.097453445 5288:0.10265488 5289:0.058108971 5292:-0.071008213 5293:-0.0015230604 5294:-0.010585843 5295:0.0073053278 5297:-0.17094614 5298:0.015087691 5299:-0.17117749 5300:-0.023978638 5301:0.094007045 5303:0.014309291 5304:0.034826159 5306:-0.15463814 5307:-0.094007045 5308:0.1464234 5309:-0.060713761 5310:-0.059326027 5312:-0.177174 5314:0.18718807 5315:0.013045481 5316:-0.049140085 5317:8.8892859e-017 5320:8.8892859e-017 5321:-0.073159009 5323:-0.052518651 5324:0.049876187 5325:0.094007045 5326:-0.017341172 5327:-0.26252624 5328:0.078425944 5330:0.03337682 5331:0.080266148 5332:0.0077331732 5333:0.0059519722 5334:-0.046170253 5336:-0.086698607 5337:0.12371222 5338:-0.24045569 5340:-0.09468203 5341:0.19119078 5343:-0.12323276 5344:0.094007045 5345:-0.094007045 5346:0.00046751054 5347:-0.0097256182 5348:-0.0040541897 5350:0.047407385 5351:0.067109369 5353:-0.026565848 5354:0.094007045 5358:-0.0271446 5359:-0.0050412701 5360:-0.23579921 5361:0.015198636 5362:0.037519604 5363:-0.27539259 5364:-0.11473103 5365:-0.34308136 5366:0.033274215 5367:-0.13678215 5368:0.094858557 5369:-0.1151926 5370:-0.10706728 5371:-0.049629938 5373:0.010722673 5374:0.014545122 5375:-0.042206064 5376:0.045902494 5377:0.015836883 5378:-0.018653259 5379:5.7740544e-005 5380:-0.011073687 5381:0.1390644 5382:0.063617408 5383:1.0169248e-013 5384:-0.094007045 5385:-0.0018362391 5386:-0.14668636 5387:0.059061017 5388:-0.018305138 5389:0.094007045 5390:0.075197563 5391:0.026615575 5392:-0.23132691 5393:0.17458998 5394:-0.017631628 5395:-0.13643552 5396:0.17223893 5397:0.035188884 5398:0.11580065 5399:0.11583117 5400:0.094007045 5401:0.051858891 5402:-0.074755549 5403:-0.070882 5404:-0.060272768 5407:0.027030759 5408:-0.094007045 5409:-0.081059083 5410:-0.17094614 5411:5.7740544e-005 5412:-0.011155777 5414:-0.22386386 5417:-0.18180294 5418:0.16298111 5419:0.12323231 5420:-0.14054468 5421:-0.018368738 5422:-0.10050683 5423:0.048827253 5425:1.0169248e-013 5426:-0.028220296 5427:-0.042281732 5428:0.10243545 5429:0.0037291485 5430:-0.16446507 5431:-0.021448506 5432:0.0082721962 5433:0.15395127 5434:-0.13691919 5435:-0.051754523 5436:-0.14595143 5437:0.1952091 5438:0.069037475 5439:-0.16536731 5440:0.011724262 5441:-0.36944756 5442:8.8892859e-017 5443:0.039963745 5445:0.17643017 5447:-0.094007045 5450:0.013045481 5451:1.0169248e-013 5452:-0.17446876 5453:-0.094007045 5454:0.055496015 5457:-0.047615279 5458:-0.048171293 5459:0.02568836 5460:-0.069105603 5461:0.081490338 5462:0.14125061 5463:0.019193927 5464:0.030106487 5465:0.064214624 5466:-0.062124554 5467:-0.093419105 5468:0.13407983 5469:-0.040008929 5470:0.0070332782 5471:0.013416073 5472:0.084710144 5473:-0.089755483 5474:-0.27041513 5475:-1.032415e-013 5477:-0.089279912 5478:0.076490022 5479:0.013719197 5480:0.14147685 5482:-0.23178838 5485:-0.10923135 5486:0.037041422 5487:-0.2092783 5488:0.075440407 5489:-0.037439965 5490:0.018723052 5491:-0.23149477 5492:0.056114823 5493:-0.12638137 5496:0.037020531 5497:-0.22293824 5498:-0.064402312 5499:-0.076242127 5500:-0.19486655 5501:0.12251423 5502:-0.094007045 5503:0.1051183 5504:-0.020465555 5506:0.035821509 5507:-0.077989526 5508:0.13971537 5509:-0.17225449 5510:-0.21024285 5512:0.094007045 5514:0.13373567 5515:0.0044699428 5516:0.03416745 5517:-0.081578061 5519:0.011724262 5520:-0.050347917 5521:-0.094007045 5522:0.0087066088 5523:0.094007045 5524:-2.0338496e-013 5525:-0.12346214 5526:-0.025775081 5527:0.034675442 5528:-0.066885859 5529:0.0182375 5530:-0.080548696 5531:-0.16108078 5532:0.094007045 5533:0.094007045 5534:1.0169248e-013 5535:0.030701416 5536:0.032695487 5537:0.016086267 5538:-0.052616496 5539:-0.094007045 5540:0.18638121 5541:0.037373904 5542:1.0333039e-013 5543:-0.0036215407 5544:-0.18521768 5545:-0.15268478 5546:-0.098386012 5547:0.094007045 5548:0.015198636 5549:1.0178138e-013 5550:-0.094007045 5551:-0.1336479 5552:0.051574744 5553:0.020459443 5554:-0.079553045 5555:1.0169248e-013 5556:-0.11935213 5557:-0.082729325 5558:0.0078692324 5559:0.0051286579 5560:0.077627279 5561:0.0065004574 5562:-0.045290895 5563:0.010112461 5564:0.010860662 5565:0.055496015 5566:0.093517676 5567:0.13168631 5568:0.049876187 5569:-0.030217616 5570:0.005489124 5571:-0.042486776 5573:-0.027844032 5574:-0.037354987 5575:0.079916358 5576:0.048924781 5577:0.016842633 5578:0.060437363 5579:-0.067742638 5581:0.00082336913 5582:-1.4293615e-013 5584:0.086988479 5585:0.08392071 5586:-0.097671099 5587:0.18801409 5588:1.0169248e-013 5589:0.040175255 5590:0.0022042193 5591:-0.28481165 5592:0.065789953 5593:0.094007052 5594:-0.10527556 5595:0.028658111 5596:0.18031067 5598:-0.036982719 5599:-0.0092911301 5600:1.0169248e-013 5601:0.042796992 5602:0.037275974 5603:0.0025607923 5604:0.063029043 5606:-0.23360546 5607:-0.028385116 5608:0.026454549 5609:0.076279625 5610:-0.01540443 5612:-0.12011656 5613:0.074494302 5616:-0.14382809 5617:0.00046751054 5618:-0.090802222 5619:-0.056043867 5622:-0.018931728 5623:0.025603242 5625:1.0178138e-013 5626:-0.059326027 5627:0.16279767 5628:0.045902494 5629:0.1072016 5630:8.8892859e-017 5631:0.094007052 5632:0.094007045 5633:8.8892859e-017 5634:0.18801409 5635:0.14531103 5636:0.063277289 5638:-0.10828475 5639:-0.083745927 5640:-0.038169932 5641:-0.26456338 5643:-0.047836974 5644:0.059346411 5645:-0.18801409 5646:0.0087405471 5647:-0.064680383 5648:-0.049925629 5649:-0.089559458 5650:0.041005198 5652:-0.064531453 5653:-0.028819231 5654:0.066869095 5655:0.067634307 5656:0.028511854 5658:-0.057762407 5659:0.028631337 5660:-0.068577684 5661:-0.026078917 5663:0.18141662 5664:-0.04867642 5666:-0.036573369 5667:0.11906171 5668:-0.14344488 5669:-0.072520159 5670:0.025564522 5672:-0.070520476 5673:-0.086829782 5674:0.094007045 5675:0.094007045 5676:0.029192585 5677:0.18801409 5678:0.1539084 5679:0.056152951 5680:-0.16985649 5681:0.030267207 5682:-0.047066499 5683:0.0063620368 5684:0.14365454 5685:-0.094007045 5686:-0.34663525 5688:0.094007045 5689:-0.0057362239 5690:0.094007045 5691:0.011724262 5692:0.054519825 5693:0.14067069 5695:0.0038226931 5696:0.090133838 5697:0.0077331732 5698:-0.094007045 5699:0.034715768 5700:0.18777892 5701:-0.026872378 5702:0.17029646 5703:0.050853372 5704:0.1795221 5705:0.080295637 5706:0.036166381 5708:1.0169248e-013 5709:-0.096702255 5711:0.045660194 5713:0.094007045 5714:-0.064756617 5715:-0.072853975 5716:0.16598241 5717:0.036717705 5718:-0.036229681 5720:0.079326779 5722:0.099750541 5723:0.0038383382 5724:-0.06756565 5725:-0.26383135 5726:-0.30942193 5727:-0.094007045 5728:0.041938819 5729:0.012742516 5730:0.093465954 5731:0.061081875 5732:-0.028241765 5733:0.12050249 5734:-0.20458825 5735:1.0169248e-013 5736:0.1107417 5737:8.8892859e-017 5738:-0.049631871 5739:1.0169248e-013 5741:-0.18961477 5742:-0.18801409 5743:1.5490179e-015 5744:0.19665588 5747:-0.24502465 5748:0.067384049 5749:0.042315364 5751:0.094007045 5752:-0.029704399 5753:0.030041452 5754:0.0025909466 5756:0.30416304 5757:-0.18801409 5758:0.044022743 5759:1.0169248e-013 5760:1.0169248e-013 5761:-0.044678103 5762:0.00091355469 5763:-0.094007045 5765:0.0024760857 5766:-0.059746973 5767:-0.12128568 5768:0.094007045 5769:0.059577748 5770:-0.18801409 5772:8.8892859e-017 5774:0.03031428 5777:-0.18576165 5778:-0.11433856 5779:-0.30226204 5781:-0.078377038 5783:-0.11557584 5784:0.094007045 5785:-0.22185375 5786:0.0077331732 5787:-0.16514951 5788:-0.27121767 5790:0.084202819 5791:0.013545344 5792:0.0018140808 5793:0.14161986 5794:0.071229257 5795:8.8892859e-017 5796:0.016189538 5797:-0.18081899 5798:-0.086041883 5799:0.094007052 5800:0.041224111 5801:-0.036044274 5802:0.094007045 5804:2.0347386e-013 5805:0.055552516 5806:0.015140107 5807:-0.057512861 5808:0.094007045 5809:-0.18769911 5810:0.064781338 5811:0.050065327 5812:0.094007045 5813:0.0066425609 5814:1.0169248e-013 5815:-0.032007784 5817:0.057146605 5819:-0.050347917 5820:0.0146951 5821:-0.081213206 5822:0.094007052 5823:-0.2758368 5824:0.045162633 5825:-0.18728073 5826:-0.00850002 5827:0.11070478 5828:0.056082524 5829:-1.0169248e-013 5830:0.094007045 5831:0.16648595 5832:-0.042365801 5833:0.11254715 5834:-0.062724091 5835:0.033104498 5837:0.069207467 5838:-0.043792948 5839:-1.0169248e-013 5842:0.025564522 5843:0.058074661 5844:0.040378392 5845:0.033697896 5848:0.15580976 5849:0.0024299144 5850:0.011461773 5851:0.072161347 5853:0.0080045909 5854:-0.035225224 5855:0.094007045 5856:-1.0169248e-013 5857:0.089327246 5861:0.12594651 5862:-0.094007045 5863:-0.094007045 5864:0.16193239 5865:0.21545815 5866:-0.12059736 5867:0.00046751054 5868:0.042040445 5870:-0.14916377 5871:-0.04848003 5872:-0.0321826 5873:0.0076727467 5874:0.17922482 5876:-0.1295951 5877:-0.029195607 5878:0.13602184 5879:0.051712237 5880:0.16687709 5881:8.8892859e-017 5882:-0.0031698672 5883:0.0062745633 5884:-0.20460165 5885:-0.18801409 5886:-0.11624399 5887:0.088383257 5888:-0.044200435 5889:0.094007045 5890:-0.077799827 5891:-0.18801409 5892:-0.047436371 5893:-0.18801409 5894:0.15506712 5895:0.017735781 5896:-0.15593226 5897:-0.018554231 5898:-0.18801409 5899:0.0014157092 5900:0.38659275 5901:1.0169248e-013 5902:-0.087335385 5903:0.055578634 5905:0.054478638 5907:0.13102758 5908:-0.19474803 5909:-0.084256858 5910:0.010752375 5911:-0.042206064 5912:-0.081372067 5913:0.092294745 5914:0.17386627 5919:-0.085184447 5921:1.0169248e-013 5923:-0.014755568 5924:-0.062212173 5925:0.061632734 5927:0.015765097 5928:0.015685905 5929:0.094007045 5930:0.14624876 5932:0.020848038 5933:1.0169248e-013 5934:-0.094007045 5935:0.069037475 5939:0.068293966 5940:0.049755659 5941:-0.053879004 5942:-0.043701291 5945:0.049606159 5947:-0.29699388 5948:1.0169248e-013 5949:0.08616861 5950:0.059956484 5951:1.0169248e-013 5953:-0.094007045 5954:-0.21169192 5956:-0.075334758 5957:-0.094007045 5959:0.079835758 5961:0.015566793 5963:-0.0031642942 5964:-0.18801409 5965:0.064781338 5966:0.084731989 5967:-0.061292816 5968:0.0013372472 5970:0.042289279 5971:-0.016176118 5972:0.091228947 5973:-0.14627287 5975:-0.11482468 5976:0.30476019 5977:0.16156434 5978:0.026629349 5980:0.021681203 5981:0.029179974 5982:0.094772674 5983:1.0169248e-013 5984:-0.092362173 5985:0.050336406 5987:0.047243558 5989:-0.049617328 5990:-0.071770534 5991:-0.061099049 5993:0.03055804 5995:-0.32541412 5996:0.181261 5997:0.088417709 5998:-0.15144239 5999:0.094007045 6000:-0.094007045 6001:-1.0160359e-013 6002:-0.011272662 6003:-0.036982719 6004:-0.092061803 6005:0.01783436 6006:0.026629349 6007:-0.093614094 6008:0.081780829 6009:-0.13760924 6010:-0.040173601 6011:0.019148981 6012:0.23672201 6013:-0.025769439 6014:0.25023952 6015:0.2484154 6016:-0.070058428 6018:1.0169248e-013 6019:1.5490179e-015 6021:0.094007045 6022:-0.042206064 6023:0.036541943 6024:1.0169248e-013 6025:0.037041422 6026:0.17676382 6027:-0.034560721 6028:0.11957157 6029:0.25984746 6030:0.069705665 6031:0.094007045 6037:0.030631786 6038:0.036204372 6039:0.060729809 6040:0.030411929 6041:-0.0041054212 6042:0.16715311 6043:-0.27238032 6044:1.0169248e-013 6046:0.079693608 6047:-0.17897099 6048:0.10989504 6049:0.050189059 6050:0.036166381 6051:0.13024031 6052:0.032738291 6054:1.0169248e-013 6055:0.16344377 6056:0.087796897 6057:0.0040229484 6058:-0.094007045 6059:0.016773988 6060:0.052795872 6061:-0.11169559 6062:0.0879976 6064:0.094007045 6065:-0.25736123 6066:-0.24298529 6067:-0.10813319 6068:0.094007045 6069:-0.054484539 6070:-0.094007045 6071:0.17751019 6073:0.055635784 6074:0.010641769 6075:0.00013775274 6076:0.11168183 6077:-0.038325265 6078:-0.0018362391 6079:1.0169248e-013 6080:0.0033581175 6081:0.033378281 6082:0.16408247 6083:1.0169248e-013 6084:0.094007045 6085:0.057664033 6087:-1.0178138e-013 6088:0.1383871 6089:-0.070143282 6091:0.0035245831 6092:1.0169248e-013 6093:0.0016234909 6094:-0.09099438 6097:0.001904961 6098:1.0169248e-013 6099:-0.094007045 6100:1.0169248e-013 6101:-0.20083469 6102:-0.066937849 6103:-0.044700537 6104:-0.019097025 6105:0.078702673 6107:0.10456938 6108:-0.094007045 6110:0.069037475 6111:-0.055818096 6112:2.0338496e-013 6113:-0.012731739 6115:-0.068503521 6116:0.075225718 6117:1.0169248e-013 6119:-0.074274823 6120:-0.27839059 6121:-0.09536875 6122:-0.048035167 6123:-0.1199559 6124:0.14094868 6125:0.06150626 6126:-0.030015288 6127:0.0084383916 6128:1.0169248e-013 6129:-0.083138831 6130:0.027214797 6131:-0.012825271 6132:-0.094007045 6133:0.094007045 6134:-0.10635474 6135:0.031437166 6136:0.0077331732 6137:-0.130096 6138:0.017340599 6139:0.17910053 6140:0.094007045 6141:-0.056754395 6142:0.094007045 6143:0.13789415 6146:0.063848436 6147:-0.057721075 6148:0.066930145 6149:0.06549032 6150:-0.26945937 6152:-0.1572645 6153:0.063346133 6154:0.027214797 6155:-0.16592957 6156:0.028507177 6157:0.055534463 6158:0.00052637153 6159:0.041062374 6161:0.094007045 6162:-0.064009845 6163:0.012417467 6164:-0.018629797 6166:-0.10294708 6167:0.094007045 6168:0.013045481 6169:-0.040698241 6170:1.0169248e-013 6172:0.064597733 6173:0.035040677 6174:-0.12670946 6176:-0.06182785 6178:0.035959784 6179:-0.11884084 6180:0.043224722 6181:-0.042425729 6182:1.0169248e-013 6183:0.094007045 6184:0.11400685 6185:0.0090164868 6186:0.0038938113 6187:0.074280381 6188:0.16887115 6189:-0.09855818 6190:0.094007045 6191:0.033580277 6192:1.0169248e-013 6193:0.0042016939 6194:0.043224722 6195:-0.024864856 6196:-0.021817017 6197:-0.050834727 6198:0.16091873 6199:0.055467829 6200:0.066116057 6201:-0.27324083 6202:0.06190734 6203:1.0169248e-013 6204:0.19222073 6205:0.021850433 6206:0.030061647 6207:-0.027741032 6208:0.1783812 6209:0.06481193 6210:0.094007045 6211:0.076789059 6212:0.064597733 6213:-0.064929955 6214:0.0017263497 6215:0.10148488 6216:0.14201167 6218:0.077637278 6219:1.032415e-013 6220:0.16042261 6221:-0.017895663 6222:0.03674683 6223:0.099752717 6224:0.046635523 6225:1.0169248e-013 6227:0.014893589 6228:0.0065390775 6229:-0.028156258 6230:-0.02524855 6231:0.090599373 6232:0.021712918 6233:0.11373674 6234:0.029603625 6235:0.02024198 6236:-0.022888239 6237:0.0020564245 6238:0.065224022 6239:0.090336196 6240:0.098605745 6241:0.20805496 6242:0.036685556 6243:0.064597733 6244:0.053474095 6245:1.0169248e-013 6246:0.14882104 6247:-0.091926843 6248:-0.046022076 6249:0.035040677 6250:0.019615589 6251:0.0071524093 6252:0.13046469 6253:0.043636061 6254:0.37232783 6255:-0.014388849 6256:-0.11805303 6257:-0.062033202 6258:0.075383186 6259:0.53961784 6260:-0.1163953 6261:-0.026142368 6262:0.09479136 6263:0.21047732 6264:-0.29846933 6265:-0.25519329 6266:0.021051954 6267:0.41360816 6268:0.22890002 6269:0.37913913 6270:-0.034035806 6271:0.0045996751 6272:-0.51909471 6273:-0.56848216 6274:-0.14513715 6275:-0.31267539 6276:0.14546941 6277:-0.020844826 6278:0.094007045 6279:0.034149457 6280:0.61097693 6281:-0.0960721 6282:-0.29319346 6283:0.092662014 6284:0.0079155006 6285:0.21122234 6286:-0.46049872 6287:0.12340576 6288:0.301671 6289:0.44672954 6290:-0.85347342 6291:0.42923898 6292:0.23166259 6293:0.71127176 6294:-0.65383315 6295:0.23107205 6296:-0.49952865 6297:-0.54160672 6298:-0.038265008 6299:0.56325489 6300:0.79719299 6301:-0.11826252 6302:0.33713686 6303:0.26488671 6304:0.071044885 6305:0.29333529 6306:-0.23613282 6307:0.1269784 6308:0.010622604 6309:-0.35708332 6310:0.23159499 6311:0.18072051 6312:0.055787157 6313:1.0169248e-013 6314:-1.0169248e-013 6315:-0.056817267 6316:-0.12082246 6317:0.045217831 6318:0.01905781 6319:-0.071410097 6320:-0.070154071 6321:0.075221993 6322:0.0062111551 6325:0.087414205 6326:0.094007045 6327:-0.10137162 6328:-0.0023719196 6329:0.094007045 6330:-0.080151506 6331:-0.061560702 6332:-0.010938719 6334:0.010894973 6335:0.11955478 6338:-0.083100989 6339:0.00047460335 6340:-0.094007045 6341:-0.04958415 6342:-0.0037767498 6343:0.028326383 6344:1.5490179e-015 6345:0.094007045 6346:0.27265954 6348:0.016182689 6350:-0.047724046 6351:-0.13376604 6352:0.02537174 6353:0.227082 6355:-0.034742523 6356:-2.0484509e-013 6357:-0.13282067 6358:-0.094007045 6359:-0.0024078274 6360:-0.075707942 6361:-0.13919383 6362:0.10627708 6363:-0.085136198 6364:0.094007052 6365:-0.026285412 6366:-0.0099090673 6367:-0.1159016 6368:0.094007045 6369:0.15847476 6370:-0.072829328 6371:0.15749386 6372:0.054504264 6373:0.094007045 6375:-0.094007045 6376:0.14307418 6377:0.074237764 6378:-0.083772011 6379:0.03039979 6380:-0.29686964 6381:2.0338496e-013 6382:0.037160065 6383:-0.07695996 6384:0.11230505 6385:-0.0036709057 6386:-0.21031193 6387:1.0169248e-013 6388:0.23112693 6389:-0.12227339 6390:0.094007045 6391:1.0169248e-013 6392:0.063587137 6393:-0.19153443 6394:0.13086 6396:0.087769076 6398:-0.010644332 6399:-2.0338496e-013 6400:-0.15587199 6401:0.079693608 6402:0.037145719 6403:0.14262277 6404:0.094007045 6405:-0.20392762 6406:0.19885172 6407:0.2806128 6408:0.016118577 6409:-0.23107564 6410:0.094007052 6411:-0.05294174 6412:0.089293554 6413:0.094007045 6414:-0.3589015 6415:-0.11038282 6417:-0.094007045 6418:0.009641964 6419:0.058772847 6421:-0.18801409 6422:-0.094007045 6423:0.03684818 6424:0.00053661061 6426:1.0169248e-013 6427:0.082136676 6428:0.22638571 6429:-0.094007045 6431:0.18801409 6432:0.081806079 6433:-0.094007045 6434:-0.061802577 6435:0.08441624 6436:-1.0169248e-013 6438:0.094007045 6439:-0.042405196 6440:-0.094007045 6441:-0.26660249 6442:1.0169248e-013 6443:-0.0042883945 6444:0.034708858 6445:0.12716387 6446:0.20579872 6447:0.048501801 6448:-0.094007045 6449:0.094007045 6451:-0.061448287 6452:-0.020852868 6453:0.094007045 6454:-0.010341145 6455:0.082441278 6456:0.22490521 6457:0.014333256 6458:0.082673907 6459:-0.18796901 6460:0.094007045 6462:-0.015824866 6463:-0.011717298 6464:0.075534098 6465:0.083322234 6466:-0.061112408 6468:0.12313715 6470:0.028508468 6472:-0.37803596 6473:-0.019350106 6474:0.094007045 6475:0.094007045 6476:-0.054973803 6477:0.033234183 6478:-0.080303594 6480:0.094007045 6481:-0.10023146 6483:-0.17300957 6484:-0.078572884 6485:-0.22913821 6486:-0.011959998 6487:-0.18801409 6488:0.044022743 6489:0.094007045 6490:-0.09520711 6491:-0.34792116 6492:0.01168282 6493:0.094007045 6494:-0.094007045 6495:-0.12159955 6496:0.094007045 6497:-0.094007045 6498:0.031363979 6499:0.082561724 6500:-0.0038052988 6501:-0.18168683 6502:0.0045168097 6503:0.060042005 6504:0.14432898 6505:-2.0329607e-013 6506:-0.14278738 6507:-0.076146238 6508:-0.16807389 6509:-0.014702038 6510:-0.029958704 6511:0.1058647 6512:-0.18801409 6513:-0.14451392 6515:-0.17027797 6516:0.089283742 6518:0.068752266 6519:0.036088359 6520:0.091119856 6521:-0.081403613 6522:0.11018962 6523:-0.11623504 6524:-0.15119949 6525:0.088753432 6526:0.10622396 6528:0.094007045 6529:-0.0023766456 6530:0.13921988 6531:0.094007045 6532:0.055869933 6533:0.12618999 6534:-0.079880364 6535:0.094560429 6536:0.047083769 6537:0.011541264 6538:-0.19474225 6539:0.16753367 6540:0.13812737 6541:-0.14690945 6542:1.0169248e-013 6543:-0.086175591 6545:1.0169248e-013 6547:-0.017113419 6548:0.085766271 6549:-0.0093602883 6550:-0.27261597 6551:0.12600169 6552:0.024036068 6553:0.0097293425 6554:0.094007045 6555:0.015920278 6556:0.13049109 6557:0.094007045 6558:-0.01488288 6559:0.00026547821 6561:-0.062660843 6562:-0.019095499 6564:-0.20094566 6566:0.22408049 6567:0.011716886 6568:-0.0031039775 6569:-0.20808293 6570:-0.12185389 6571:-0.094007045 6574:0.094007045 6575:0.037789058 6576:0.04927031 6577:-0.038106184 6579:0.013152298 6580:0.044207219 6581:-0.051392708 6583:0.094007045 6585:-0.0062656892 6586:0.030925879 6587:-0.094007045 6588:-0.28202114 6589:0.035279248 6590:0.16934842 6591:0.027969163 6592:1.0169248e-013 6593:0.016576642 6594:0.070421696 6596:0.094007045 6597:0.1838633 6599:-0.098419562 6600:0.094007052 6602:0.094007045 6603:0.094007045 6604:0.094007045 6605:-1.0333039e-013 6606:-0.2067225 6607:0.083672285 6608:-0.060940012 6609:-0.067880683 6610:1.0169248e-013 6612:-0.04289829 6613:0.18801409 6614:-0.022554951 6615:-0.019944549 6616:0.087911695 6617:0.11952744 6618:-0.13032047 6619:0.09083958 6620:0.37602818 6621:0.00086933456 6622:0.064554594 6624:0.011280793 6625:0.059567325 6626:1.0169248e-013 6628:0.010075204 6629:0.13288209 6630:1.0169248e-013 6631:-0.073637858 6633:-0.13482633 6634:0.020165898 6635:0.094007045 6636:0.062625952 6638:0.04281674 6639:0.032390431 6641:0.08470054 6642:0.17687404 6643:0.094007045 6644:0.094007045 6645:-0.019893534 6646:0.096750833 6647:-0.21312234 6648:0.055275582 6650:0.094007045 6651:0.14469989 6652:0.071650572 6653:-0.18801409 6654:-0.021175792 6655:0.0041478225 6656:0.27071512 6657:0.26518771 6658:0.049487084 6659:0.070782825 6660:-0.094007045 6661:-1.032415e-013 6662:-0.19724561 6665:0.15608501 6666:0.082277574 6667:-0.094007045 6670:0.094007045 6671:0.094007045 6672:0.094007045 6673:0.14835511 6674:-0.14672482 6675:0.12965605 6676:-0.042405114 6677:0.055614334 6678:-0.19770992 6679:0.080061518 6680:-0.1795449 6681:0.06893789 6683:0.0837216 6685:0.13965049 6686:0.06314031 6687:-1.6379107e-015 6688:0.079627395 6689:-0.01951275 6690:0.094007045 6691:0.0043376293 6692:-1.0169248e-013 6693:-0.075737864 6694:0.059030749 6695:-0.12312935 6696:-0.070209354 6697:-0.032013599 6698:-0.18801409 6699:0.022339476 6700:-0.17783864 6701:0.0857573 6702:0.11090288 6703:0.1126081 6704:0.053263798 6705:-0.10140677 6706:0.12597473 6707:-0.049127728 6708:0.013666413 6709:0.077450737 6710:0.094007045 6711:1.0169248e-013 6714:0.042342246 6715:0.094007045 6716:8.8892859e-017 6717:0.038786724 6718:0.081960835 6721:0.065920539 6722:-1.0169248e-013 6723:-0.074085914 6724:0.068684958 6725:-0.068070084 6726:-0.02509567 6727:-0.068224207 6728:0.12969394 6729:-0.18801409 6731:0.094007045 6732:0.047091696 6734:0.094007045 6735:-1.0169248e-013 6736:-0.094007045 6737:-0.15319157 6738:-0.052224506 6739:0.1352202 6740:-1.0169248e-013 6741:0.090239473 6742:0.080266275 6743:-0.1616375 6744:-0.010338434 6745:0.024760455 6746:0.038023196 6747:0.16118172 6748:-0.095760487 6749:1.0169248e-013 6750:-0.094007045 6751:0.50699013 6752:0.079884097 6753:0.068398699 6754:-0.13534261 6755:0.048681468 6756:0.053075079 6757:1.0169248e-013 6758:0.010877735 6759:0.067046307 6760:-0.18801409 6761:0.0027198449 6762:-0.059188608 6763:0.15402247 6764:0.037641294 6765:-0.038311135 6766:0.15992294 6767:1.5490179e-015 6768:-0.067742638 6769:0.094007045 6770:1.0169248e-013 6771:0.071292043 6772:-0.059455 6773:-0.09683606 6775:0.063568622 6776:0.075108789 6777:-0.10133067 6778:0.0060683247 6780:0.055552516 6782:0.094007045 6783:1.0169248e-013 6784:1.0169248e-013 6785:0.10637517 6787:0.00092433172 6788:1.0169248e-013 6789:0.094007045 6790:0.076986916 6792:-0.094007045 6793:-0.11421641 6794:-0.036874153 6795:-0.1696921 6796:0.047146454 6799:-0.21580425 6800:1.0169248e-013 6801:0.099020272 6803:0.03338436 6804:1.0169248e-013 6805:1.0178138e-013 6806:0.01757957 6807:0.036494855 6808:0.057379898 6809:-1.0169248e-013 6810:0.045308109 6811:0.0055678496 6812:0.052549511 6813:0.13376477 6814:0.033158917 6815:-0.094007045 6816:0.094007045 6817:0.19750684 6818:-0.094007045 6821:0.094007045 6822:-0.1137062 6823:0.094007045 6824:0.079836316 6825:-0.011622334 6826:0.10541274 6827:0.010264795 6828:-0.055246729 6830:0.049241893 6832:0.068663731 6833:-0.040185686 6834:0.0051325583 6836:0.01789101 6837:-0.14911585 6838:0.094007045 6839:-0.060908999 6841:-0.11209181 6843:0.094007045 6844:0.1060176 6845:-0.18649104 6846:0.094007045 6848:-0.055597503 6849:0.1880141 6850:0.034543503 6851:8.8892859e-017 6852:-0.29726711 6853:0.00026675794 6855:0.039133735 6856:-0.035480682 6857:0.094007045 6858:1.0169248e-013 6859:-0.053318888 6860:-0.094007045 6861:-0.094007045 6862:0.00076562859 6863:0.18801409 6864:-0.021556797 6865:0.094007045 6866:-1.0169248e-013 6867:-0.047112342 6868:0.14827138 6869:0.028139735 6870:0.015836883 6871:0.094007045 6872:-0.13340087 6873:0.018294144 6874:-0.14410749 6875:0.065475695 6876:0.070449568 6878:0.073474452 6879:0.13216439 6880:-0.052925572 6881:-1.5490179e-015 6882:0.094007045 6884:0.027153252 6886:0.018034421 6887:-0.032456182 6888:-0.05130621 6889:-0.058756761 6890:0.033766415 6891:-0.06234533 6892:0.037050262 6893:0.042679768 6894:0.047488891 6896:-0.21449488 6897:0.14271866 6898:-0.08114884 6899:-0.00080179202 6901:-0.12564747 6903:0.07365296 6904:0.19686596 6905:1.0169248e-013 6907:-1.5490179e-015 6908:0.094007045 6909:-0.18801409 6910:1.0178138e-013 6911:0.15540867 6912:0.035665713 6913:-0.094007045 6914:0.028511854 6915:-0.05245607 6916:0.054297 6917:0.16910556 6918:0.089897774 6919:-0.30189142 6920:0.080197237 6921:-0.18442056 6922:-0.072722264 6923:0.092406362 6924:-0.081886232 6925:1.0169248e-013 6926:0.094007045 6927:0.12847733 6928:-0.21440169 6929:-0.091737434 6930:0.02588989 6932:0.067009889 6933:0.051194079 6934:0.11674665 6935:-0.031062279 6936:-0.038509447 6937:-0.030503279 6938:0.13248785 6939:-0.053393658 6940:0.15266988 6942:-0.061099049 6943:0.094007045 6944:-0.15997927 6945:0.094007045 6947:0.14100763 6948:-0.024049835 6949:-0.010510334 6950:0.094007045 6951:-0.033865537 6952:0.28836277 6953:0.0040753684 6954:0.094007045 6955:0.0080110533 6956:0.18801409 6957:0.094007045 6958:-0.106637 6959:-0.049194302 6960:-0.05543093 6961:0.046927497 6962:-0.059409417 6963:0.12220454 6967:0.0033141866 6969:-0.033687424 6971:-0.081728555 6972:-0.090093076 6973:0.094007045 6974:-0.0085256249 6975:-0.16904941 6976:0.18801409 6979:0.13833562 6980:0.094007045 6981:-0.096722215 6983:0.024100186 6984:-0.086606994 6985:0.14389417 6986:-0.060281821 6987:0.019945269 6988:-0.094007045 6989:0.094007052 6990:-0.052274104 6992:0.061472751 6993:0.012990293 6994:-0.075820945 6995:0.096985899 6997:-0.28202114 6998:0.049358152 7000:-0.28032124 7001:0.12123745 7002:-0.094007045 7004:-0.11280346 7005:0.14225639 7006:-0.094007045 7007:0.078982942 7008:-0.094007045 7009:-0.12439753 7011:0.038232587 7013:-0.24356653 7014:0.076468073 7016:-0.08591447 7017:0.0083729066 7019:-0.14364693 7020:-0.075858347 7022:0.036541943 7023:0.052086335 7024:0.073586047 7025:-0.034596976 7026:-0.098446429 7027:-0.13524143 7029:0.094007045 7030:-0.051424719 7031:0.1465241 7032:-0.16365796 7033:0.052514449 7034:2.0493398e-013 7035:0.094007045 7036:-0.094007045 7037:0.094007045 7038:0.0482696 7040:-0.094007052 7041:-0.094007045 7042:-0.11656205 7043:0.01548184 7044:0.18966828 7045:0.02168397 7046:-0.16787994 7047:0.024224319 7049:0.042390145 7050:-0.078930624 7051:0.17133246 7052:0.022574604 7054:1.0178138e-013 7055:0.088074796 7056:-0.06284105 7057:1.0169248e-013 7059:-0.035657026 7060:0.1481231 7061:-0.0543111 7063:0.017737543 7064:0.1199104 7065:-0.14945403 7066:0.0024162009 7067:0.047951616 7068:1.0169248e-013 7069:-0.20461176 7072:-0.027246391 7073:-0.11676321 7074:-0.16008727 7075:-0.010374774 7076:0.18801409 7078:-0.21101807 7079:-0.022598704 7080:-0.064744167 7081:-0.03380619 7082:-0.18549427 7083:0.094007045 7085:0.094007045 7086:0.094007045 7087:-0.094007052 7089:0.094007045 7090:-0.17497374 7091:0.09938959 7092:-0.065302752 7093:0.051951341 7095:-0.095634647 7096:-0.094007045 7097:0.08825662 7098:-0.0017435409 7099:0.18749201 7100:0.023146214 7101:-0.027608478 7102:-0.07933668 7103:-0.24142152 7106:-0.024403714 7107:0.083631806 7108:-1.0178138e-013 7109:-0.049376737 7110:-0.07761354 7111:1.0169248e-013 7112:0.080487497 7113:-0.094007045 7114:-0.2194172 7115:0.099826202 7116:-0.022598704 7117:0.094007045 7118:0.093502179 7119:-0.094007045 7120:0.0090115052 7121:-0.34169489 7122:0.048378918 7123:0.15931711 7124:-0.094007045 7125:-0.094007045 7127:-0.13400815 7128:-0.05004118 7129:0.028091926 7130:-0.21239938 7131:-0.094007052 7132:0.0082463836 7133:0.016697733 7134:0.06587296 7135:0.022087112 7136:0.060255077 7137:-0.0076463777 7138:0.0082830833 7139:0.049245387 7143:-0.026715674 7144:-0.064037457 7145:0.022434214 7146:-0.043704592 7147:0.0081792595 7148:0.019108329 7150:0.094007045 7151:-0.025839027 7152:0.017620921 7153:0.067723148 7154:0.081216492 7155:1.0169248e-013 7156:-0.031169366 7157:-0.20957439 7158:0.14708675 7159:0.039837547 7160:-0.47806537 7161:-0.1435912 7162:0.044257104 7163:0.093185842 7164:-0.094007045 7165:0.03522189 7166:0.094007045 7167:0.10209583 7168:-0.094007045 7169:0.0089980308 7170:0.14331451 7171:0.11912443 7172:-0.092281349 7173:0.094007045 7174:0.17997985 7175:0.010177952 7176:0.067677081 7177:0.0073970677 7178:-0.2700704 7179:-0.027844032 7184:0.18801409 7185:-0.064973898 7186:-0.083055049 7187:0.11881091 7188:-0.14347015 7189:-0.039967909 7190:-0.1199559 7191:0.077417955 7192:-0.13578631 7193:-0.004884053 7194:0.079302676 7196:0.089685135 7197:0.025107255 7198:0.023291314 7199:-0.044827811 7200:0.094007045 7201:-0.0040317005 7202:-0.026117824 7203:0.091446258 7204:0.19027531 7205:0.28549129 7206:0.1760755 7208:-0.090199508 7211:-0.22040555 7212:0.084710144 7213:0.17617235 7214:0.094007045 7215:0.094007045 7216:-0.094007045 7218:-0.098799437 7219:-0.049897622 7220:0.015837789 7221:-0.086614713 7222:0.0095824618 7223:-0.0029739242 7224:-0.014245433 7225:1.0169248e-013 7226:0.062177002 7228:-0.05314951 7229:-0.0021279452 7231:0.094007045 7232:0.18129723 7234:-0.00382958 7235:0.18801409 7236:0.026086584 7237:-0.03615186 7238:-0.094007045 7239:0.18801409 7240:-0.076065712 7241:-0.16646583 7242:0.072528638 7243:-0.057390347 7245:-0.010887366 7246:0.06555102 7247:-0.048824411 7248:-0.13731986 7249:-0.12199911 7250:0.17211051 7251:0.094007045 7253:0.094007045 7254:0.0093414104 7255:-0.16294912 7257:-1.0169248e-013 7258:0.15396857 7259:0.10714274 7260:-0.084588066 7261:-0.21580425 7262:-0.022724358 7263:0.051898792 7264:0.11302939 7265:-0.033476494 7266:0.052643709 