svm_type c_svc
kernel_type linear
nr_class 2
total_sv 2202
rho -1.0385
label -1 1
nr_sv 1392 810
SV
0.3689461438495952 2:1 72:1 146:1 214:1 285:1 359:1 436:1 502:1 838:1 16649:1 32409:1 48117:0.028777 48118:0.040965 48119:0.126799 
0.1287354726596376 7:1 73:1 144:1 215:1 296:1 366:1 434:1 520:1 815:1 16583:1 32352:1 48117:0.223022 48118:0.137915 48119:0.748715 
1 107:1 159:1 225:1 320:1 372:1 450:1 514:1 1028:1 16796:1 48117:0.0215827 48118:0.188439 48119:0.117045 
0.07871486618784876 73:1 147:1 215:1 286:1 360:1 434:1 507:1 1093:1 16861:1 48117:0.208633 48118:0.269458 48119:0.865214 
0.5712282682447275 1:1 72:1 146:1 214:1 285:1 359:1 429:1 524:1 838:1 16888:1 32652:1 48117:0.00719424 48118:0.293582 48119:0.0327222 
1 73:1 153:1 215:1 286:1 366:1 464:1 514:1 871:1 16639:1 48117:0.158273 48118:0.317251 48119:0.485142 
0.8859837038903505 6:1 73:1 146:1 215:1 286:1 359:1 432:1 514:1 706:1 838:1 16911:1 32448:1 48117:0.251799 48118:0.323168 48119:0.771817 
0.17908996364372 3:1 73:1 145:1 215:1 285:1 358:1 429:1 535:1 1160:1 16929:1 32697:1 48117:0.0863309 48118:0.371871 48119:0.264623 
0.8554021240389244 1:1 72:1 146:1 214:1 285:1 359:1 429:1 524:1 838:1 16874:1 32376:1 48117:0.00719424 48118:0.463359 48119:0.0507194 
0.0749685336747658 12:1 72:1 144:1 214:1 360:1 439:1 1208:1 17081:1 32849:1 48118:0.548475 
0.6000439180068141 19:1 83:1 168:1 225:1 296:1 382:1 434:1 511:1 1319:1 17086:1 32398:1 48117:0.0503597 48118:0.559399 48119:0.197242 
0.2273161598333884 12:1 83:1 156:1 225:1 296:1 369:1 440:1 515:1 1333:1 17101:1 32870:1 48117:0.028777 48118:0.00182066 48119:0.405755 
0.03921778428349496 97:1 169:1 214:1 310:1 382:1 456:1 524:1 1080:1 17134:1 48117:0.00719424 48118:0.0295858 48119:0.0207018 
0.895042653627747 19:1 73:1 144:1 215:1 286:1 360:1 444:1 506:1 1372:1 17140:1 32398:1 48117:0.0935252 48118:0.0350478 48119:0.269123 
1 1:1 72:1 180:1 214:1 285:1 393:1 451:1 502:1 1066:1 16698:1 32466:1 48117:0.115108 48118:0.0741921 48119:0.649209 
0.2054945657568824 15:1 72:1 154:1 225:1 285:1 368:1 435:1 502:1 1544:1 17312:1 32361:1 48117:0.028777 48118:0.235776 48119:0.23868 
0.2017525038092805 7:1 83:1 144:1 225:1 286:1 360:1 434:1 506:1 1545:1 17312:1 32404:1 48117:0.0431655 48118:0.236686 48119:0.358019 
0.2891885679472692 19:1 97:1 168:1 239:1 286:1 382:1 453:1 502:1 1296:1 17064:1 32832:1 48117:0.122302 48118:0.25899 48119:0.689784 
0.03543049986745306 15:1 72:1 154:1 225:1 285:1 368:1 467:1 502:1 1285:1 17053:1 32361:1 48117:0.0143885 48118:0.0450614 48119:0.0882077 
0.1600582938086779 2:1 72:1 146:1 214:1 285:1 359:1 429:1 502:1 838:1 17435:1 33159:1 48117:0.0143885 48118:0.190715 48119:0.0922171 
1 19:1 83:1 167:1 225:1 380:1 434:1 1736:1 17504:1 32398:1 48118:0.208466 
0.02168626775468867 16:1 72:1 144:1 214:1 296:1 366:1 453:1 520:1 1747:1 17126:1 32894:1 48117:0.258993 48118:0.224852 48119:0.849255 
1 73:1 147:1 214:1 291:1 360:1 453:1 505:1 1125:1 16893:1 48117:0.280576 48118:0.226218 48119:0.920027 
0.4229652851438869 73:1 153:1 225:1 286:1 366:1 434:1 514:1 1758:1 17526:1 48117:0.0503597 48118:0.0227583 48119:0.546209 
0.3798475948815112 7:1 73:1 144:1 215:1 286:1 360:1 434:1 502:1 700:1 1800:1 17568:1 32745:1 48117:0.143885 48118:0.00910332 48119:0.563549 
0.98486652159733 73:1 153:1 214:1 286:1 366:1 439:1 507:1 1794:1 17562:1 48117:0.028777 48118:0.155212 48119:0.139916 
0.06670158184386937 7:1 83:1 144:1 225:1 296:1 366:1 453:1 522:1 1925:1 17589:1 32745:1 48117:0.223022 48118:0.24761 48119:0.766977 
1 15:1 72:1 154:1 225:1 285:1 368:1 440:1 502:1 1974:1 17742:1 32361:1 48117:0.0215827 48118:0.0332271 48119:0.0981666 
0.1888074476077802 2:1 108:1 146:1 250:1 321:1 359:1 429:1 500:1 838:1 17763:1 33531:1 48117:0.165468 48118:0.0564406 48119:0.804515 
0.5218770078760956 7:1 73:1 144:1 215:1 296:1 365:1 434:1 515:1 826:1 16594:1 32352:1 48117:0.208633 48118:0.122895 48119:0.840493 
0.7404314327209702 73:1 147:1 225:1 286:1 360:1 450:1 506:1 2029:1 17797:1 48117:0.100719 48118:0.131998 48119:0.417689 
0.2997860991268987 1:1 90:1 150:1 232:1 296:1 363:1 477:1 510:1 862:1 16630:1 33574:1 48117:0.0431655 48118:0.143832 48119:0.264623 
1 15:1 72:1 154:1 225:1 285:1 368:1 437:1 506:1 2082:1 17850:1 32361:1 48117:0.00719424 48118:0.0423305 48119:0.11271 
0.9972009780843683 4:1 73:1 144:1 215:1 286:1 360:1 434:1 506:1 2087:1 17855:1 32374:1 48117:0.0719424 48118:0.0505234 48119:0.338129 
1 12:1 72:1 144:1 214:1 285:1 366:1 439:1 501:1 1865:1 16702:1 32470:1 48117:0.0791367 48118:0.0646336 48119:0.79702 
0.0312880593245956 7:1 73:1 187:1 215:1 286:1 400:1 434:1 502:1 830:1 17865:1 32381:1 48117:0.0719424 48118:0.00455166 48119:0.29835 
0.8847137768463107 73:1 187:1 214:1 286:1 400:1 439:1 502:1 830:1 17867:1 48117:0.122302 48118:0.00773782 48119:0.507194 
0.7576867402493545 15:1 72:1 154:1 225:1 285:1 368:1 430:1 501:1 934:1 16702:1 32361:1 48117:0.143885 48118:0.0464269 48119:0.563549 
0.05914184562833405 9:1 73:1 176:1 215:1 285:1 389:1 435:1 501:1 1001:1 17921:1 32359:1 48117:0.0935252 48118:0.0905781 48119:0.488409 
1 72:1 157:1 285:1 370:1 507:1 825:1 16698:1 48117:0.0431655 48118:0.0746472 48119:0.869476 
0.03231482323597903 1:1 83:1 160:1 225:1 285:1 373:1 450:1 502:1 2248:1 18016:1 33785:1 48117:0.0791367 48118:0.0901229 48119:0.429164 
0.9054475670608296 12:1 72:1 144:1 214:1 286:1 366:1 439:1 507:1 2213:1 17068:1 32836:1 48117:0.0647482 48118:0.117433 48119:0.760791 
1 2:1 72:1 146:1 214:1 285:1 359:1 435:1 508:1 838:1 16728:1 33807:1 48117:0.122302 48118:0.131088 48119:0.338129 
0.307281997710701 16:1 73:1 151:1 215:1 285:1 364:1 477:1 501:1 869:1 18039:1 32557:1 48117:0.129496 48118:0.131543 48119:0.358019 
0.6646842812471165 73:1 153:1 225:1 286:1 366:1 434:1 502:1 2341:1 18109:1 48117:0.0503597 48118:0.265362 48119:0.394484 
0.07220364559959996 6:1 73:1 144:1 215:1 286:1 366:1 440:1 502:1 2447:1 18210:1 32448:1 48117:0.0935252 48118:0.543013 48119:0.507194 
1 83:1 156:1 215:1 286:1 369:1 432:1 508:1 706:1 2448:1 18216:1 48117:0.100719 48118:0.543468 48119:0.546209 
1 73:1 153:1 214:1 286:1 366:1 444:1 507:1 2231:1 17999:1 48117:0.0719424 48118:0.569868 48119:0.441038 
0.8886529012371546 73:1 147:1 214:1 286:1 360:1 439:1 500:1 2464:1 18232:1 48117:0.0647482 48118:0.597633 48119:0.260843 
0.7161233312651073 15:1 72:1 154:1 225:1 285:1 368:1 443:1 514:1 840:1 16608:1 32361:1 48117:0.057554 48118:0.772872 48119:0.22542 
0.04319772891681949 2:1 73:1 146:1 215:1 286:1 359:1 429:1 500:1 838:1 18341:1 34109:1 48117:0.129496 48118:0.00819299 48119:0.676259 
1 2:1 72:1 144:1 214:1 286:1 360:1 456:1 507:1 1237:1 18216:1 32442:1 48117:0.0143885 48118:0.0782886 48119:0.0614781 
0.505736653398524 73:1 146:1 214:1 286:1 359:1 465:1 508:1 838:1 18525:1 48117:0.251799 48118:0.275831 48119:0.755396 
0.1518828069783976 3:1 73:1 145:1 215:1 285:1 358:1 429:1 501:1 1161:1 16677:1 34244:1 48117:0.0719424 48118:0.297223 48119:0.274159 
0.2747015356366346 73:1 145:1 214:1 286:1 358:1 464:1 500:1 2616:1 18384:1 48117:0.136691 48118:0.318161 48119:0.566864 
0.9953776947904813 7:1 73:1 144:1 215:1 286:1 360:1 434:1 507:1 727:1 1108:1 16876:1 32461:1 48117:0.151079 48118:0.0860264 48119:0.819314 
1 108:1 146:1 215:1 321:1 359:1 434:1 502:1 727:1 838:1 17829:1 48117:0.18705 48118:0.116067 48119:0.676259 
0.05373219219754732 2:1 73:1 146:1 215:1 286:1 359:1 429:1 500:1 838:1 18609:1 34377:1 48117:0.230216 48118:0.118798 48119:0.832319 
0.07005584043779987 26:1 83:1 146:1 225:1 296:1 359:1 453:1 514:1 838:1 18616:1 32653:1 48117:0.122302 48118:0.146563 48119:0.663254 
0.1179112200832914 7:1 97:1 169:1 239:1 296:1 382:1 434:1 501:1 1117:1 16885:1 32597:1 48117:0.129496 48118:0.147019 48119:0.702269 
0.5186757105469563 73:1 159:1 214:1 291:1 372:1 439:1 505:1 1719:1 17487:1 48117:0.136691 48118:0.330451 48119:0.642446 
0.1046405466043979 6:1 73:1 144:1 215:1 291:1 360:1 432:1 505:1 706:1 872:1 18706:1 32448:1 48117:0.244604 48118:0.0646336 48119:0.783846 
0.1333673278571543 2:1 73:1 146:1 215:1 286:1 359:1 437:1 508:1 838:1 18771:1 34436:1 48117:0.158273 48118:0.0432408 48119:0.656369 
0.09611601389301953 12:1 83:1 169:1 225:1 296:1 382:1 440:1 515:1 1195:1 16775:1 34059:1 48117:0.0503597 48118:0.00318616 48119:0.173188 
0.02839483640349941 3:1 73:1 145:1 215:1 285:1 358:1 429:1 501:1 838:1 18779:1 34545:1 48117:0.100719 48118:0.00637233 48119:0.346377 
0.1903088760094519 12:1 72:1 144:1 214:1 286:1 360:1 444:1 507:1 2664:1 18748:1 34516:1 48117:0.0143885 48118:0.0341375 48119:0.0751399 
0.05771896208233328 1:1 83:1 165:1 225:1 296:1 378:1 429:1 519:1 2173:1 17941:1 34572:1 48117:0.0215827 48118:0.0664543 48119:0.169065 
0.2770657303830063 12:1 72:1 168:1 214:1 382:1 440:1 2824:1 18018:1 33786:1 48118:0.0860264 
1 12:1 72:1 144:1 214:1 286:1 360:1 439:1 507:1 1246:1 16702:1 32470:1 48117:0.0791367 48118:0.102412 48119:0.587278 
0.1202053454749958 7:1 73:1 144:1 215:1 286:1 360:1 434:1 507:1 3102:1 18870:1 33606:1 48117:0.115108 48118:0.196177 48119:0.624239 
1 15:1 72:1 154:1 225:1 285:1 368:1 453:1 508:1 934:1 16702:1 32361:1 48117:0.0215827 48118:0.326354 48119:0.101439 
0.08976428756374784 1:1 83:1 155:1 225:1 285:1 368:1 450:1 524:1 3162:1 18930:1 33622:1 48117:0.0503597 48118:0.34183 48119:0.32276 
0.2472379970711046 1:1 87:1 152:1 229:1 296:1 365:1 450:1 510:1 3171:1 18939:1 34200:1 48117:0.18705 48118:0.360492 48119:0.824191 
0.5784167768884583 15:1 72:1 154:1 214:1 285:1 368:1 441:1 527:1 934:1 16702:1 32361:1 48117:0.179856 48118:0.0514338 48119:0.939249 
0.085270639480562 2:1 73:1 146:1 215:1 286:1 359:1 435:1 500:1 838:1 18985:1 34753:1 48117:0.0143885 48118:0.0851161 48119:0.0431655 
0.3266986108123109 12:1 72:1 144:1 215:1 286:1 360:1 434:1 506:1 1884:1 16915:1 32683:1 48117:0.158273 48118:0.142922 48119:0.464928 
0.1081010293610782 12:1 72:1 144:1 214:1 286:1 366:1 450:1 502:1 1841:1 18474:1 34242:1 48117:0.0359712 48118:0.255348 48119:0.18785 
1 15:1 72:1 154:1 225:1 285:1 394:1 440:1 500:1 832:1 16600:1 32361:1 48117:0.0935252 48118:0.0341375 48119:0.775709 
0.4409816505979404 1:1 83:1 144:1 225:1 296:1 366:1 453:1 510:1 750:1 3331:1 16949:1 34174:1 48117:0.0143885 48118:0.0996814 48119:0.0548318 
0.1001165400902821 12:1 72:1 144:1 214:1 286:1 366:1 465:1 506:1 3389:1 18519:1 34287:1 48117:0.00719424 48118:0.116067 48119:0.0676259 
0.04043628129389953 27:1 97:1 144:1 239:1 286:1 360:1 453:1 506:1 3390:1 16868:1 32636:1 48117:0.028777 48118:0.117433 48119:0.270504 
0.4419914830472464 73:1 147:1 214:1 286:1 360:1 464:1 538:1 922:1 16690:1 48117:0.136691 48118:0.141102 48119:0.566864 
0.6980361457350066 73:1 153:1 215:1 286:1 366:1 434:1 507:1 3372:1 19140:1 48117:0.0647482 48118:0.159308 48119:0.351134 
0.3139889757733543 2:1 83:1 146:1 225:1 296:1 359:1 437:1 508:1 838:1 19196:1 34967:1 48117:0.057554 48118:0.201639 48119:0.23868 
0.0001552873580585738 73:1 145:1 215:1 291:1 358:1 429:1 505:1 1282:1 17050:1 48117:0.151079 48118:0.207556 48119:0.626534 
0.993675242881767 73:1 147:1 225:1 286:1 360:1 436:1 500:1 737:1 1958:1 17726:1 48117:0.122302 48118:0.229859 48119:0.479017 
0.09412621578008047 2:1 73:1 146:1 215:1 286:1 359:1 435:1 500:1 838:1 16743:1 32511:1 48117:0.0215827 48118:0.0013655 48119:0.108684 
0.6311655393620643 7:1 73:1 144:1 215:1 286:1 360:1 434:1 511:1 3420:1 19188:1 32352:1 48117:0.165468 48118:0.0314065 48119:0.555498 
0.127626211686859 12:1 83:1 168:1 225:1 296:1 382:1 440:1 536:1 1294:1 16600:1 35037:1 48117:0.0359712 48118:0.0341375 48119:0.266944 
0.02461985007392451 2:1 73:1 146:1 215:1 286:1 359:1 429:1 500:1 838:1 19274:1 35042:1 48117:0.0143885 48118:0.0414201 48119:0.0699578 
1 73:1 147:1 215:1 291:1 360:1 432:1 505:1 706:1 2760:1 18528:1 48117:0.244604 48118:0.0691853 48119:0.766427 
0.1217500093977997 73:1 147:1 215:1 291:1 360:1 435:1 505:1 1424:1 17192:1 48117:0.294964 48118:0.0723714 48119:0.924221 
0.2256388331690835 73:1 153:1 215:1 286:1 366:1 432:1 503:1 3570:1 19338:1 48117:0.165468 48118:0.172053 48119:0.518465 
1 73:1 147:1 214:1 286:1 360:1 465:1 506:1 1108:1 16876:1 48117:0.201439 48118:0.235776 48119:0.767645 
0.2832941548577994 2:1 72:1 146:1 214:1 285:1 359:1 431:1 506:1 838:1 16600:1 35143:1 48117:0.0359712 48118:0.286299 48119:0.29835 
0.1459746302522728 1:1 83:1 156:1 225:1 296:1 369:1 450:1 536:1 1810:1 17578:1 35144:1 48117:0.0647482 48118:0.28812 48119:0.537029 
0.01821723834697878 12:1 72:1 144:1 214:1 285:1 358:1 465:1 501:1 3622:1 18546:1 34314:1 48117:0.0647482 48118:0.0200273 48119:0.23409 
0.2445846906441308 12:1 72:1 144:1 214:1 285:1 360:1 444:1 501:1 3685:1 16775:1 32543:1 48117:0.0215827 48118:0.0828402 48119:0.0869476 
0.03839776968218625 1:1 83:1 144:1 225:1 286:1 360:1 450:1 507:1 922:1 16690:1 35224:1 48117:0.0647482 48118:0.0855712 48119:0.260843 
1 15:1 72:1 154:1 225:1 285:1 373:1 453:1 527:1 1469:1 17237:1 32361:1 48117:0.251799 48118:0.20437 48119:0.934305 
0.009399431287274744 6:1 73:1 153:1 215:1 286:1 366:1 432:1 545:1 706:1 2482:1 19522:1 32448:1 48117:0.0431655 48118:0.002731 48119:0.190198 
0.004648495217734248 17:1 73:1 146:1 215:1 286:1 359:1 443:1 514:1 838:1 17638:1 34087:1 48117:0.0791367 48118:0.160218 48119:0.371942 
0.01186265324947639 87:1 152:1 225:1 296:1 365:1 434:1 511:1 4101:1 19869:1 48117:0.028777 48118:0.170687 48119:0.31212 
0.4379662270070617 16:1 73:1 146:1 215:1 286:1 359:1 436:1 508:1 838:1 16789:1 34076:1 48117:0.107914 48118:0.181611 48119:0.422662 
1 2:1 73:1 146:1 215:1 286:1 359:1 429:1 508:1 838:1 17400:1 33168:1 48117:0.115108 48118:0.238507 48119:0.352831 
0.1451092461896636 73:1 145:1 215:1 286:1 358:1 464:1 501:1 3728:1 19496:1 48117:0.0431655 48118:0.275376 48119:0.22542 
0.5537372689089728 7:1 83:1 156:1 225:1 296:1 369:1 434:1 524:1 2413:1 18181:1 32404:1 48117:0.136691 48118:0.281293 48119:0.713829 
1 6:1 73:1 146:1 215:1 286:1 359:1 432:1 514:1 706:1 838:1 17981:1 32448:1 48117:0.0863309 48118:0.295858 48119:0.328991 
0.005677543733986351 87:1 152:1 225:1 296:1 365:1 434:1 511:1 6857:1 22625:1 48117:0.0359712 48118:0.339554 48119:0.422662 
0.1140996530253556 73:1 159:1 220:1 291:1 372:1 450:1 505:1 3832:1 19600:1 48117:0.0935252 48118:0.396905 48119:0.599411 
0.1262304112515677 73:1 145:1 215:1 286:1 358:1 464:1 501:1 3872:1 19640:1 48117:0.0215827 48118:0.462904 48119:0.101439 
0.3974108055415785 2:1 73:1 146:1 215:1 286:1 359:1 429:1 502:1 838:1 17400:1 33168:1 48117:0.0791367 48118:0.502503 48119:0.619904 
1 73:1 153:1 215:1 291:1 366:1 436:1 505:1 2213:1 17981:1 48117:0.100719 48118:0.517524 48119:0.417689 
0.1306203957911097 17:1 73:1 146:1 215:1 286:1 359:1 443:1 514:1 838:1 19285:1 33255:1 48117:0.0863309 48118:0.622212 48119:0.276651 
0.04313140396396747 7:1 78:1 146:1 220:1 291:1 359:1 450:1 514:1 838:1 16829:1 32378:1 48117:0.0791367 48118:0.710059 48119:0.293639 
1 73:1 153:1 215:1 286:1 366:1 436:1 511:1 2303:1 18071:1 48117:0.107914 48118:0.797451 48119:0.422662 
0.09028918369052522 2:1 73:1 146:1 215:1 286:1 359:1 435:1 500:1 838:1 19708:1 35476:1 48117:0.0143885 48118:0.0154756 48119:0.0483042 
0.069453629507665 73:1 147:1 215:1 286:1 360:1 434:1 507:1 1922:1 17690:1 48117:0.143885 48118:0.0846609 48119:0.405755 
0.08267808934463919 73:1 145:1 215:1 291:1 358:1 434:1 505:1 3962:1 19730:1 48117:0.0791367 48118:0.248066 48119:0.199255 
0.1371731004630566 7:1 72:1 144:1 214:1 286:1 366:1 434:1 545:1 708:1 2951:1 16892:1 32832:1 48117:0.0143885 48118:0.302685 48119:0.0699578 
0.1200708022562501 2:1 73:1 144:1 215:1 291:1 360:1 436:1 505:1 748:1 854:1 16876:1 32644:1 48117:0.194245 48118:0.171598 48119:0.782528 
0.05786763283464517 26:1 72:1 144:1 214:1 286:1 360:1 453:1 506:1 1006:1 19858:1 33412:1 48117:0.028777 48118:0.17706 48119:0.184434 
0.1955231174568969 12:1 72:1 144:1 214:1 285:1 360:1 448:1 501:1 965:1 16633:1 32401:1 48117:0.057554 48118:0.213473 48119:0.23868 
0.04725973903862136 1:1 87:1 152:1 229:1 300:1 365:1 450:1 554:1 1908:1 17676:1 35531:1 48117:0.0863309 48118:0.215294 48119:0.358019 
1 6:1 73:1 146:1 215:1 286:1 359:1 432:1 502:1 706:1 838:1 16779:1 32448:1 48117:0.0863309 48118:0.0232135 48119:0.31212 
0.1073017201220385 14:1 83:1 144:1 225:1 296:1 382:1 440:1 510:1 1404:1 19929:1 35697:1 48117:0.0647482 48118:0.0040965 48119:0.570594 
0.5853137887069494 15:1 72:1 154:1 225:1 285:1 368:1 450:1 502:1 1232:1 17000:1 32361:1 48117:0.0791367 48118:0.0263996 48119:0.587278 
0.1338114545691005 6:1 73:1 144:1 215:1 286:1 366:1 432:1 507:1 706:1 4162:1 19930:1 32448:1 48117:0.0431655 48118:0.0905781 48119:0.434738 
0.3020653658004708 12:1 72:1 144:1 214:1 296:1 366:1 439:1 510:1 1764:1 17068:1 32836:1 48117:0.0143885 48118:0.0304961 48119:0.106778 
0.04544071298064881 26:1 83:1 155:1 225:1 285:1 368:1 453:1 500:1 4264:1 20032:1 35801:1 48117:0.0143885 48118:0.0359581 48119:0.0431655 
0.4100889401126915 15:1 72:1 154:1 225:1 285:1 368:1 450:1 502:1 1106:1 16874:1 32361:1 48117:0.057554 48118:0.0933091 48119:0.23186 
0.7418258452230184 6:1 73:1 147:1 215:1 285:1 360:1 432:1 501:1 706:1 4334:1 20019:1 32448:1 48117:0.0359712 48118:0.368685 48119:0.169065 
0.158394681004314 73:1 147:1 225:1 286:1 360:1 434:1 507:1 4390:1 20158:1 48117:0.18705 48118:0.0118343 48119:0.517139 
0.6512340318008049 73:1 146:1 214:1 286:1 359:1 444:1 502:1 838:1 19246:1 48117:0.143885 48118:0.132909 48119:0.483042 
0.01032340532210741 32:1 73:1 145:1 215:1 286:1 358:1 458:1 500:1 2671:1 20256:1 36023:1 48117:0.0143885 48118:0.000910332 48119:0.0724563 
0.2475711322639709 11:1 73:1 152:1 215:1 296:1 365:1 437:1 522:1 1329:1 16914:1 32682:1 48117:0.0719424 48118:0.00455166 48119:0.362282 
0.1103981620651427 5:1 73:1 147:1 215:1 286:1 360:1 431:1 506:1 3393:1 17029:1 32797:1 48117:0.0431655 48118:0.0532544 48119:0.164495 
0.05126091074003875 42:1 90:1 146:1 232:1 303:1 359:1 468:1 505:1 838:1 16630:1 32364:1 48117:0.0935252 48118:0.0145653 48119:0.425389 
0.1212665203680195 6:1 73:1 144:1 215:1 286:1 366:1 432:1 507:1 706:1 4536:1 20305:1 32448:1 48117:0.0503597 48118:0.0619026 48119:0.151079 
0.6042271617740372 1:1 83:1 156:1 225:1 286:1 369:1 450:1 508:1 2747:1 18515:1 32975:1 48117:0.280576 48118:0.0764679 48119:0.841727 
1 38:1 108:1 144:1 250:1 286:1 360:1 464:1 502:1 1261:1 17029:1 32602:1 48117:0.18705 48118:0.0919436 48119:0.824191 
0.3764434283405397 73:1 147:1 214:1 286:1 360:1 444:1 506:1 3651:1 19419:1 48117:0.028777 48118:0.0964952 48119:0.193217 
0.137770628859594 11:1 73:1 145:1 215:1 285:1 358:1 437:1 501:1 2673:1 20296:1 36064:1 48117:0.028777 48118:0.127902 48119:0.31212 
0.6149953786506411 15:1 72:1 154:1 225:1 285:1 394:1 467:1 508:1 4562:1 20330:1 32361:1 48117:0.0431655 48118:0.128812 48119:0.468179 
1 6:1 73:1 146:1 215:1 286:1 359:1 432:1 508:1 706:1 838:1 32448:1 48117:0.115108 48118:0.139281 48119:0.811511 
0.1475283869851154 12:1 72:1 144:1 215:1 286:1 360:1 434:1 507:1 4572:1 17604:1 33372:1 48117:0.057554 48118:0.147474 48119:0.22542 
0.1228456757680327 73:1 153:1 214:1 291:1 366:1 444:1 505:1 4576:1 20344:1 48117:0.172662 48118:0.154756 48119:0.676259 
0.09106902477321294 15:1 72:1 154:1 225:1 285:1 377:1 450:1 527:1 4583:1 20351:1 32361:1 48117:0.00719424 48118:0.174329 48119:0.0533889 
0.03954105698987399 15:1 72:1 154:1 225:1 285:1 373:1 455:1 514:1 4595:1 20363:1 32361:1 48117:0.0143885 48118:0.219845 48119:0.289825 
0.3261944435377119 73:1 145:1 225:1 286:1 358:1 434:1 506:1 708:1 1866:1 17634:1 48117:0.0359712 48118:0.272645 48119:0.390149 
0.5735615230374912 12:1 72:1 144:1 214:1 286:1 366:1 448:1 506:1 3389:1 16653:1 32421:1 48117:0.115108 48118:0.347292 48119:0.705662 
0.3094482045373652 7:1 83:1 144:1 225:1 286:1 360:1 434:1 506:1 4628:1 20407:1 32404:1 48117:0.0215827 48118:0.428766 48119:0.338129 
0.07749270940995125 2:1 73:1 146:1 215:1 286:1 359:1 435:1 511:1 838:1 18702:1 32629:1 48117:0.136691 48118:0.497952 48119:0.438031 
0.2018424616310756 1:1 83:1 156:1 225:1 296:1 369:1 450:1 520:1 4686:1 20454:1 36223:1 48117:0.0215827 48118:0.545744 48119:0.108684 
0.09400524656300459 2:1 72:1 146:1 214:1 285:1 359:1 429:1 524:1 838:1 16892:1 36077:1 48117:0.00719424 48118:0.569868 48119:0.0533889 
0.3838483401895493 12:1 72:1 144:1 215:1 303:1 360:1 440:1 505:1 4703:1 16728:1 32496:1 48117:0.0647482 48118:0.573509 48119:0.4805 
1 73:1 145:1 214:1 286:1 358:1 464:1 503:1 4607:1 20375:1 48117:0.0647482 48118:0.664543 48119:0.276651 
0.2276317503227599 15:1 72:1 154:1 225:1 285:1 378:1 453:1 511:1 750:1 950:1 16718:1 32361:1 48117:0.0215827 48118:0.715976 48119:0.202878 
0.04740538894807145 87:1 152:1 225:1 296:1 365:1 434:1 511:1 2704:1 18472:1 48117:0.143885 48118:0.0150205 48119:0.845324 
0.4966942663166479 7:1 72:1 146:1 214:1 285:1 359:1 434:1 524:1 838:1 16718:1 32369:1 48117:0.00719424 48118:0.0473373 48119:0.0390149 
0.1144569303708758 15:1 72:1 154:1 225:1 285:1 394:1 440:1 508:1 981:1 16749:1 32361:1 48117:0.028777 48118:0.112426 48119:0.162302 
0.1208896840654651 6:1 73:1 153:1 215:1 291:1 366:1 432:1 505:1 706:1 4792:1 20561:1 32448:1 48117:0.0863309 48118:0.116067 48119:0.486906 
0.1235494478636837 16:1 73:1 146:1 215:1 286:1 359:1 453:1 507:1 838:1 20218:1 36359:1 48117:0.0791367 48118:0.220756 48119:0.656369 
0.5691132113130359 73:1 153:1 225:1 286:1 366:1 434:1 502:1 710:1 4846:1 20614:1 48117:0.172662 48118:0.323623 48119:0.839494 
0.09630796115244691 1:1 83:1 155:1 225:1 285:1 368:1 451:1 500:1 1078:1 16846:1 36391:1 48117:0.0215827 48118:0.358671 48119:0.132312 
1 73:1 146:1 215:1 286:1 359:1 432:1 502:1 706:1 838:1 16657:1 48117:0.122302 48118:0.375512 48119:0.556278 
0.02894778705320753 7:1 73:1 144:1 215:1 286:1 360:1 434:1 506:1 4864:1 20634:1 32369:1 48117:0.0719424 48118:0.399181 48119:0.362282 
0.137977189631468 73:1 147:1 225:1 286:1 360:1 434:1 507:1 2200:1 17968:1 48117:0.129496 48118:0.459263 48119:0.702269 
0.09492335423261557 6:1 73:1 147:1 215:1 291:1 360:1 432:1 505:1 706:1 4884:1 20653:1 32448:1 48117:0.115108 48118:0.470187 48119:0.624239 
0.658527829947042 129:1 157:1 250:1 342:1 370:1 464:1 502:1 3072:1 17398:1 48117:0.258993 48118:0.532544 48119:0.760791 
0.07475006954515415 73:1 147:1 225:1 286:1 360:1 434:1 506:1 3874:1 19642:1 48117:0.0719424 48118:0.567137 48119:0.390149 
0.2170065804761247 31:1 73:1 151:1 215:1 296:1 364:1 457:1 501:1 823:1 18039:1 33172:1 48117:0.129496 48118:0.582613 48119:0.676259 
0.01454124849330562 7:1 73:1 144:1 215:1 286:1 360:1 434:1 507:1 2271:1 18039:1 32369:1 48117:0.151079 48118:0.583978 48119:0.788969 
0.1450051772876632 1:1 90:1 162:1 232:1 286:1 364:1 474:1 514:1 862:1 16630:1 34756:1 48117:0.136691 48118:0.607647 48119:0.621722 
0.1684709775455715 2:1 73:1 144:1 215:1 286:1 360:1 456:1 506:1 929:1 18850:1 34618:1 48117:0.057554 48118:0.703687 48119:0.386434 
0.005880971401148219 5:1 73:1 145:1 215:1 286:1 358:1 431:1 507:1 1963:1 17029:1 32797:1 48117:0.0215827 48118:0.0582613 48119:0.11271 
0.1432031433697679 5:1 73:1 147:1 215:1 286:1 360:1 431:1 506:1 4936:1 17029:1 32797:1 48117:0.100719 48118:0.0951297 48119:0.568058 
0.5174431853794936 1:1 83:1 167:1 225:1 285:1 380:1 450:1 514:1 1903:1 17671:1 32523:1 48117:0.129496 48118:0.119709 48119:0.589 
0.03699876509247523 73:1 147:1 225:1 286:1 360:1 434:1 502:1 4391:1 20159:1 48117:0.172662 48118:0.12244 48119:0.785333 
0.1343035758354877 6:1 73:1 153:1 215:1 291:1 366:1 432:1 505:1 706:1 2170:1 20724:1 32448:1 48117:0.0935252 48118:0.131543 48119:0.775709 
0.2266260914642965 12:1 72:1 144:1 215:1 286:1 360:1 434:1 501:1 1247:1 16702:1 32470:1 48117:0.028777 48118:0.00182066 48119:0.106778 
0.1027284426600485 7:1 73:1 144:1 215:1 286:1 360:1 434:1 541:1 1664:1 17432:1 32369:1 48117:0.165468 48118:0.032772 48119:0.864109 
0.7213771949481664 2:1 72:1 154:1 214:1 285:1 368:1 429:1 501:1 934:1 16702:1 32705:1 48117:0.0935252 48118:0.00591716 48119:0.454726 
0.0524235953833669 26:1 73:1 146:1 215:1 286:1 359:1 453:1 514:1 838:1 16789:1 32393:1 48117:0.0719424 48118:0.0291306 48119:0.390149 
0.5415843314023318 19:1 87:1 152:1 229:1 296:1 365:1 434:1 524:1 3572:1 19340:1 32398:1 48117:0.136691 48118:0.0814747 48119:0.494189 
0.03409341178007651 2:1 73:1 146:1 215:1 286:1 359:1 453:1 500:1 838:1 20763:1 36531:1 48117:0.028777 48118:0.0350478 48119:0.135252 
0.9887746561589623 73:1 146:1 214:1 286:1 359:1 448:1 514:1 838:1 20764:1 48117:0.100719 48118:0.0395995 48119:0.473381 
0.06960314185563535 108:1 186:1 214:1 321:1 399:1 441:1 514:1 1529:1 16789:1 48117:0.136691 48118:0.0919436 48119:0.91778 
1 19:1 108:1 146:1 250:1 296:1 359:1 434:1 507:1 732:1 838:1 16961:1 32729:1 48117:0.194245 48118:0.164315 48119:0.760791 
1 73:1 147:1 225:1 286:1 360:1 450:1 506:1 1479:1 17247:1 48117:0.172662 48118:0.185253 48119:0.811511 
0.04950341559017021 73:1 145:1 225:1 286:1 358:1 434:1 500:1 5084:1 20852:1 48117:0.0647482 48118:0.340464 48119:0.702269 
0.03721164269774999 2:1 73:1 146:1 215:1 286:1 359:1 429:1 500:1 838:1 20889:1 36653:1 48117:0.0431655 48118:0.0223031 48119:0.304317 
0.3848570557454862 1:1 83:1 155:1 225:1 285:1 368:1 450:1 500:1 3406:1 19174:1 32517:1 48117:0.172662 48118:0.0546199 48119:0.716039 
0.1495879425413524 26:1 72:1 144:1 215:1 285:1 366:1 434:1 501:1 2300:1 17258:1 32616:1 48117:0.028777 48118:0.0491579 48119:0.135252 
0.6193098444585132 107:1 159:1 215:1 320:1 372:1 434:1 514:1 1023:1 16789:1 48117:0.100719 48118:0.198452 48119:0.747444 
0.6173559497602807 7:1 87:1 152:1 229:1 296:1 365:1 434:1 536:1 5181:1 20949:1 32556:1 48117:0.028777 48118:0.242148 48119:0.11934 
0.09217840571977455 73:1 153:1 214:1 286:1 366:1 448:1 507:1 831:1 16599:1 48117:0.158273 48118:0.265817 48119:0.637616 
1 19:1 83:1 180:1 225:1 296:1 393:1 453:1 524:1 721:1 1066:1 17789:1 32832:1 48117:0.201439 48118:0.268548 48119:0.811511 
1 2:1 106:1 154:1 248:1 319:1 368:1 429:1 542:1 934:1 16702:1 32476:1 48117:0.172662 48118:0.282658 48119:0.541007 
0.1903799401181697 2:1 73:1 180:1 215:1 286:1 393:1 435:1 502:1 1066:1 16595:1 32363:1 48117:0.115108 48118:0.331816 48119:0.507194 
1 15:1 72:1 154:1 225:1 285:1 368:1 434:1 502:1 934:1 16702:1 32361:1 48117:0.194245 48118:0.0446063 48119:0.829954 
0.3101794549626979 19:1 87:1 152:1 229:1 296:1 365:1 435:1 515:1 3277:1 19045:1 32401:1 48117:0.0431655 48118:0.0883022 48119:0.289825 
1 2:1 72:1 146:1 214:1 285:1 359:1 437:1 502:1 838:1 16633:1 34965:1 48117:0.0215827 48118:0.121529 48119:0.121727 
0.905865139692799 73:1 146:1 214:1 286:1 359:1 448:1 500:1 838:1 21099:1 48117:0.179856 48118:0.160674 48119:0.845324 
0.03739599982825363 32:1 73:1 145:1 215:1 286:1 358:1 458:1 514:1 2680:1 21193:1 36961:1 48117:0.0143885 48118:0.139281 48119:0.0699578 
0.1655301367187344 26:1 72:1 146:1 214:1 285:1 359:1 453:1 502:1 741:1 838:1 21205:1 35402:1 48117:0.0359712 48118:0.153846 48119:0.195075 
0.01553526057838067 1:1 83:1 144:1 215:1 286:1 360:1 434:1 508:1 3724:1 21230:1 37001:1 48117:0.0503597 48118:0.19299 48119:0.284029 
1 87:1 146:1 215:1 300:1 359:1 437:1 507:1 838:1 20589:1 48117:0.18705 48118:0.0923987 48119:0.753546 
0.2032443834414526 12:1 72:1 144:1 214:1 319:1 366:1 453:1 539:1 5550:1 17777:1 33545:1 48117:0.00719424 48118:0.146108 48119:0.0724563 
0.7562650164421372 73:1 147:1 215:1 291:1 360:1 432:1 505:1 706:1 1940:1 17708:1 48117:0.0863309 48118:0.162494 48119:0.608633 
0.3700646238067639 97:1 169:1 229:1 310:1 382:1 440:1 524:1 5599:1 17201:1 48117:0.0935252 48118:0.172053 48119:0.439568 
0.2616710988826893 107:1 159:1 225:1 320:1 372:1 450:1 514:1 1136:1 16904:1 48117:0.143885 48118:0.193901 48119:0.811511 
0.3333423230816797 2:1 72:1 146:1 214:1 285:1 359:1 429:1 524:1 838:1 16698:1 34568:1 48117:0.00719424 48118:0.209376 48119:0.0780299 
0.493991586217323 26:1 83:1 146:1 225:1 296:1 359:1 453:1 524:1 676:1 754:1 838:1 18001:1 34552:1 48117:0.0647482 48118:0.213018 48119:0.702269 
0.6185752333217967 73:1 146:1 214:1 286:1 359:1 444:1 502:1 838:1 19142:1 48117:0.258993 48118:0.173418 48119:0.258993 
1 1:1 72:1 180:1 214:1 285:1 393:1 435:1 508:1 689:1 1066:1 16633:1 32401:1 48117:0.345324 48118:0.17888 48119:0.345324 
1 19:1 73:1 144:1 215:1 286:1 360:1 435:1 506:1 1302:1 17070:1 32466:1 48117:0.0935252 48118:0.227128 48119:0.376773 
0.1571220928773934 73:1 153:1 225:1 286:1 366:1 434:1 514:1 4546:1 20314:1 48117:0.129496 48118:0.0414201 48119:0.608633 
0.8555229147544028 4:1 73:1 144:1 215:1 286:1 366:1 434:1 507:1 1859:1 19725:1 32374:1 48117:0.0863309 48118:0.0523441 48119:0.368869 
1 15:1 72:1 154:1 225:1 285:1 368:1 429:1 501:1 934:1 16702:1 32361:1 48117:0.0863309 48118:0.00546199 48119:0.304317 
0.1067388153196773 32:1 73:1 145:1 215:1 291:1 358:1 458:1 505:1 5710:1 18280:1 34048:1 48117:0.0719424 48118:0.0655439 48119:0.441038 
0.5972171429871551 12:1 72:1 144:1 215:1 286:1 360:1 432:1 502:1 706:1 940:1 16684:1 32452:1 48117:0.0215827 48118:0.116067 48119:0.0760791 
0.04042530812003855 73:1 147:1 225:1 286:1 360:1 434:1 508:1 1755:1 17523:1 48117:0.179856 48118:0.126081 48119:0.633993 
0.008292945979129416 15:1 72:1 154:1 225:1 285:1 368:1 436:1 501:1 4009:1 19777:1 32361:1 48117:0.0935252 48118:0.138826 48119:0.775709 
0.1805880436127157 2:1 97:1 169:1 239:1 296:1 382:1 443:1 501:1 1117:1 16885:1 33209:1 48117:0.100719 48118:0.147019 48119:0.788969 
0.1429348394834656 6:1 73:1 144:1 215:1 286:1 366:1 432:1 507:1 706:1 5797:1 16990:1 32448:1 48117:0.0647482 48118:0.0518889 48119:0.570594 
0.01892189702003945 73:1 145:1 214:1 291:1 358:1 439:1 505:1 2691:1 18459:1 48117:0.0215827 48118:0.0013655 48119:0.0950989 
0.03040269388417211 15:1 72:1 154:1 225:1 285:1 368:1 437:1 502:1 2122:1 17890:1 32361:1 48117:0.057554 48118:0.00364133 48119:0.30056 
0.07520220656874431 15:1 72:1 154:1 225:1 285:1 368:1 434:1 508:1 727:1 840:1 16608:1 32361:1 48117:0.00719424 48118:0.0291306 48119:0.0596699 
0.5535741917842606 12:1 83:1 156:1 225:1 296:1 369:1 440:1 536:1 1163:1 16931:1 35130:1 48117:0.28777 48118:0.0696404 48119:0.882077 
0.03530235750193269 12:1 72:1 144:1 214:1 296:1 385:1 450:1 515:1 692:1 1204:1 20432:1 36200:1 48117:0.0935252 48118:0.225307 48119:0.313977 
0.7371272301424628 7:1 73:1 144:1 215:1 286:1 360:1 434:1 506:1 2360:1 18128:1 32352:1 48117:0.158273 48118:0.317706 48119:0.619904 
0.1206121603448823 15:1 72:1 154:1 225:1 285:1 394:1 440:1 508:1 981:1 16749:1 32361:1 48117:0.028777 48118:0.325899 48119:0.450839 
0.2939983672405699 2:1 106:1 154:1 248:1 319:1 368:1 429:1 542:1 934:1 16702:1 32476:1 48117:0.230216 48118:0.375057 48119:0.662458 
0.3539952726610076 97:1 169:1 215:1 286:1 382:1 432:1 502:1 706:1 5892:1 21660:1 48117:0.122302 48118:0.395995 48119:0.57482 
0.02449899446641958 2:1 73:1 146:1 215:1 286:1 359:1 429:1 500:1 838:1 21673:1 37441:1 48117:0.0791367 48118:0.42558 48119:0.79702 
0.7730442477581233 15:1 72:1 154:1 225:1 285:1 368:1 450:1 508:1 1112:1 16880:1 32361:1 48117:0.0143885 48118:0.0796541 48119:0.0579651 
0.4938220676934006 2:1 72:1 146:1 214:1 285:1 359:1 429:1 502:1 838:1 17053:1 34654:1 48117:0.0215827 48118:0.0960401 48119:0.0950989 
1 1:1 72:1 148:1 214:1 285:1 361:1 456:1 501:1 1015:1 17237:1 33005:1 48117:0.0647482 48118:0.0710059 48119:0.2945 
0.1469078738198941 5:1 73:1 147:1 215:1 286:1 360:1 431:1 506:1 1260:1 17029:1 32797:1 48117:0.129496 48118:0.0751024 48119:0.589 
0.02764783622504295 73:1 145:1 214:1 286:1 358:1 444:1 506:1 2252:1 18020:1 48117:0.129496 48118:0.024579 48119:0.507194 
0.01157042889305667 14:1 83:1 168:1 225:1 296:1 382:1 440:1 520:1 2579:1 20741:1 36509:1 48117:0.100719 48118:0.0823851 48119:0.835379 
0.5378889768255802 7:1 73:1 144:1 215:1 286:1 366:1 434:1 507:1 727:1 2951:1 18719:1 32461:1 48117:0.107914 48118:0.209832 48119:0.585224 
0.02719668290124992 73:1 147:1 214:1 286:1 360:1 444:1 507:1 1018:1 16786:1 48117:0.0647482 48118:0.235321 48119:0.36518 
0.04579158354104634 7:1 83:1 144:1 225:1 286:1 360:1 434:1 507:1 710:1 5635:1 20765:1 32995:1 48117:0.165468 48118:0.279472 48119:0.804515 
1 12:1 73:1 144:1 215:1 286:1 360:1 440:1 507:1 2443:1 18211:1 33346:1 48117:0.316547 48118:0.30223 48119:0.94964 
0.0499802134388796 10:1 73:1 159:1 215:1 286:1 372:1 436:1 507:1 1627:1 17738:1 33341:1 48117:0.115108 48118:0.310878 48119:0.405755 
0.9663659866997073 15:1 72:1 154:1 225:1 285:1 373:1 440:1 514:1 930:1 16698:1 32361:1 48117:0.0359712 48118:0.324078 48119:0.390149 
0.1137826143290378 15:1 72:1 154:1 225:1 285:1 368:1 440:1 514:1 960:1 16728:1 32361:1 48117:0.0359712 48118:0.349112 48119:0.195075 
0.03223924322755398 9:1 73:1 169:1 215:1 296:1 382:1 435:1 502:1 2236:1 17005:1 32481:1 48117:0.0719424 48118:0.484752 48119:0.724563 
1 2:1 73:1 146:1 215:1 286:1 359:1 429:1 502:1 838:1 18063:1 33831:1 48117:0.172662 48118:0.0869367 48119:0.869476 
0.1377691245114677 12:1 72:1 168:1 214:1 296:1 382:1 451:1 520:1 1453:1 20908:1 36676:1 48117:0.251799 48118:0.0873919 48119:0.845324 
0.2909899923606285 1:1 83:1 165:1 225:1 296:1 378:1 450:1 519:1 2778:1 18546:1 37672:1 48117:0.0647482 48118:0.125171 48119:0.570594 
0.3888403254725484 15:1 72:1 154:1 225:1 285:1 368:1 450:1 508:1 6148:1 21916:1 32361:1 48117:0.0647482 48118:0.197542 48119:0.285297 
0.3742670510501288 7:1 73:1 144:1 215:1 291:1 360:1 434:1 505:1 2778:1 18546:1 32352:1 48117:0.129496 48118:0.239417 48119:0.829954 
0.7312036537377479 12:1 72:1 144:1 215:1 286:1 360:1 434:1 545:1 3195:1 17237:1 33005:1 48117:0.136691 48118:0.263086 48119:0.470082 
1 73:1 146:1 214:1 286:1 359:1 444:1 508:1 838:1 18963:1 48117:0.165468 48118:0.264907 48119:0.569047 
0.8075264955907808 2:1 72:1 146:1 214:1 285:1 359:1 429:1 508:1 838:1 16698:1 37643:1 48117:0.100719 48118:0.429222 48119:0.405755 
0.461419903054603 12:1 72:1 144:1 214:1 286:1 360:1 440:1 506:1 889:1 16815:1 32583:1 48117:0.18705 48118:0.038234 48119:0.799215 
0.1170036904749887 10:1 73:1 169:1 215:1 296:1 382:1 436:1 522:1 1001:1 16652:1 32382:1 48117:0.122302 48118:0.00773782 48119:0.821172 
0.2767875802008138 73:1 153:1 215:1 286:1 366:1 450:1 502:1 4513:1 20281:1 48117:0.273381 48118:0.0514338 48119:0.896436 
0.171894744501521 12:1 83:1 168:1 225:1 296:1 382:1 440:1 536:1 1419:1 16749:1 37832:1 48117:0.0431655 48118:0.231224 48119:0.434738 
0.253061773331913 26:1 83:1 156:1 225:1 296:1 369:1 453:1 524:1 934:1 16702:1 37859:1 48117:0.0863309 48118:0.0291306 48119:0.358019 
0.9121318587201285 2:1 72:1 146:1 214:1 285:1 359:1 429:1 500:1 838:1 16608:1 32407:1 48117:0.0647482 48118:0.0646336 48119:0.456475 
0.4082027171855713 7:1 72:1 144:1 214:1 286:1 360:1 434:1 506:1 5468:1 21236:1 32480:1 48117:0.143885 48118:0.108785 48119:0.845324 
1 19:1 83:1 155:1 225:1 285:1 368:1 435:1 502:1 934:1 16702:1 33256:1 48117:0.143885 48118:0.136095 48119:0.780299 
0.1518060744525688 24:1 107:1 159:1 249:1 320:1 372:1 450:1 514:1 1023:1 16789:1 32378:1 48117:0.0863309 48118:0.00546199 48119:0.304317 
0.07329338041713954 51:1 107:1 169:1 249:1 285:1 382:1 477:1 502:1 2940:1 16789:1 32557:1 48117:0.028777 48118:0.0591716 48119:0.289825 
1 19:1 83:1 180:1 225:1 296:1 393:1 448:1 502:1 1066:1 22043:1 32402:1 48117:0.143885 48118:0.116523 48119:0.520199 
0.1046595398577659 2:1 72:1 146:1 214:1 285:1 359:1 443:1 524:1 838:1 17740:1 34991:1 48117:0.00719424 48118:0.340919 48119:0.030739 
0.09366121580216755 19:1 83:1 154:1 225:1 296:1 377:1 449:1 503:1 1989:1 22243:1 32398:1 48117:0.122302 48118:0.379153 48119:0.479017 
0.3127907896428684 1:1 83:1 155:1 225:1 285:1 368:1 450:1 527:1 2488:1 18256:1 33709:1 48117:0.215827 48118:0.385071 48119:0.845324 
1 15:1 72:1 154:1 225:1 285:1 368:1 435:1 502:1 934:1 16702:1 32361:1 48117:0.0359712 48118:0.390077 48119:0.281775 
0.5709910253493407 38:1 108:1 158:1 229:1 300:1 408:1 434:1 524:1 1911:1 17679:1 32602:1 48117:0.122302 48118:0.00773782 48119:0.410586 
0.05062394615782766 2:1 73:1 146:1 215:1 286:1 359:1 429:1 500:1 838:1 16913:1 32681:1 48117:0.223022 48118:0.0810196 48119:0.714683 
0.05967804190967576 2:1 73:1 146:1 215:1 286:1 359:1 429:1 500:1 838:1 22263:1 38031:1 48117:0.244604 48118:0.102412 48119:0.932141 
0.1882986491137269 7:1 73:1 187:1 215:1 286:1 400:1 434:1 508:1 830:1 18274:1 32369:1 48117:0.0647482 48118:0.125626 48119:0.253597 
0.02664473654835521 83:1 181:1 215:1 285:1 394:1 434:1 527:1 6504:1 22272:1 48117:0.115108 48118:0.154301 48119:0.368869 
0.3380088022373656 1:1 90:1 146:1 232:1 303:1 359:1 434:1 546:1 663:1 838:1 16607:1 38041:1 48117:0.208633 48118:0.160218 48119:0.668574 
0.1679983761288852 15:1 72:1 154:1 225:1 285:1 368:1 467:1 508:1 3612:1 19380:1 32361:1 48117:0.0431655 48118:0.185708 48119:0.17901 
0.5069584239251597 73:1 146:1 214:1 286:1 359:1 465:1 500:1 838:1 18273:1 48117:0.0935252 48118:0.272189 48119:0.527482 
0.4195419636292011 73:1 172:1 214:1 296:1 385:1 479:1 510:1 1185:1 16953:1 48117:0.244604 48118:0.293127 48119:0.884339 
1 19:1 83:1 156:1 225:1 296:1 369:1 475:1 536:1 2448:1 18216:1 33166:1 48117:0.028777 48118:0.313609 48119:0.0966084 
0.04954571246325781 8:1 107:1 195:1 249:1 291:1 408:1 434:1 505:1 1911:1 16789:1 32687:1 48117:0.0431655 48118:0.333637 48119:0.103158 
1 73:1 147:1 232:1 286:1 360:1 465:1 506:1 4047:1 19815:1 48117:0.129496 48118:0.120164 48119:0.73036 
0.3589440905202634 12:1 83:1 156:1 225:1 296:1 369:1 440:1 515:1 1163:1 16931:1 33874:1 48117:0.100719 48118:0.15157 48119:0.489705 
0.7070013553110134 73:1 146:1 214:1 286:1 359:1 439:1 500:1 838:1 17127:1 48117:0.0791367 48118:0.182066 48119:0.697392 
0.8892648956410401 1:1 87:1 152:1 229:1 286:1 365:1 450:1 502:1 3263:1 19031:1 32456:1 48117:0.136691 48118:0.229859 48119:0.803058 
0.01925910104686883 12:1 72:1 144:1 214:1 286:1 366:1 448:1 507:1 3959:1 16653:1 32421:1 48117:0.0791367 48118:0.0851161 48119:0.359944 
1 73:1 146:1 214:1 286:1 359:1 444:1 500:1 838:1 22392:1 48117:0.057554 48118:0.194811 48119:0.219327 
0.04463165751460418 73:1 172:1 214:1 291:1 385:1 444:1 505:1 6630:1 22398:1 48117:0.0215827 48118:0.122895 48119:0.0676259 
0.02810798962089073 27:1 97:1 144:1 239:1 286:1 366:1 453:1 514:1 739:1 1364:1 18004:1 33772:1 48117:0.158273 48118:0.156577 48119:0.572219 
0.2584134642571678 12:1 72:1 144:1 214:1 285:1 385:1 444:1 501:1 1843:1 17237:1 33005:1 48117:0.028777 48118:0.166136 48119:0.176415 
0.4291958594122838 73:1 147:1 214:1 286:1 360:1 456:1 502:1 2286:1 18054:1 48117:0.0215827 48118:0.229859 48119:0.23409 
0.622488487055423 97:1 169:1 214:1 286:1 382:1 465:1 508:1 1343:1 17111:1 48117:0.0215827 48118:0.269914 48119:0.0981666 
0.3565895674127427 2:1 73:1 146:1 215:1 286:1 359:1 437:1 508:1 838:1 17136:1 38302:1 48117:0.0503597 48118:0.389622 48119:0.26299 
0.2137463175828099 6:1 73:1 144:1 215:1 286:1 366:1 432:1 501:1 706:1 6767:1 17136:1 32448:1 48117:0.0719424 48118:0.390988 48119:0.375699 
0.2072536375449878 2:1 106:1 154:1 248:1 319:1 368:1 429:1 542:1 934:1 16702:1 35278:1 48117:0.0647482 48118:0.464269 48119:0.702269 
0.05944577764012042 12:1 72:1 144:1 214:1 296:1 366:1 450:1 515:1 1747:1 16634:1 32402:1 48117:0.0215827 48118:0.467456 48119:0.380396 
0.08224728874098869 2:1 72:1 146:1 214:1 285:1 359:1 429:1 502:1 838:1 16728:1 38165:1 48117:0.0143885 48118:0.484297 48119:0.126799 
1 73:1 145:1 214:1 286:1 358:1 456:1 500:1 1103:1 16871:1 48117:0.028777 48118:0.49249 48119:0.176415 
0.2701900467744693 73:1 153:1 215:1 286:1 366:1 464:1 507:1 6816:1 22584:1 48117:0.172662 48118:0.512062 48119:0.459346 
0.4477303875513397 1:1 83:1 155:1 225:1 285:1 368:1 451:1 527:1 6525:1 22293:1 33436:1 48117:0.136691 48118:0.53391 48119:0.621722 
1 2:1 72:1 146:1 214:1 285:1 359:1 456:1 502:1 838:1 21350:1 33379:1 48117:0.0143885 48118:0.574875 48119:0.11271 
0.4305128735815742 73:1 147:1 225:1 286:1 360:1 450:1 507:1 6884:1 22652:1 48117:0.244604 48118:0.704142 48119:0.884339 
0.07742757302322822 6:1 73:1 147:1 215:1 286:1 360:1 432:1 538:1 706:1 6641:1 21460:1 32448:1 48117:0.0143885 48118:0.756941 48119:0.0922171 
0.2513244274049845 26:1 72:1 144:1 214:1 285:1 385:1 453:1 539:1 949:1 19024:1 36304:1 48117:0.00719424 48118:0.777424 48119:0.0563549 
0.1468401815598136 6:1 73:1 147:1 215:1 286:1 360:1 432:1 538:1 706:1 4292:1 22675:1 32448:1 48117:0.107914 48118:0.0159308 48119:0.490833 
1 12:1 72:1 144:1 214:1 285:1 358:1 439:1 501:1 16702:1 32470:1 48117:0.057554 48118:0.0127447 48119:0.219327 
0.1096871479096687 2:1 73:1 146:1 215:1 286:1 359:1 435:1 500:1 838:1 17405:1 33173:1 48117:0.0791367 48118:0.0527993 48119:0.507194 
0.1467564765206499 15:1 72:1 154:1 225:1 285:1 394:1 467:1 527:1 1356:1 17124:1 32361:1 48117:0.00719424 48118:0.024579 48119:0.126799 
1 108:1 186:1 215:1 321:1 399:1 464:1 511:1 1529:1 22704:1 48117:0.0215827 48118:0.0377788 48119:0.202878 
1 1:1 83:1 156:1 225:1 296:1 369:1 450:1 515:1 934:1 16702:1 32402:1 48117:0.0503597 48118:0.116978 48119:0.32276 
1 44:1 72:1 157:1 214:1 285:1 370:1 470:1 527:1 825:1 16718:1 33065:1 48117:0.0359712 48118:0.261265 48119:0.724563 
0.03432012036399239 2:1 73:1 146:1 215:1 286:1 359:1 429:1 500:1 838:1 22807:1 38573:1 48117:0.18705 48118:0.27401 48119:0.643271 
1 12:1 72:1 146:1 214:1 285:1 359:1 444:1 507:1 838:1 16775:1 32543:1 48117:0.0791367 48118:0.302685 48119:0.656369 
0.1295939172395661 73:1 153:1 225:1 286:1 366:1 434:1 507:1 7057:1 22825:1 48117:0.0503597 48118:0.333637 48119:0.18207 
0.9976637639978103 12:1 106:1 144:1 248:1 319:1 366:1 440:1 520:1 7076:1 16749:1 32699:1 48117:0.0143885 48118:0.385981 48119:0.184434 
0.3375824413021244 7:1 83:1 146:1 225:1 296:1 359:1 434:1 500:1 838:1 20325:1 32369:1 48117:0.179856 48118:0.450159 48119:0.874473 
0.4894364429300143 1:1 83:1 144:1 225:1 296:1 366:1 450:1 511:1 6766:1 22861:1 36297:1 48117:0.0431655 48118:0.454711 48119:0.121727 
0.2745169181953394 19:1 90:1 148:1 232:1 303:1 361:1 447:1 502:1 912:1 17052:1 32820:1 48117:0.194245 48118:0.500683 48119:0.595402 
0.127620033663513 42:1 73:1 144:1 215:1 286:1 360:1 468:1 506:1 7114:1 21702:1 32364:1 48117:0.280576 48118:0.506145 48119:0.860025 
0.1592487712530066 73:1 145:1 225:1 291:1 358:1 434:1 505:1 6951:1 22719:1 48117:0.129496 48118:0.541193 48119:0.570594 
0.07738310912865773 2:1 73:1 146:1 215:1 286:1 359:1 435:1 500:1 838:1 22902:1 38670:1 48117:0.107914 48118:0.554392 48119:0.563549 
0.6383172816685585 12:1 72:1 146:1 214:1 285:1 359:1 465:1 502:1 838:1 17704:1 32368:1 48117:0.0503597 48118:0.606281 48119:0.355036 
0.9501081142754527 1:1 90:1 150:1 232:1 296:1 363:1 451:1 520:1 862:1 16630:1 32466:1 48117:0.0359712 48118:0.614474 48119:0.169065 
1 7:1 83:1 146:1 225:1 296:1 359:1 434:1 515:1 838:1 16775:1 32369:1 48117:0.0215827 48118:0.653619 48119:0.0621054 
0.1415543109009187 7:1 73:1 187:1 215:1 286:1 400:1 436:1 501:1 830:1 17779:1 32832:1 48117:0.194245 48118:0.819754 48119:0.497973 
1 72:1 157:1 285:1 370:1 502:1 825:1 17465:1 48117:0.18705 48118:0.873009 48119:0.976819 
1 87:1 152:1 225:1 296:1 365:1 434:1 511:1 48117:0.00719424 48118:0.0791989 48119:0.0422662 
1 38:1 73:1 145:1 215:1 286:1 358:1 464:1 500:1 1742:1 17510:1 32602:1 48117:0.028777 48118:0.133364 48119:0.676259 
0.3899520497402877 73:1 153:1 215:1 286:1 366:1 464:1 514:1 1392:1 17160:1 48117:0.309353 48118:0.0851161 48119:0.7393 
0.931458566128323 38:1 73:1 144:1 215:1 286:1 360:1 464:1 507:1 4144:1 17160:1 33380:1 48117:0.00719424 48118:0.0928539 48119:0.030739 
0.8962485595582317 73:1 153:1 225:1 286:1 366:1 434:1 500:1 2913:1 18681:1 48117:0.0647482 48118:0.124716 48119:0.326053 
1 73:1 147:1 215:1 286:1 360:1 464:1 514:1 1011:1 16779:1 48117:0.129496 48118:0.228493 48119:0.760791 
1 2:1 73:1 180:1 215:1 286:1 393:1 429:1 502:1 1031:1 16779:1 32547:1 48117:0.136691 48118:0.228949 48119:0.803058 
0.01659148704165831 17:1 121:1 146:1 263:1 334:1 359:1 443:1 514:1 838:1 18318:1 33255:1 48117:0.0719424 48118:0.242604 48119:0.215827 
1 2:1 73:1 146:1 215:1 286:1 359:1 443:1 502:1 838:1 21050:1 36818:1 48117:0.258993 48118:0.298134 48119:0.811511 
0.3995334957707881 6:1 73:1 144:1 215:1 296:1 360:1 432:1 520:1 706:1 7295:1 23065:1 32448:1 48117:0.107914 48118:0.0204825 48119:0.760791 
0.06947816888877728 16:1 87:1 146:1 229:1 300:1 359:1 483:1 550:1 838:1 23087:1 38854:1 48117:0.151079 48118:0.0728266 48119:0.665692 
0.01596069747762547 7:1 73:1 144:1 215:1 286:1 360:1 434:1 507:1 7343:1 23111:1 32556:1 48117:0.23741 48118:0.118798 48119:0.904725 
1 15:1 72:1 154:1 225:1 285:1 373:1 440:1 527:1 1007:1 16775:1 32361:1 48117:0.0503597 48118:0.200273 48119:0.473381 
0.0477741124877246 6:1 73:1 144:1 215:1 286:1 366:1 432:1 501:1 706:1 7403:1 23172:1 32448:1 48117:0.129496 48118:0.309513 48119:0.829954 
1 1:1 72:1 180:1 214:1 285:1 393:1 435:1 508:1 1066:1 16677:1 32445:1 48117:0.0791367 48118:0.414201 48119:0.464928 
0.1469324569626838 15:1 72:1 154:1 225:1 285:1 394:1 453:1 527:1 708:1 7477:1 23245:1 32361:1 48117:0.0359712 48118:0.469276 48119:0.266944 
0.4666859250436675 12:1 72:1 144:1 214:1 285:1 385:1 465:1 501:1 906:1 17125:1 32893:1 48117:0.0359712 48118:0.542558 48119:0.507194 
0.09467925700463474 6:1 73:1 147:1 215:1 291:1 360:1 432:1 505:1 706:1 7339:1 18365:1 32448:1 48117:0.107914 48118:0.605826 48119:0.800833 
1 1:1 72:1 180:1 214:1 285:1 393:1 456:1 524:1 1066:1 16600:1 32368:1 48117:0.0431655 48118:0.647246 48119:0.264623 
1 73:1 147:1 225:1 291:1 360:1 450:1 505:1 7549:1 23317:1 48117:0.0503597 48118:0.00318616 48119:0.229055 
1 73:1 147:1 215:1 286:1 360:1 432:1 502:1 706:1 1197:1 16965:1 48117:0.0719424 48118:0.0518889 48119:0.29835 
0.3855286161874079 15:1 72:1 154:1 225:1 285:1 368:1 450:1 508:1 1165:1 16933:1 32361:1 48117:0.00719424 48118:0.0860264 48119:0.0483042 
0.03690792295357166 15:1 72:1 154:1 225:1 285:1 368:1 437:1 500:1 4186:1 19954:1 32361:1 48117:0.0215827 48118:0.112881 48119:0.507194 
0.08189129433850384 7:1 73:1 144:1 215:1 286:1 360:1 434:1 506:1 4908:1 20676:1 32404:1 48117:0.0647482 48118:0.140191 48119:0.456475 
0.9228666589065333 73:1 146:1 225:1 286:1 359:1 435:1 500:1 838:1 18783:1 48117:0.107914 48118:0.193901 48119:0.585224 
0.1711924801350529 27:1 73:1 144:1 215:1 285:1 366:1 434:1 501:1 7717:1 17065:1 32832:1 48117:0.0143885 48118:0.229859 48119:0.0751399 
0.09725237102820887 25:1 73:1 151:1 215:1 285:1 364:1 451:1 535:1 869:1 23522:1 39287:1 48117:0.0719424 48118:0.324989 48119:0.22542 
0.8497716672969491 12:1 72:1 146:1 214:1 285:1 359:1 439:1 524:1 838:1 18828:1 34596:1 48117:0.0791367 48118:0.38416 48119:0.656369 
0.1823487455609952 26:1 83:1 146:1 225:1 296:1 359:1 453:1 514:1 838:1 16915:1 32393:1 48117:0.0791367 48118:0.0314065 48119:0.348696 
0.06482664609075001 1:1 87:1 152:1 229:1 300:1 365:1 450:1 524:1 3721:1 17221:1 32661:1 48117:0.0359712 48118:0.00227583 48119:0.338129 
0.2637644707226826 6:1 73:1 144:1 215:1 291:1 382:1 432:1 505:1 706:1 1080:1 18346:1 32448:1 48117:0.100719 48118:0.0737369 48119:0.430347 
0.06484547113200188 6:1 73:1 144:1 215:1 286:1 360:1 432:1 506:1 706:1 854:1 23626:1 32448:1 48117:0.0503597 48118:0.10833 48119:0.244852 
0.04853036730628681 2:1 73:1 146:1 215:1 286:1 359:1 429:1 500:1 838:1 23628:1 35680:1 48117:0.165468 48118:0.13564 48119:0.729092 
0.0441525187704452 2:1 73:1 146:1 215:1 286:1 359:1 429:1 500:1 838:1 16900:1 39403:1 48117:0.0935252 48118:0.145653 48119:0.627955 
0.7551858531088508 15:1 72:1 154:1 225:1 285:1 368:1 430:1 500:1 934:1 16702:1 32361:1 48117:0.0215827 48118:0.164315 48119:0.152158 
1 72:1 157:1 285:1 370:1 524:1 825:1 17237:1 48117:0.143885 48118:0.380519 48119:0.966084 
0.06349670861052059 2:1 73:1 146:1 215:1 286:1 359:1 436:1 508:1 838:1 23688:1 39454:1 48117:0.215827 48118:0.013655 48119:0.724563 
0.0001694408873384948 4:1 73:1 161:1 232:1 296:1 376:1 456:1 526:1 1630:1 23699:1 32374:1 48117:0.0863309 48118:0.024579 48119:0.392667 
0.1456319431690436 1:1 90:1 150:1 232:1 296:1 363:1 456:1 502:1 862:1 16630:1 38857:1 48117:0.0359712 48118:0.0491579 48119:0.163611 
0.07972774117919691 73:1 153:1 215:1 286:1 366:1 434:1 514:1 7970:1 23738:1 48117:0.23741 48118:0.156577 48119:0.836871 
0.08617305160752815 7:1 73:1 144:1 215:1 296:1 366:1 450:1 520:1 7982:1 23750:1 32378:1 48117:0.0935252 48118:0.202549 48119:0.399608 
0.4008825206750311 12:1 72:1 144:1 214:1 285:1 358:1 444:1 501:1 7932:1 22706:1 38474:1 48117:0.0647482 48118:0.287665 48119:0.285297 
0.1179110107215702 6:1 73:1 144:1 215:1 286:1 366:1 432:1 507:1 706:1 2121:1 23841:1 32448:1 48117:0.0935252 48118:0.391443 48119:0.54946 
0.7727653326948829 7:1 83:1 144:1 225:1 296:1 358:1 434:1 520:1 700:1 8107:1 22014:1 32745:1 48117:0.258993 48118:0.485207 48119:0.849255 
0.2812655302836242 73:1 187:1 214:1 286:1 400:1 439:1 560:1 830:1 23894:1 48117:0.107914 48118:0.517069 48119:0.434738 
0.3038342799450137 12:1 83:1 167:1 225:1 296:1 380:1 440:1 527:1 1328:1 17096:1 39666:1 48117:0.215827 48118:0.523896 48119:0.869476 
0.1510289597395486 1:1 83:1 168:1 225:1 296:1 382:1 450:1 515:1 1927:1 16775:1 33709:1 48117:0.100719 48118:0.571689 48119:0.394484 
0.0960417554580187 12:1 72:1 144:1 215:1 286:1 360:1 434:1 506:1 727:1 7000:1 17237:1 33005:1 48117:0.028777 48118:0.648157 48119:0.10404 
0.1002572006136043 12:1 72:1 144:1 215:1 286:1 366:1 434:1 507:1 813:1 23961:1 39729:1 48117:0.0791367 48118:0.689122 48119:0.39851 
0.4342566632774512 73:1 147:1 225:1 286:1 360:1 450:1 506:1 4590:1 20358:1 48117:0.151079 48118:0.727811 48119:0.665692 
0.5878038780000265 73:1 145:1 215:1 286:1 358:1 434:1 500:1 748:1 2684:1 18452:1 48117:0.165468 48118:0.743286 48119:0.864109 
0.05232357932386589 73:1 145:1 215:1 291:1 358:1 434:1 505:1 8214:1 23982:1 48117:0.0647482 48118:0.775603 48119:0.31481 
0.002009506598558906 2:1 73:1 146:1 215:1 286:1 359:1 429:1 500:1 838:1 23985:1 38908:1 48117:0.158273 48118:0.78152 48119:0.769536 
0.008461916461587929 2:1 73:1 146:1 215:1 286:1 359:1 429:1 500:1 838:1 23985:1 39752:1 48117:0.172662 48118:0.782431 48119:0.839494 
0.04421902213205273 73:1 147:1 220:1 291:1 360:1 450:1 505:1 8246:1 24014:1 48117:0.179856 48118:0.896677 48119:0.845324 
0.008628995144238209 73:1 153:1 214:1 291:1 366:1 439:1 505:1 4670:1 20438:1 48117:0.0935252 48118:0.949932 48119:0.366307 
0.2254598046162398 12:1 72:1 144:1 214:1 286:1 360:1 439:1 506:1 5636:1 16702:1 32470:1 48117:0.23741 48118:0.959035 48119:0.929856 
0.5286012024046692 38:1 106:1 144:1 248:1 286:1 360:1 464:1 500:1 2180:1 16702:1 36900:1 48117:0.179856 48118:0.988621 48119:0.905704 
1 15:1 106:1 180:1 248:1 319:1 393:1 441:1 502:1 5364:1 16702:1 32361:1 48117:0.18705 48118:0.989076 48119:0.941932 
0.0176618867802003 73:1 153:1 214:1 286:1 366:1 465:1 538:1 8285:1 24053:1 48117:0.165468 48118:0.0295858 48119:0.457469 
0.07060017679468093 7:1 83:1 144:1 225:1 286:1 360:1 434:1 502:1 708:1 1184:1 19144:1 32832:1 48117:0.115108 48118:0.0892126 48119:0.360671 
0.1482409477609262 14:1 83:1 168:1 225:1 296:1 412:1 440:1 520:1 2777:1 24074:1 39842:1 48117:0.122302 48118:0.151115 48119:0.507194 
0.9245042242791626 73:1 172:1 225:1 291:1 385:1 434:1 521:1 8126:1 23894:1 48117:0.028777 48118:0.160674 48119:0.130889 
0.8923652685394653 73:1 153:1 215:1 286:1 366:1 450:1 507:1 1781:1 17549:1 48117:0.165468 48118:0.209376 48119:0.833248 
0.3761433191347847 1:1 83:1 144:1 225:1 296:1 385:1 450:1 522:1 1185:1 24092:1 32516:1 48117:0.223022 48118:0.0141102 48119:0.714683 
1 73:1 187:1 215:1 286:1 400:1 434:1 502:1 830:1 17951:1 48117:0.122302 48118:0.0277651 48119:0.594642 
0.05132185006950067 12:1 83:1 169:1 225:1 296:1 382:1 440:1 510:1 1195:1 16915:1 33454:1 48117:0.0431655 48118:0.0609923 48119:0.380396 
1 15:1 72:1 154:1 225:1 285:1 368:1 434:1 501:1 934:1 16702:1 32361:1 48117:0.0647482 48118:0.0987711 48119:0.380396 
0.224495773074374 1:1 90:1 203:1 274:1 296:1 363:1 475:1 501:1 941:1 16709:1 39890:1 48117:0.0431655 48118:0.10833 48119:0.380396 
0.2402886145259232 12:1 72:1 144:1 214:1 286:1 360:1 437:1 507:1 1656:1 18404:1 34172:1 48117:0.28777 48118:0.0341375 48119:0.687721 
0.04241635659480682 2:1 73:1 146:1 215:1 286:1 359:1 429:1 500:1 838:1 22051:1 36862:1 48117:0.215827 48118:0.207556 48119:0.724563 
0.02891895442567889 73:1 145:1 225:1 286:1 358:1 436:1 506:1 4032:1 19800:1 48117:0.0863309 48118:0.21848 48119:0.358019 
1 2:1 72:1 146:1 214:1 285:1 359:1 429:1 502:1 838:1 16702:1 39945:1 48117:0.0143885 48118:0.0564406 48119:0.101439 
0.08680925177708183 7:1 73:1 144:1 215:1 291:1 366:1 434:1 505:1 8417:1 24185:1 32556:1 48117:0.100719 48118:0.0796541 48119:0.591727 
0.5347507668885722 73:1 147:1 225:1 286:1 360:1 437:1 507:1 1123:1 16891:1 48117:0.158273 48118:0.10924 48119:0.619904 
0.05509062826102339 2:1 73:1 146:1 215:1 286:1 359:1 453:1 500:1 838:1 24194:1 39962:1 48117:0.136691 48118:0.12426 48119:0.713829 
1 12:1 72:1 146:1 214:1 285:1 359:1 444:1 524:1 838:1 16698:1 32466:1 48117:0.0359712 48118:0.13564 48119:0.281775 
0.0764872666130488 17:1 73:1 145:1 215:1 296:1 358:1 443:1 510:1 1691:1 17459:1 32440:1 48117:0.107914 48118:0.173418 48119:0.691629 
0.07782938894925352 12:1 83:1 169:1 225:1 296:1 382:1 440:1 510:1 1195:1 16915:1 38110:1 48117:0.129496 48118:0.174784 48119:0.829954 
0.2452556689938256 12:1 72:1 144:1 214:1 285:1 366:1 465:1 501:1 5017:1 16629:1 32397:1 48117:0.0431655 48118:0.190715 48119:0.264623 
0.6792283637785332 6:1 73:1 146:1 215:1 286:1 359:1 432:1 502:1 706:1 838:1 24177:1 32448:1 48117:0.165468 48118:0.224852 48119:0.833248 
0.1033668395724944 2:1 73:1 146:1 215:1 286:1 359:1 435:1 500:1 838:1 22291:1 38059:1 48117:0.165468 48118:0.237597 48119:0.666598 
1 19:1 83:1 144:1 215:1 286:1 360:1 434:1 506:1 2212:1 24212:1 32635:1 48117:0.165468 48118:0.276741 48119:0.583273 
0.1187336205288482 12:1 72:1 144:1 215:1 285:1 360:1 434:1 501:1 2740:1 24214:1 39982:1 48117:0.0143885 48118:0.285389 48119:0.0845324 
0.1407473885587369 12:1 72:1 144:1 215:1 286:1 360:1 434:1 506:1 3077:1 16698:1 32466:1 48117:0.0431655 48118:0.341375 48119:0.358019 
0.3641648061369637 1:1 83:1 160:1 225:1 285:1 373:1 450:1 502:1 4798:1 20566:1 38279:1 48117:0.143885 48118:0.38416 48119:0.811511 
1 1:1 83:1 160:1 225:1 285:1 373:1 450:1 527:1 2636:1 18404:1 32487:1 48117:0.0647482 48118:0.038234 48119:0.36518 
0.2902809608890391 6:1 73:1 153:1 215:1 291:1 366:1 432:1 505:1 706:1 2341:1 19917:1 32448:1 48117:0.151079 48118:0.0896677 48119:0.507194 
1 2:1 72:1 146:1 214:1 285:1 359:1 435:1 508:1 838:1 16702:1 34450:1 48117:0.028777 48118:0.171598 48119:0.176415 
0.04755373057086386 2:1 73:1 146:1 215:1 286:1 359:1 429:1 500:1 838:1 24282:1 32383:1 48117:0.122302 48118:0.177515 48119:0.749765 
0.1587232331070551 7:1 73:1 144:1 215:1 286:1 360:1 434:1 545:1 8203:1 23971:1 32404:1 48117:0.158273 48118:0.0427856 48119:0.743885 
0.1465433922274304 73:1 153:1 215:1 291:1 366:1 434:1 505:1 2635:1 18403:1 48117:0.107914 48118:0.172053 48119:0.524684 
0.04206968120915053 6:1 73:1 144:1 215:1 286:1 366:1 432:1 501:1 706:1 8555:1 17406:1 32448:1 48117:0.215827 48118:0.224397 48119:0.633993 
1 72:1 157:1 285:1 370:1 502:1 825:1 16633:1 48117:0.107914 48118:0.342285 48119:0.950989 
0.7702183330734449 73:1 146:1 214:1 286:1 359:1 444:1 500:1 838:1 18547:1 48117:0.0791367 48118:0.016386 48119:0.202878 
1 2:1 72:1 146:1 214:1 285:1 359:1 456:1 502:1 838:1 17239:1 32721:1 48117:0.129496 48118:0.0682749 48119:0.358019 
0.8942922548734129 2:1 106:1 154:1 248:1 319:1 368:1 429:1 501:1 934:1 16702:1 35014:1 48117:0.266187 48118:0.0769231 48119:0.735929 
0.1151461051962898 2:1 106:1 154:1 248:1 319:1 368:1 429:1 542:1 934:1 16702:1 40123:1 48117:0.143885 48118:0.101957 48119:0.533889 
0.6737539372731083 7:1 83:1 144:1 225:1 286:1 360:1 434:1 506:1 2187:1 21382:1 32369:1 48117:0.143885 48118:0.021848 48119:0.780299 
0.2775836573046671 12:1 72:1 144:1 214:1 286:1 360:1 439:1 506:1 2589:1 16702:1 32470:1 48117:0.028777 48118:0.0459718 48119:0.122956 
0.01207956103122455 73:1 145:1 215:1 291:1 358:1 429:1 505:1 5779:1 21547:1 48117:0.18705 48118:0.0883022 48119:0.712814 
1 73:1 146:1 248:1 286:1 359:1 434:1 500:1 838:1 16859:1 48117:0.208633 48118:0.0896677 48119:0.795061 
0.3494081343683465 73:1 145:1 220:1 291:1 358:1 432:1 505:1 706:1 3244:1 19012:1 48117:0.100719 48118:0.197087 48119:0.458111 
1 15:1 72:1 154:1 225:1 285:1 394:1 440:1 508:1 832:1 16600:1 32361:1 48117:0.0431655 48118:0.0200273 48119:0.676259 
1 6:1 72:1 146:1 214:1 285:1 359:1 432:1 500:1 706:1 838:1 16698:1 32448:1 48117:0.0143885 48118:0.0223031 48119:0.106778 
0.1478299141698528 73:1 153:1 214:1 286:1 366:1 444:1 538:1 8672:1 24440:1 48117:0.0503597 48118:0.0332271 48119:0.417689 
0.2858417462709716 15:1 72:1 154:1 225:1 285:1 373:1 434:1 508:1 6938:1 22706:1 32361:1 48117:0.057554 48118:0.0336823 48119:0.477359 
0.4002788577885547 73:1 153:1 214:1 286:1 366:1 464:1 507:1 8692:1 24460:1 48117:0.143885 48118:0.0919436 48119:0.654444 
0.01509712009520486 73:1 147:1 215:1 286:1 360:1 434:1 500:1 6993:1 22761:1 48117:0.107914 48118:0.00682749 48119:0.461086 
0.1804605383712317 73:1 147:1 225:1 286:1 360:1 434:1 506:1 8700:1 24468:1 48117:0.280576 48118:0.105143 48119:0.824191 
0.02921818300942191 97:1 169:1 225:1 310:1 382:1 434:1 524:1 1377:1 16769:1 48117:0.107914 48118:0.154756 48119:0.507194 
0.5791641268316381 15:1 72:1 154:1 225:1 285:1 373:1 440:1 500:1 1007:1 16775:1 32361:1 48117:0.0647482 48118:0.0732817 48119:0.326053 
0.006421124321475753 32:1 73:1 145:1 215:1 286:1 358:1 458:1 500:1 8761:1 24523:1 40291:1 48117:0.028777 48118:0.116523 48119:0.11934 
0.8085979518064634 73:1 146:1 214:1 286:1 359:1 453:1 500:1 838:1 24537:1 48117:0.115108 48118:0.154301 48119:0.338129 
0.6629349223674713 1:1 90:1 150:1 232:1 296:1 363:1 456:1 510:1 862:1 16630:1 32543:1 48117:0.0143885 48118:0.224852 48119:0.169065 
0.1090122553218927 3:1 73:1 145:1 215:1 286:1 358:1 429:1 538:1 3077:1 23463:1 40302:1 48117:0.100719 48118:0.235776 48119:0.430347 
0.06699108618187927 6:1 73:1 152:1 215:1 296:1 365:1 432:1 520:1 706:1 8751:1 21641:1 32448:1 48117:0.18705 48118:0.241238 48119:0.799215 
0.6144723249552898 12:1 83:1 165:1 225:1 296:1 378:1 440:1 524:1 866:1 16634:1 35859:1 48117:0.136691 48118:0.299954 48119:0.876063 
0.3278310517800986 12:1 72:1 144:1 214:1 286:1 366:1 439:1 506:1 3154:1 16702:1 32470:1 48117:0.0863309 48118:0.357761 48119:0.811511 
0.3612362905005878 15:1 72:1 154:1 225:1 285:1 368:1 477:1 502:1 1667:1 17435:1 32361:1 48117:0.0359712 48118:0.405098 48119:0.220519 
1 73:1 146:1 225:1 286:1 359:1 434:1 502:1 838:1 17438:1 48117:0.100719 48118:0.42376 48119:0.546209 
0.2960088265257858 12:1 72:1 144:1 214:1 286:1 360:1 448:1 545:1 4594:1 17488:1 33256:1 48117:0.129496 48118:0.0182066 48119:0.414977 
0.1086402746723507 38:1 73:1 144:1 215:1 286:1 360:1 434:1 506:1 8811:1 24579:1 32602:1 48117:0.158273 48118:0.0200273 48119:0.507194 
0.1613399767336377 7:1 83:1 144:1 225:1 296:1 360:1 434:1 520:1 3703:1 16718:1 32556:1 48117:0.129496 48118:0.0782886 48119:0.468179 
0.3437200609755375 1:1 83:1 165:1 225:1 296:1 378:1 456:1 519:1 2646:1 18414:1 34885:1 48117:0.0431655 48118:0.197997 48119:0.196333 
0.3175378614180613 2:1 72:1 146:1 214:1 285:1 359:1 435:1 502:1 838:1 16987:1 33496:1 48117:0.0647482 48118:0.213473 48119:0.228237 
0.06042357570102899 73:1 145:1 214:1 286:1 358:1 448:1 506:1 5518:1 21286:1 48117:0.0935252 48118:0.128357 48119:0.347028 
0.05085030502093505 1:1 72:1 148:1 214:1 285:1 361:1 456:1 501:1 912:1 16749:1 32517:1 48117:0.129496 48118:0.130633 48119:0.4805 
0.1486987435465219 73:1 147:1 225:1 286:1 360:1 434:1 506:1 2101:1 17869:1 48117:0.0863309 48118:0.183887 48119:0.34779 
0.313520319579289 15:1 72:1 154:1 225:1 285:1 394:1 450:1 501:1 8929:1 24697:1 32361:1 48117:0.0863309 48118:0.278562 48119:0.368869 
0.1487212225405237 15:1 72:1 154:1 225:1 285:1 394:1 440:1 508:1 832:1 16600:1 32361:1 48117:0.028777 48118:0.0323168 48119:0.176415 
0.09253817561956708 2:1 72:1 146:1 214:1 285:1 359:1 429:1 502:1 838:1 16815:1 32530:1 48117:0.0719424 48118:0.0564406 48119:0.441038 
0.4048761964002084 12:1 72:1 144:1 214:1 321:1 385:1 439:1 501:1 906:1 16702:1 32470:1 48117:0.0647482 48118:0.116067 48119:0.23409 
0.04838344603440102 12:1 72:1 144:1 214:1 285:1 385:1 448:1 535:1 906:1 16653:1 32421:1 48117:0.172662 48118:0.155212 48119:0.56617 
0.5497234747220638 7:1 73:1 144:1 215:1 291:1 360:1 434:1 505:1 2752:1 18520:1 32597:1 48117:0.0431655 48118:0.184797 48119:0.338129 
0.9891644480022547 12:1 72:1 144:1 214:1 286:1 366:1 439:1 502:1 1865:1 16702:1 32470:1 48117:0.0143885 48118:0.224852 48119:0.0699578 
1 73:1 147:1 225:1 286:1 360:1 434:1 502:1 700:1 889:1 16657:1 48117:0.23741 48118:0.267638 48119:0.760791 
1 73:1 147:1 225:1 286:1 360:1 434:1 507:1 1108:1 16876:1 48117:0.266187 48118:0.269458 48119:0.853009 
1 42:1 72:1 144:1 214:1 286:1 360:1 468:1 507:1 1755:1 16633:1 32364:1 48117:0.0143885 48118:0.306327 48119:0.0845324 
0.04190998221822588 73:1 147:1 214:1 286:1 360:1 453:1 506:1 3273:1 19041:1 48117:0.0143885 48118:0.346381 48119:0.0507194 
0.3453802306480643 12:1 72:1 144:1 214:1 285:1 385:1 444:1 502:1 991:1 22058:1 37826:1 48117:0.0215827 48118:0.0914884 48119:0.138326 
0.2334934705849658 73:1 147:1 225:1 291:1 360:1 434:1 505:1 9020:1 24788:1 48117:0.115108 48118:0.0974056 48119:0.737737 
1 2:1 72:1 146:1 214:1 285:1 359:1 456:1 508:1 838:1 16728:1 32527:1 48117:0.028777 48118:0.111516 48119:0.11934 
0.2993485776623132 73:1 147:1 215:1 286:1 360:1 464:1 506:1 7995:1 23763:1 48117:0.143885 48118:0.134274 48119:0.375699 
0.1283383020562634 6:1 73:1 144:1 215:1 286:1 360:1 432:1 507:1 706:1 6438:1 18543:1 32448:1 48117:0.230216 48118:0.207556 48119:0.811511 
0.04621337753819617 108:1 186:1 225:1 321:1 399:1 434:1 511:1 2297:1 24840:1 48117:0.251799 48118:0.254893 48119:0.845324 
0.2502521624857304 87:1 157:1 273:1 300:1 370:1 489:1 560:1 1337:1 24870:1 48117:0.0431655 48118:0.394174 48119:0.304317 
0.7491409070452567 108:1 186:1 225:1 321:1 399:1 434:1 502:1 2297:1 16976:1 48117:0.0935252 48118:0.417387 48119:0.54946 
0.6646538722745103 73:1 153:1 215:1 286:1 366:1 432:1 507:1 706:1 9147:1 24915:1 48117:0.0647482 48118:0.505234 48119:0.456475 
0.4983370315036084 42:1 73:1 180:1 215:1 286:1 393:1 468:1 527:1 1066:1 19471:1 32364:1 48117:0.0863309 48118:0.544379 48119:0.276651 
0.03742691916396755 2:1 73:1 146:1 215:1 286:1 359:1 429:1 500:1 838:1 24944:1 40712:1 48117:0.0503597 48118:0.0314065 48119:0.32276 
0.3505730608714002 12:1 72:1 144:1 214:1 286:1 360:1 439:1 506:1 1188:1 16702:1 32470:1 48117:0.194245 48118:0.0505234 48119:0.91295 
0.1581505871057236 12:1 83:1 148:1 225:1 296:1 361:1 440:1 508:1 912:1 16775:1 34447:1 48117:0.0719424 48118:0.00455166 48119:0.289825 
0.5543945357804625 6:1 73:1 144:1 215:1 286:1 360:1 432:1 502:1 706:1 3068:1 16630:1 32448:1 48117:0.172662 48118:0.0268548 48119:0.716039 
0.7838249659883351 12:1 83:1 148:1 225:1 296:1 361:1 440:1 508:1 912:1 16702:1 33618:1 48117:0.107914 48118:0.0473373 48119:0.345814 
0.3315485109499035 73:1 146:1 215:1 286:1 359:1 431:1 500:1 838:1 24957:1 48117:0.294964 48118:0.0591716 48119:0.945226 
0.3670377093259963 73:1 153:1 214:1 286:1 366:1 456:1 514:1 1678:1 17446:1 48117:0.057554 48118:0.0641784 48119:0.197929 
0.02329244744320977 7:1 73:1 144:1 215:1 286:1 360:1 432:1 514:1 1011:1 16779:1 33447:1 48117:0.208633 48118:0.101047 48119:0.754289 
0.1128375379573008 6:1 73:1 144:1 215:1 286:1 360:1 432:1 508:1 706:1 1261:1 25000:1 32448:1 48117:0.0863309 48118:0.0145653 48119:0.608633 
0.7275732898414493 73:1 145:1 215:1 291:1 358:1 432:1 505:1 706:1 9235:1 25003:1 48117:0.100719 48118:0.024579 48119:0.546209 
0.4556754940499471 2:1 72:1 146:1 214:1 285:1 359:1 436:1 502:1 838:1 16653:1 36505:1 48117:0.028777 48118:0.0773782 48119:0.15606 
0.1959042308799518 6:1 73:1 144:1 215:1 291:1 360:1 432:1 505:1 706:1 9257:1 25025:1 32448:1 48117:0.115108 48118:0.0555303 48119:0.541007 
0.09497096626462022 15:1 72:1 154:1 225:1 285:1 368:1 435:1 527:1 5358:1 21126:1 32361:1 48117:0.0791367 48118:0.126991 48119:0.656369 
0.1392516128016909 73:1 147:1 225:1 286:1 360:1 434:1 507:1 9276:1 25044:1 48117:0.0503597 48118:0.148839 48119:0.273105 
0.117598436747183 5:1 73:1 147:1 215:1 286:1 360:1 431:1 506:1 5338:1 17029:1 32797:1 48117:0.0503597 48118:0.0418753 48119:0.221897 
1 73:1 147:1 215:1 286:1 360:1 432:1 506:1 706:1 1605:1 17373:1 48117:0.143885 48118:0.102412 48119:0.596699 
0.09687770889784293 73:1 147:1 214:1 286:1 360:1 448:1 506:1 3507:1 19275:1 48117:0.0431655 48118:0.161129 48119:0.405755 
1 2:1 72:1 146:1 214:1 285:1 359:1 435:1 524:1 838:1 16702:1 32425:1 48117:0.00719424 48118:0.16568 48119:0.0422662 
1 73:1 147:1 225:1 286:1 360:1 450:1 502:1 929:1 16697:1 48117:0.129496 48118:0.00819299 48119:0.570594 
0.02944366307755968 1:1 83:1 156:1 225:1 296:1 369:1 450:1 515:1 1810:1 17578:1 35728:1 48117:0.0719424 48118:0.032772 48119:0.281775 
1 19:1 83:1 146:1 225:1 296:1 359:1 434:1 508:1 838:1 25093:1 32358:1 48117:0.122302 48118:0.0751024 48119:0.492703 
1 12:1 72:1 144:1 214:1 286:1 360:1 439:1 506:1 1108:1 16702:1 32470:1 48117:0.0359712 48118:0.106509 48119:0.202878 
0.2160593132217431 15:1 72:1 154:1 225:1 285:1 373:1 450:1 502:1 9335:1 25103:1 32361:1 48117:0.0143885 48118:0.171598 48119:0.0922171 
0.9328760740356291 19:1 73:1 144:1 215:1 296:1 360:1 450:1 522:1 4815:1 20583:1 33319:1 48117:0.028777 48118:0.217569 48119:0.184434 
0.2094897063045484 12:1 72:1 144:1 215:1 286:1 366:1 450:1 507:1 1859:1 16600:1 32368:1 48117:0.0215827 48118:0.309058 48119:0.0707713 
0.4211853000437076 15:1 72:1 154:1 225:1 285:1 394:1 450:1 506:1 2255:1 18023:1 32361:1 48117:0.0215827 48118:0.114702 48119:0.190198 
1 7:1 83:1 146:1 225:1 296:1 359:1 434:1 520:1 838:1 25137:1 32358:1 48117:0.18705 48118:0.132453 48119:0.732614 
0.8106452234589332 1:1 90:1 151:1 232:1 296:1 364:1 467:1 520:1 862:1 16630:1 32466:1 48117:0.165468 48118:0.236231 48119:0.630566 
0.04889028157430771 15:1 72:1 154:1 225:1 285:1 373:1 434:1 506:1 9400:1 25168:1 32361:1 48117:0.0143885 48118:0.265362 48119:0.0780299 
0.09210846775128644 6:1 73:1 144:1 215:1 286:1 366:1 432:1 506:1 706:1 1322:1 18871:1 32448:1 48117:0.0215827 48118:0.277651 48119:0.338129 
0.05004982045036846 12:1 72:1 144:1 214:1 286:1 360:1 439:1 506:1 1656:1 24635:1 40403:1 48117:0.0503597 48118:0.289486 48119:0.473381 
0.0668600901335511 15:1 72:1 154:1 225:1 285:1 368:1 434:1 508:1 9424:1 25192:1 32361:1 48117:0.00719424 48118:0.41147 48119:0.169065 
0.4271794124358846 15:1 72:1 154:1 225:1 285:1 368:1 440:1 508:1 1124:1 16892:1 32361:1 48117:0.0719424 48118:0.418298 48119:0.676259 
0.8098145716819289 73:1 146:1 214:1 286:1 359:1 453:1 500:1 838:1 22943:1 48117:0.194245 48118:0.432863 48119:0.760791 
0.09901516851112852 12:1 72:1 144:1 214:1 285:1 366:1 439:1 501:1 7175:1 16892:1 32660:1 48117:0.143885 48118:0.446063 48119:0.654444 
0.328666412798557 97:1 169:1 214:1 296:1 382:1 464:1 502:1 1218:1 16986:1 48117:0.0431655 48118:0.565316 48119:0.358019 
1 73:1 146:1 214:1 286:1 359:1 451:1 508:1 838:1 20616:1 48117:0.100719 48118:0.576695 48119:0.430347 
0.1236347854733515 2:1 83:1 155:1 225:1 285:1 368:1 456:1 502:1 4013:1 19781:1 32721:1 48117:0.0431655 48118:0.0377788 48119:0.276651 
0.4002794051860401 15:1 72:1 154:1 225:1 285:1 373:1 456:1 500:1 1714:1 17482:1 32361:1 48117:0.0719424 48118:0.190259 48119:0.316996 
0.001233806651485291 6:1 73:1 144:1 215:1 286:1 366:1 432:1 502:1 706:1 2037:1 16647:1 32448:1 48117:0.0503597 48118:0.016386 48119:0.236691 
0.1368714167873265 73:1 159:1 214:1 291:1 372:1 444:1 505:1 1627:1 17395:1 48117:0.0431655 48118:0.0573509 48119:0.507194 
0.01392402896335632 12:1 72:1 144:1 214:1 286:1 366:1 448:1 507:1 1122:1 16653:1 32421:1 48117:0.0647482 48118:0.182522 48119:0.434738 
0.0613967294658619 15:1 72:1 154:1 225:1 285:1 369:1 434:1 501:1 9537:1 25305:1 32361:1 48117:0.0935252 48118:0.197087 48119:0.399608 
0.3200390653822883 7:1 83:1 146:1 225:1 296:1 359:1 434:1 514:1 838:1 17530:1 32369:1 48117:0.0647482 48118:0.262176 48119:0.507194 
1 19:1 83:1 155:1 225:1 285:1 368:1 453:1 506:1 709:1 960:1 16728:1 41091:1 48117:0.122302 48118:0.30132 48119:0.507194 
1 2:1 72:1 146:1 214:1 285:1 359:1 437:1 500:1 838:1 17659:1 33965:1 48117:0.0143885 48118:0.0423305 48119:0.0548318 
0.01173160510257331 73:1 159:1 225:1 310:1 372:1 434:1 524:1 2375:1 18143:1 48117:0.0791367 48118:0.0855712 48119:0.743885 
0.1309604486872405 6:1 73:1 144:1 215:1 286:1 360:1 432:1 507:1 706:1 977:1 18298:1 32448:1 48117:0.115108 48118:0.101957 48119:0.676259 
0.3036683931807332 2:1 73:1 146:1 215:1 286:1 359:1 436:1 508:1 838:1 16639:1 32367:1 48117:0.0647482 48118:0.130633 48119:0.260843 
0.2835411434712603 7:1 83:1 144:1 225:1 296:1 372:1 450:1 510:1 904:1 16802:1 32378:1 48117:0.0791367 48118:0.176604 48119:0.743885 
0.347805804746046 2:1 73:1 146:1 215:1 286:1 359:1 435:1 502:1 838:1 21157:1 36925:1 48117:0.0791367 48118:0.207101 48119:0.371942 
0.04184271154628737 73:1 147:1 215:1 291:1 360:1 453:1 505:1 5643:1 21411:1 48117:0.136691 48118:0.210742 48119:0.642446 
0.0577882244955366 15:1 72:1 154:1 225:1 285:1 368:1 435:1 527:1 9634:1 25402:1 32361:1 48117:0.00719424 48118:0.230314 48119:0.0349789 
0.3549304452123416 12:1 72:1 144:1 215:1 286:1 360:1 434:1 507:1 5144:1 16702:1 32470:1 48117:0.0359712 48118:0.425125 48119:0.18785 
0.9208469218775144 2:1 72:1 146:1 214:1 285:1 359:1 435:1 502:1 838:1 16916:1 41236:1 48117:0.028777 48118:0.0182066 48119:0.176415 
0.2619810841256908 1:1 83:1 160:1 225:1 285:1 373:1 451:1 527:1 9706:1 25474:1 41243:1 48117:0.0647482 48118:0.0455166 48119:0.157405 
0.1291123237549084 7:1 73:1 144:1 215:1 286:1 360:1 434:1 506:1 9768:1 25536:1 33606:1 48117:0.100719 48118:0.279927 48119:0.617454 
0.8705107927606487 7:1 72:1 187:1 214:1 285:1 400:1 434:1 502:1 830:1 20901:1 32369:1 48117:0.158273 48118:0.323168 48119:0.697392 
0.005303886366681872 15:1 129:1 201:1 272:1 342:1 378:1 429:1 544:1 950:1 16718:1 34608:1 48117:0.0863309 48118:0.429222 48119:0.486906 
0.3305330682118652 73:1 145:1 225:1 286:1 358:1 450:1 500:1 3326:1 19094:1 48117:0.107914 48118:0.441966 48119:0.434738 
0.02840763169524258 38:1 73:1 144:1 215:1 286:1 360:1 464:1 506:1 4051:1 19819:1 33380:1 48117:0.00719424 48118:0.461994 48119:0.0266944 
0.008306102790378404 12:1 72:1 144:1 214:1 285:1 366:1 465:1 501:1 9813:1 23728:1 39496:1 48117:0.0143885 48118:0.531634 48119:0.0811511 
1 2:1 73:1 146:1 215:1 286:1 359:1 435:1 508:1 838:1 18088:1 33856:1 48117:0.0863309 48118:0.561675 48119:0.468179 
0.6026552308198185 73:1 159:1 225:1 286:1 372:1 435:1 500:1 1027:1 19608:1 48117:0.129496 48118:0.00819299 48119:0.521686 
1 107:1 159:1 225:1 320:1 372:1 434:1 514:1 708:1 1136:1 16789:1 48117:0.0863309 48118:0.0509786 48119:0.264623 
0.07479063784073808 73:1 147:1 215:1 286:1 360:1 434:1 507:1 4041:1 19809:1 48117:0.151079 48118:0.119709 48119:0.560583 
0.8741120025143239 2:1 72:1 146:1 214:1 285:1 359:1 429:1 508:1 838:1 16608:1 32384:1 48117:0.0431655 48118:0.002731 48119:0.164495 
0.3819622907019127 73:1 147:1 225:1 286:1 360:1 429:1 506:1 1670:1 17438:1 48117:0.0359712 48118:0.100592 48119:0.253597 
0.7934355460064101 1:1 83:1 156:1 225:1 296:1 369:1 450:1 510:1 2998:1 18766:1 32517:1 48117:0.057554 48118:0.0277651 48119:0.386434 
0.1084689730871083 7:1 83:1 144:1 225:1 296:1 360:1 434:1 522:1 848:1 16725:1 32381:1 48117:0.208633 48118:0.0869367 48119:0.795061 
0.2774368052895988 73:1 159:1 225:1 291:1 372:1 434:1 505:1 4064:1 19832:1 48117:0.0647482 48118:0.117433 48119:0.702269 
0.3883917387023825 7:1 83:1 144:1 225:1 296:1 366:1 450:1 520:1 6312:1 17941:1 32378:1 48117:0.0935252 48118:0.00591716 48119:0.488409 
1 73:1 146:1 214:1 286:1 359:1 439:1 500:1 838:1 16708:1 48117:0.172662 48118:0.0641784 48119:0.760791 
0.07393839574278832 12:1 72:1 144:1 214:1 285:1 385:1 448:1 501:1 984:1 22566:1 38334:1 48117:0.0863309 48118:0.0951297 48119:0.296894 
0.04805677571838677 54:1 125:1 146:1 267:1 338:1 359:1 431:1 508:1 838:1 25681:1 32479:1 48117:0.115108 48118:0.0159308 48119:0.395859 
0.1619185184043682 73:1 147:1 225:1 286:1 360:1 434:1 507:1 3846:1 19614:1 48117:0.0647482 48118:0.0942194 48119:0.652107 
0.02708993315038867 2:1 73:1 146:1 215:1 286:1 359:1 435:1 508:1 838:1 18871:1 34639:1 48117:0.0791367 48118:0.17888 48119:0.131274 
0.2616294590833959 19:1 83:1 154:1 225:1 296:1 378:1 450:1 524:1 3936:1 16665:1 33185:1 48117:0.201439 48118:0.186618 48119:0.334152 
1 106:1 157:1 319:1 370:1 502:1 825:1 25723:1 48117:0.230216 48118:0.269003 48119:0.983649 
0.8651937961654836 73:1 147:1 214:1 286:1 360:1 439:1 500:1 980:1 16748:1 48117:0.0863309 48118:0.00728266 48119:0.676259 
1 1:1 72:1 146:1 214:1 285:1 359:1 431:1 524:1 838:1 16677:1 32466:1 48117:0.00719424 48118:0.111971 48119:0.0405755 
0.1145604657814799 12:1 72:1 144:1 214:1 285:1 366:1 448:1 503:1 2430:1 19858:1 35626:1 48117:0.194245 48118:0.194356 48119:0.829954 
0.1490448958929473 19:1 83:1 165:1 225:1 296:1 378:1 447:1 521:1 1749:1 17517:1 33166:1 48117:0.107914 48118:0.282658 48119:0.447524 
0.4798755473622371 1:1 87:1 152:1 229:1 296:1 365:1 450:1 510:1 1003:1 16771:1 32516:1 48117:0.143885 48118:0.30041 48119:0.614781 
0.0797991458756666 60:1 108:1 180:1 250:1 296:1 393:1 434:1 502:1 1066:1 16601:1 32369:1 48117:0.122302 48118:0.332271 48119:0.538894 
0.8412696536157744 73:1 147:1 250:1 286:1 360:1 464:1 500:1 2278:1 18046:1 48117:0.165468 48118:0.335002 48119:0.729092 
0.336662945726194 19:1 83:1 170:1 225:1 296:1 384:1 447:1 520:1 2873:1 25782:1 33166:1 48117:0.258993 48118:0.363678 48119:0.760791 
1 19:1 73:1 144:1 215:1 286:1 360:1 475:1 506:1 1153:1 16921:1 32398:1 48117:0.0935252 48118:0.564861 48119:0.627955 
1 107:1 159:1 225:1 320:1 372:1 450:1 514:1 1043:1 16811:1 48117:0.0935252 48118:0.751479 48119:0.488409 
1 6:1 73:1 187:1 215:1 286:1 400:1 432:1 500:1 706:1 830:1 25846:1 32448:1 48117:0.0143885 48118:0.000910332 48119:0.101439 
1 2:1 72:1 146:1 214:1 285:1 359:1 435:1 500:1 838:1 16775:1 41627:1 48117:0.028777 48118:0.0427856 48119:0.126799 
0.7809452055176013 73:1 146:1 214:1 286:1 359:1 444:1 500:1 838:1 25859:1 48117:0.0791367 48118:0.0459718 48119:0.348696 
0.1507770431223162 6:1 73:1 144:1 215:1 286:1 360:1 432:1 506:1 706:1 10103:1 25873:1 32448:1 48117:0.129496 48118:0.0887574 48119:0.760791 
0.4768694461538225 2:1 73:1 146:1 215:1 286:1 359:1 435:1 500:1 838:1 20836:1 36604:1 48117:0.0143885 48118:0.11015 48119:0.0533889 
0.1875168267763489 28:1 83:1 156:1 225:1 296:1 369:1 455:1 510:1 932:1 16700:1 34409:1 48117:0.107914 48118:0.116067 48119:0.400417 
0.1136668345663835 15:1 72:1 154:1 225:1 285:1 368:1 455:1 500:1 3392:1 19160:1 32361:1 48117:0.0863309 48118:0.202549 48119:0.579651 
0.3303822808261569 15:1 72:1 154:1 225:1 285:1 368:1 450:1 502:1 3594:1 19362:1 32361:1 48117:0.0215827 48118:0.243059 48119:0.276651 
0.6442652262602912 73:1 146:1 214:1 286:1 359:1 439:1 508:1 838:1 21216:1 48117:0.057554 48118:0.27492 48119:0.368869 
0.3443965400649717 1:1 83:1 167:1 225:1 296:1 380:1 450:1 511:1 3348:1 19116:1 32487:1 48117:0.028777 48118:0.0714611 48119:0.405755 
1 7:1 72:1 146:1 214:1 285:1 359:1 434:1 500:1 838:1 16775:1 32965:1 48117:0.00719424 48118:0.106964 48119:0.0507194 
0.3276001564669343 25:1 73:1 183:1 215:1 296:1 396:1 451:1 520:1 1167:1 19264:1 33373:1 48117:0.0935252 48118:0.112426 48119:0.659353 
0.09866366772235202 73:1 145:1 225:1 291:1 358:1 453:1 505:1 10057:1 25825:1 48117:0.179856 48118:0.16477 48119:0.845324 
0.06346337553961934 73:1 145:1 214:1 291:1 358:1 444:1 505:1 10153:1 25921:1 48117:0.0431655 48118:0.169777 48119:0.320333 
0.001380965900732315 15:1 72:1 154:1 225:1 285:1 368:1 435:1 501:1 3376:1 19144:1 32361:1 48117:0.0791367 48118:0.106054 48119:0.328185 
0.6344892484356062 2:1 72:1 146:1 214:1 285:1 359:1 429:1 502:1 838:1 16915:1 41738:1 48117:0.028777 48118:0.0131998 48119:0.22542 
0.01246126061800009 4:1 73:1 144:1 215:1 286:1 360:1 434:1 507:1 1665:1 16588:1 32374:1 48117:0.057554 48118:0.0150205 48119:0.450839 
0.2107015905415487 73:1 159:1 225:1 286:1 372:1 450:1 524:1 3885:1 19653:1 48117:0.151079 48118:0.00955849 48119:0.760791 
0.5669180547812392 7:1 73:1 144:1 215:1 286:1 366:1 434:1 500:1 5619:1 21387:1 32358:1 48117:0.143885 48118:0.0614474 48119:0.780299 
1 1:1 83:1 180:1 225:1 296:1 393:1 451:1 502:1 1066:1 17237:1 41793:1 48117:0.194245 48118:0.128357 48119:0.702269 
0.3902385716989384 73:1 147:1 214:1 286:1 360:1 464:1 506:1 8196:1 23964:1 48117:0.0647482 48118:0.137915 48119:0.351134 
0.3661983497496865 12:1 72:1 144:1 214:1 296:1 358:1 437:1 510:1 10243:1 20294:1 36062:1 48117:0.100719 48118:0.140191 48119:0.546209 
1 19:1 83:1 158:1 225:1 300:1 365:1 434:1 524:1 10272:1 16698:1 32398:1 48117:0.028777 48118:0.226673 48119:0.213555 
0.1168678075290238 73:1 159:1 220:1 291:1 372:1 450:1 505:1 9353:1 25121:1 48117:0.0719424 48118:0.277651 48119:0.483042 
0.4683375988982337 73:1 145:1 225:1 291:1 358:1 450:1 505:1 4212:1 19980:1 48117:0.0935252 48118:0.321347 48119:0.387854 
0.3207059903909462 73:1 147:1 232:1 291:1 360:1 450:1 505:1 1640:1 17408:1 48117:0.258993 48118:0.376878 48119:0.811511 
1 12:1 72:1 146:1 214:1 285:1 359:1 439:1 524:1 838:1 16702:1 32470:1 48117:0.0359712 48118:0.474283 48119:0.195075 
0.1348287552478678 12:1 72:1 144:1 214:1 286:1 360:1 448:1 538:1 3358:1 17488:1 33256:1 48117:0.00719424 48118:0.497952 48119:0.11271 
1 73:1 146:1 214:1 286:1 359:1 439:1 500:1 838:1 17722:1 48117:0.0935252 48118:0.529358 48119:0.321635 
0.03495994713425276 63:1 73:1 152:1 215:1 296:1 365:1 489:1 522:1 10318:1 26086:1 41237:1 48117:0.266187 48118:0.540282 48119:0.915424 
0.1501259970834037 54:1 125:1 146:1 267:1 338:1 359:1 436:1 502:1 838:1 17799:1 41858:1 48117:0.273381 48118:0.559399 48119:0.513957 
0.00732194006067708 73:1 145:1 214:1 291:1 358:1 439:1 505:1 5326:1 21094:1 48117:0.179856 48118:0.587619 48119:0.724563 
1 73:1 146:1 214:1 286:1 359:1 439:1 500:1 838:1 19246:1 48117:0.0863309 48118:0.00546199 48119:0.283085 
0.3328647783335857 73:1 145:1 215:1 291:1 358:1 464:1 505:1 1177:1 16945:1 48117:0.18705 48118:0.121074 48119:0.659353 
0.2428616934211447 1:1 83:1 167:1 225:1 296:1 380:1 450:1 520:1 3320:1 19088:1 41921:1 48117:0.158273 48118:0.148839 48119:0.572219 
1 12:1 72:1 146:1 214:1 285:1 359:1 444:1 502:1 838:1 16775:1 32543:1 48117:0.0935252 48118:0.203004 48119:0.376773 
0.09969139137295982 73:1 147:1 215:1 286:1 360:1 434:1 506:1 3588:1 19356:1 48117:0.258993 48118:0.140191 48119:0.829954 
0.02067607889413411 7:1 83:1 144:1 225:1 286:1 360:1 434:1 507:1 9280:1 17933:1 33606:1 48117:0.057554 48118:0.19299 48119:0.338129 
0.3495409330247252 15:1 72:1 154:1 225:1 285:1 373:1 483:1 500:1 1737:1 17505:1 32361:1 48117:0.0143885 48118:0.28721 48119:0.0699578 
0.07869026221080873 19:1 90:1 148:1 232:1 303:1 361:1 447:1 502:1 912:1 21016:1 36784:1 48117:0.143885 48118:0.308603 48119:0.563549 
1 1:1 83:1 187:1 225:1 296:1 400:1 451:1 501:1 830:1 17225:1 42080:1 48117:0.294964 48118:0.363223 48119:0.904129 
0.08980238894415461 23:1 83:1 206:1 277:1 296:1 382:1 434:1 501:1 4153:1 26319:1 42087:1 48117:0.251799 48118:0.381429 48119:0.845324 
0.5853315609358635 1:1 83:1 165:1 225:1 296:1 378:1 450:1 524:1 2778:1 18546:1 32990:1 48117:0.107914 48118:0.257169 48119:0.434738 
0.8834916383089324 12:1 72:1 144:1 214:1 286:1 365:1 448:1 506:1 2092:1 26426:1 42194:1 48117:0.467626 48118:0.295858 48119:0.794401 
0.4095950807899287 73:1 172:1 214:1 291:1 385:1 464:1 505:1 3482:1 19250:1 48117:0.568345 48118:0.30223 48119:0.965502 
0.4313797856533226 12:1 72:1 144:1 214:1 286:1 360:1 450:1 507:1 3477:1 26441:1 42209:1 48117:0.208633 48118:0.424215 48119:0.865214 
0.6678128440381819 1:1 90:1 146:1 232:1 303:1 359:1 434:1 505:1 708:1 838:1 16630:1 42169:1 48117:0.0215827 48118:0.427856 48119:0.104937 
1 1:1 90:1 150:1 232:1 296:1 363:1 456:1 511:1 862:1 16630:1 32517:1 48117:0.0215827 48118:0.49431 48119:0.190198 
0.3970256098716974 45:1 106:1 146:1 248:1 319:1 359:1 471:1 529:1 838:1 17237:1 32366:1 48117:0.194245 48118:0.556668 48119:0.595402 
0.08202585848758676 2:1 73:1 146:1 215:1 286:1 359:1 435:1 500:1 838:1 23100:1 38868:1 48117:0.230216 48118:0.558944 48119:0.705662 
0.5503400562943885 73:1 159:1 286:1 372:1 502:1 1290:1 26423:1 48117:0.0791367 48118:0.662722 48119:0.929856 
0.1807220562645359 36:1 73:1 152:1 215:1 286:1 365:1 477:1 506:1 3133:1 18901:1 32557:1 48117:0.0143885 48118:0.0919436 48119:0.0699578 
0.2513507955346255 2:1 72:1 146:1 214:1 285:1 359:1 437:1 524:1 838:1 16962:1 33706:1 48117:0.00719424 48118:0.12244 48119:0.0327222 
0.3441983251434258 2:1 83:1 146:1 225:1 296:1 359:1 437:1 511:1 838:1 17775:1 35509:1 48117:0.115108 48118:0.129267 48119:0.523555 
1 6:1 83:1 146:1 225:1 296:1 359:1 432:1 502:1 711:1 838:1 18107:1 32551:1 48117:0.0791367 48118:0.150205 48119:0.464928 
0.008093579221342981 16:1 73:1 146:1 215:1 286:1 359:1 436:1 502:1 838:1 21225:1 42266:1 48117:0.208633 48118:0.193446 48119:0.700411 
1 19:1 83:1 144:1 215:1 286:1 366:1 434:1 506:1 1368:1 17240:1 32398:1 48117:0.0647482 48118:0.203459 48119:0.190198 
0.1762565374116288 12:1 72:1 144:1 214:1 286:1 366:1 450:1 507:1 813:1 17200:1 32968:1 48117:0.23741 48118:0.214383 48119:0.697392 
1 2:1 72:1 146:1 214:1 285:1 359:1 429:1 524:1 838:1 16702:1 32536:1 48117:0.00719424 48118:0.243514 48119:0.0533889 
1 7:1 83:1 144:1 225:1 286:1 360:1 440:1 514:1 1011:1 16608:1 32593:1 48117:0.100719 48118:0.0518889 48119:0.710072 
0.1604252411073514 6:1 78:1 146:1 220:1 291:1 359:1 432:1 500:1 706:1 838:1 16709:1 32448:1 48117:0.151079 48118:0.0623578 48119:0.626534 
0.4797536918820992 2:1 72:1 146:1 214:1 285:1 359:1 435:1 500:1 838:1 20481:1 35092:1 48117:0.0215827 48118:0.0760127 48119:0.126799 
0.1028416030610395 2:1 73:1 146:1 215:1 286:1 359:1 435:1 500:1 838:1 21574:1 37342:1 48117:0.0791367 48118:0.152025 48119:0.507194 
0.01191609093656867 73:1 145:1 214:1 291:1 358:1 439:1 505:1 1817:1 17585:1 48117:0.100719 48118:0.213473 48119:0.308727 
0.03611217384024345 12:1 72:1 144:1 214:1 285:1 366:1 465:1 501:1 6607:1 18087:1 33855:1 48117:0.136691 48118:0.260355 48119:0.584042 
0.03485858096975959 15:1 72:1 154:1 225:1 285:1 368:1 434:1 502:1 4314:1 20082:1 32361:1 48117:0.0863309 48118:0.311789 48119:0.529246 
0.04206598025111528 6:1 73:1 147:1 215:1 286:1 360:1 432:1 506:1 706:1 3939:1 21894:1 32448:1 48117:0.00719424 48118:0.0505234 48119:0.0274159 
0.3341846297685984 6:1 73:1 146:1 215:1 286:1 359:1 432:1 508:1 755:1 838:1 16789:1 33004:1 48117:0.165468 48118:0.0605371 48119:0.630566 
0.6789149048387374 73:1 146:1 214:1 286:1 359:1 439:1 500:1 838:1 23781:1 48117:0.028777 48118:0.00182066 48119:0.15606 
0.02626678650247951 15:1 72:1 154:1 225:1 285:1 368:1 450:1 502:1 2488:1 18256:1 32361:1 48117:0.0359712 48118:0.0359581 48119:0.169065 
0.1232294337840821 7:1 83:1 165:1 225:1 296:1 378:1 434:1 524:1 1909:1 17677:1 32907:1 48117:0.107914 48118:0.0427856 48119:0.563549 
0.05007541401703083 2:1 73:1 146:1 215:1 286:1 359:1 436:1 508:1 838:1 19064:1 34832:1 48117:0.107914 48118:0.0901229 48119:0.524684 
0.1566883192068489 73:1 147:1 225:1 286:1 360:1 434:1 506:1 849:1 16617:1 48117:0.0431655 48118:0.146108 48119:0.320333 
0.06012723507300401 15:1 72:1 154:1 225:1 285:1 368:1 435:1 500:1 7425:1 23193:1 32361:1 48117:0.0503597 48118:0.163405 48119:0.338129 
0.7253336621212582 73:1 145:1 215:1 291:1 358:1 432:1 505:1 706:1 2282:1 18050:1 48117:0.230216 48118:0.246245 48119:0.854222 
0.4034902487990373 2:1 72:1 146:1 214:1 285:1 359:1 435:1 502:1 838:1 26633:1 34894:1 48117:0.0215827 48118:0.259445 48119:0.144913 
0.1882339284194043 73:1 153:1 215:1 286:1 366:1 432:1 502:1 706:1 2429:1 18197:1 48117:0.0719424 48118:0.262631 48119:0.483042 
1 15:1 72:1 154:1 225:1 285:1 368:1 451:1 500:1 1078:1 16846:1 32361:1 48117:0.0359712 48118:0.269914 48119:0.253597 
0.1638527754690823 7:1 73:1 144:1 215:1 291:1 366:1 434:1 505:1 2652:1 18420:1 33606:1 48117:0.057554 48118:0.400546 48119:0.541007 
0.02416097404702228 73:1 153:1 214:1 286:1 366:1 444:1 506:1 1857:1 17625:1 48117:0.0215827 48118:0.441056 48119:0.121727 
0.5448205670910618 12:1 72:1 144:1 214:1 285:1 360:1 448:1 501:1 10898:1 16653:1 32421:1 48117:0.0935252 48118:0.630405 48119:0.599411 
0.09718525753832187 1:1 83:1 181:1 225:1 285:1 394:1 450:1 527:1 2281:1 18049:1 32945:1 48117:0.0143885 48118:0.747383 48119:0.0596699 
0.2573457557907483 73:1 153:1 214:1 291:1 366:1 478:1 505:1 1678:1 17446:1 48117:0.057554 48118:0.765589 48119:0.427111 
0.02761024161927146 7:1 73:1 144:1 215:1 291:1 360:1 434:1 505:1 3159:1 18927:1 32556:1 48117:0.158273 48118:0.781975 48119:0.656369 
0.28961922244213 73:1 153:1 214:1 291:1 366:1 444:1 505:1 10931:1 26699:1 48117:0.0431655 48118:0.82203 48119:0.304317 
0.3610871870495248 5:1 73:1 147:1 215:1 286:1 360:1 431:1 507:1 1909:1 16725:1 32493:1 48117:0.0863309 48118:0.833864 48119:0.676259 
0.06416780730511859 73:1 153:1 214:1 291:1 366:1 439:1 505:1 10940:1 26708:1 48117:0.0215827 48118:0.00910332 48119:0.152158 
0.4913995440181722 42:1 72:1 144:1 214:1 286:1 360:1 468:1 507:1 3248:1 17757:1 32364:1 48117:0.136691 48118:0.0405098 48119:0.664599 
1 1:1 72:1 180:1 214:1 285:1 393:1 451:1 508:1 1066:1 18005:1 42510:1 48117:0.273381 48118:0.201183 48119:0.837973 
0.1007717613213332 7:1 73:1 146:1 215:1 286:1 359:1 453:1 514:1 838:1 26752:1 33120:1 48117:0.0791367 48118:0.298134 48119:0.507194 
0.1609401684201927 1:1 83:1 156:1 225:1 296:1 369:1 450:1 515:1 7004:1 22772:1 32517:1 48117:0.0143885 48118:0.309513 48119:0.11934 
0.2565739488832947 12:1 83:1 168:1 225:1 296:1 382:1 440:1 511:1 6155:1 16931:1 42526:1 48117:0.151079 48118:0.34365 48119:0.788969 
0.03843884413396519 12:1 72:1 144:1 214:1 303:1 366:1 465:1 544:1 2090:1 26137:1 41905:1 48117:0.201439 48118:0.375967 48119:0.860693 
0.3412753625007315 2:1 72:1 146:1 214:1 285:1 359:1 431:1 502:1 838:1 16698:1 34660:1 48117:0.194245 48118:0.527082 48119:0.537029 
0.2509779766948572 73:1 146:1 214:1 286:1 359:1 439:1 502:1 838:1 17722:1 48117:0.0647482 48118:0.553937 48119:0.2945 
0.5613999036141929 73:1 147:1 215:1 286:1 360:1 432:1 502:1 706:1 1605:1 17373:1 48117:0.0863309 48118:0.00546199 48119:0.419747 
1 73:1 146:1 225:1 286:1 359:1 434:1 502:1 838:1 17438:1 48117:0.129496 48118:0.0213928 48119:0.537029 
0.9425356869998212 12:1 72:1 144:1 214:1 285:1 366:1 439:1 501:1 860:1 16702:1 32470:1 48117:0.143885 48118:0.0919436 48119:0.882077 
0.4996551875284465 2:1 72:1 146:1 214:1 285:1 359:1 437:1 514:1 838:1 18049:1 32396:1 48117:0.0215827 48118:0.186618 48119:0.126799 
0.8610555455104468 1:1 83:1 153:1 225:1 296:1 366:1 450:1 503:1 2636:1 18404:1 33540:1 48117:0.107914 48118:0.0919436 48119:0.661558 
0.1513379942008473 73:1 153:1 215:1 291:1 366:1 434:1 505:1 3949:1 19717:1 48117:0.0359712 48118:0.00227583 48119:0.362282 
0.3828393854890645 11:1 73:1 147:1 215:1 296:1 360:1 437:1 510:1 1103:1 17633:1 33401:1 48117:0.0791367 48118:0.00500683 48119:0.242571 
0.2010654294781958 1:1 83:1 165:1 225:1 296:1 378:1 435:1 519:1 2173:1 17941:1 34113:1 48117:0.0647482 48118:0.0646336 48119:0.31481 
0.04560585199003786 2:1 73:1 146:1 215:1 286:1 359:1 429:1 500:1 838:1 24549:1 40317:1 48117:0.115108 48118:0.0678198 48119:0.559663 
0.1849119524192223 2:1 72:1 146:1 214:1 285:1 359:1 429:1 502:1 838:1 16987:1 42696:1 48117:0.0215827 48118:0.139281 48119:0.0822477 
1 15:1 72:1 154:1 225:1 285:1 368:1 437:1 508:1 1181:1 16949:1 32361:1 48117:0.0143885 48118:0.175694 48119:0.0724563 
0.03586677522861277 2:1 73:1 146:1 215:1 286:1 359:1 429:1 500:1 838:1 24361:1 40129:1 48117:0.115108 48118:0.194811 48119:0.541007 
0.0168242455724181 15:1 72:1 154:1 225:1 285:1 373:1 453:1 501:1 1737:1 17505:1 32361:1 48117:0.0791367 48118:0.274465 48119:0.531346 
0.4223423383872977 73:1 153:1 225:1 291:1 366:1 434:1 505:1 1777:1 17545:1 48117:0.23741 48118:0.294037 48119:0.816459 
0.2125718541728265 15:1 72:1 154:1 225:1 285:1 373:1 450:1 502:1 5621:1 21389:1 32361:1 48117:0.057554 48118:0.331361 48119:0.253597 
1 12:1 72:1 144:1 214:1 286:1 360:1 450:1 506:1 889:1 17248:1 33016:1 48117:0.151079 48118:0.351843 48119:0.734557 
0.1652706248433146 73:1 147:1 225:1 286:1 360:1 434:1 506:1 3416:1 19184:1 48117:0.0647482 48118:0.0200273 48119:0.326053 
1 73:1 145:1 214:1 286:1 358:1 439:1 500:1 1742:1 17510:1 48117:0.0359712 48118:0.00227583 48119:0.281775 
0.1749263314615913 7:1 83:1 144:1 215:1 286:1 366:1 450:1 508:1 2462:1 16916:1 32461:1 48117:0.0647482 48118:0.0040965 48119:0.507194 
1 107:1 159:1 225:1 320:1 372:1 434:1 514:1 1023:1 16789:1 48117:0.0503597 48118:0.0368685 48119:0.546209 
0.6900946603303519 73:1 147:1 215:1 286:1 360:1 432:1 507:1 706:1 6281:1 22049:1 48117:0.107914 48118:0.0464269 48119:0.507194 
0.5016207858452745 2:1 72:1 146:1 214:1 285:1 359:1 429:1 500:1 838:1 17068:1 42751:1 48117:0.0647482 48118:0.111971 48119:0.507194 
0.00243110358296854 87:1 152:1 215:1 300:1 365:1 431:1 502:1 2285:1 16652:1 48117:0.0647482 48118:0.232135 48119:0.246743 
0.5670318291366268 73:1 146:1 214:1 286:1 359:1 439:1 502:1 838:1 16708:1 48117:0.0647482 48118:0.0040965 48119:0.338129 
1 2:1 72:1 146:1 214:1 285:1 359:1 435:1 502:1 838:1 16775:1 33168:1 48117:0.0431655 48118:0.0946746 48119:0.507194 
1 42:1 72:1 146:1 214:1 285:1 359:1 468:1 502:1 838:1 16728:1 32364:1 48117:0.0143885 48118:0.147019 48119:0.0494824 
1 12:1 72:1 187:1 214:1 285:1 400:1 439:1 500:1 830:1 16728:1 32496:1 48117:0.0431655 48118:0.148839 48119:0.148447 
0.05181035506573823 1:1 83:1 156:1 225:1 296:1 369:1 450:1 524:1 9893:1 25661:1 42839:1 48117:0.0503597 48118:0.167956 48119:0.507194 
0.3862578573072232 7:1 72:1 146:1 214:1 285:1 359:1 434:1 500:1 648:1 727:1 838:1 16896:1 32461:1 48117:0.0215827 48118:0.172508 48119:0.0895049 
0.3057688234652657 2:1 72:1 146:1 214:1 285:1 359:1 429:1 524:1 838:1 17713:1 38487:1 48117:0.00719424 48118:0.187073 48119:0.0507194 
0.1402837627336533 12:1 83:1 181:1 225:1 285:1 394:1 451:1 527:1 985:1 16753:1 33677:1 48117:0.0143885 48118:0.196632 48119:0.0699578 
0.4414761627459777 45:1 106:1 157:1 248:1 319:1 370:1 471:1 500:1 825:1 16702:1 32366:1 48117:0.194245 48118:0.208011 48119:0.944431 
0.3535185860714246 15:1 72:1 154:1 225:1 285:1 394:1 450:1 527:1 2641:1 18409:1 32361:1 48117:0.0215827 48118:0.210287 48119:0.190198 
0.08140792430319888 6:1 73:1 144:1 215:1 286:1 360:1 432:1 506:1 706:1 2965:1 18554:1 32448:1 48117:0.0719424 48118:0.213473 48119:0.633993 
1 72:1 157:1 285:1 370:1 507:1 825:1 17893:1 48117:0.0431655 48118:0.23259 48119:0.869476 
1 42:1 72:1 180:1 214:1 393:1 468:1 1066:1 16702:1 32364:1 48118:0.019117 
0.8207834126254077 6:1 73:1 146:1 215:1 286:1 359:1 432:1 500:1 706:1 838:1 17753:1 32448:1 48117:0.151079 48118:0.0482476 48119:0.710072 
0.07794300704734837 7:1 73:1 144:1 215:1 286:1 366:1 434:1 507:1 11372:1 27140:1 32404:1 48117:0.266187 48118:0.308603 48119:0.721776 
0.02553277194059075 1:1 83:1 181:1 225:1 285:1 394:1 450:1 524:1 7513:1 23281:1 32517:1 48117:0.107914 48118:0.324989 48119:0.585224 
0.0151171318281686 1:1 90:1 162:1 232:1 303:1 404:1 448:1 501:1 862:1 16630:1 32421:1 48117:0.194245 48118:0.378243 48119:0.652107 
0.6066450771277165 2:1 73:1 180:1 215:1 286:1 393:1 443:1 508:1 1031:1 16876:1 33214:1 48117:0.100719 48118:0.118798 48119:0.568058 
0.3094447853097708 2:1 73:1 180:1 215:1 286:1 393:1 429:1 502:1 1031:1 16779:1 32547:1 48117:0.0503597 48118:0.228493 48119:0.355036 
0.4330519775119285 10:1 73:1 158:1 229:1 286:1 360:1 440:1 502:1 2379:1 21050:1 32740:1 48117:0.0935252 48118:0.279017 48119:0.659353 
0.7736977650045316 6:1 73:1 146:1 215:1 286:1 359:1 432:1 508:1 706:1 838:1 20624:1 32448:1 48117:0.115108 48118:0.0546199 48119:0.416159 
0.4151609885835121 6:1 73:1 180:1 215:1 286:1 393:1 432:1 500:1 706:1 1893:1 18109:1 32448:1 48117:0.0503597 48118:0.174329 48119:0.284029 
0.4326317018932812 15:1 72:1 154:1 225:1 285:1 377:1 464:1 502:1 891:1 16659:1 32361:1 48117:0.122302 48118:0.201183 48119:0.479017 
0.2810875215882016 139:1 157:1 225:1 352:1 370:1 449:1 566:1 825:1 16795:1 48117:0.143885 48118:0.202549 48119:0.563549 
0.04642285389256103 12:1 72:1 144:1 214:1 285:1 360:1 448:1 501:1 1656:1 17757:1 33525:1 48117:0.0359712 48118:0.237597 48119:0.241521 
0.2732650307071294 73:1 147:1 214:1 286:1 360:1 444:1 506:1 2123:1 17891:1 48117:0.0359712 48118:0.271279 48119:0.29835 
0.1385945693763845 1:1 83:1 168:1 225:1 296:1 382:1 450:1 511:1 4438:1 17801:1 35857:1 48117:0.0719424 48118:0.335002 48119:0.30739 
1 6:1 73:1 144:1 215:1 286:1 366:1 432:1 502:1 706:1 2222:1 17990:1 32448:1 48117:0.107914 48118:0.41056 48119:0.585224 
1 2:1 72:1 146:1 214:1 285:1 359:1 456:1 502:1 838:1 16698:1 32721:1 48117:0.0143885 48118:0.430132 48119:0.0922171 
0.06594110040612174 73:1 147:1 214:1 286:1 360:1 448:1 506:1 2432:1 18200:1 48117:0.0359712 48118:0.441511 48119:0.174895 
0.001157847572625957 73:1 153:1 225:1 286:1 366:1 434:1 502:1 2829:1 18597:1 48117:0.151079 48118:0.556668 48119:0.507194 
0.1097887664193872 73:1 147:1 215:1 291:1 360:1 434:1 505:1 5858:1 21626:1 48117:0.0503597 48118:0.694584 48119:0.64552 
0.01412329581007913 15:1 72:1 154:1 225:1 285:1 368:1 436:1 508:1 4850:1 20618:1 32361:1 48117:0.0431655 48118:0.00500683 48119:0.253597 
0.2671994407978668 38:1 108:1 144:1 250:1 321:1 372:1 464:1 535:1 4286:1 20054:1 32602:1 48117:0.0503597 48118:0.0427856 48119:0.546209 
0.2842956877734449 2:1 73:1 146:1 215:1 286:1 359:1 429:1 500:1 838:1 17510:1 33278:1 48117:0.0503597 48118:0.0650888 48119:0.273105 
0.5861434937398822 73:1 146:1 214:1 286:1 359:1 439:1 502:1 838:1 24734:1 48117:0.258993 48118:0.0992262 48119:0.73036 
0.09018682424115472 7:1 73:1 144:1 215:1 286:1 366:1 434:1 507:1 11518:1 27286:1 32404:1 48117:0.129496 48118:0.0446063 48119:0.553303 
0.09230761289104893 2:1 73:1 146:1 215:1 286:1 359:1 435:1 500:1 838:1 22046:1 37814:1 48117:0.0503597 48118:0.114247 48119:0.236691 
0.01759465553081191 73:1 153:1 225:1 286:1 366:1 434:1 507:1 1764:1 17532:1 48117:0.136691 48118:0.156577 48119:0.741284 
0.2923787705291682 15:1 72:1 154:1 225:1 285:1 368:1 450:1 502:1 1300:1 17068:1 32361:1 48117:0.0143885 48118:0.193446 48119:0.11934 
0.1849856682879972 15:1 72:1 154:1 225:1 285:1 368:1 467:1 527:1 2184:1 17952:1 32361:1 48117:0.00719424 48118:0.230769 48119:0.0563549 
0.8116207557408293 1:1 72:1 146:1 214:1 285:1 359:1 429:1 500:1 838:1 20911:1 33758:1 48117:0.0215827 48118:0.42558 48119:0.0981666 
0.2998501258054437 19:1 83:1 165:1 225:1 296:1 378:1 434:1 519:1 3890:1 19658:1 32398:1 48117:0.107914 48118:0.463359 48119:0.691629 
0.1972806407218392 1:1 83:1 165:1 225:1 296:1 378:1 437:1 519:1 8314:1 24082:1 32516:1 48117:0.028777 48118:0.0423305 48119:0.338129 
0.07747835624641002 17:1 73:1 145:1 215:1 296:1 358:1 443:1 511:1 1691:1 17459:1 36470:1 48117:0.0791367 48118:0.0254893 48119:0.413269 
0.5118203224106966 14:1 73:1 169:1 215:1 291:1 382:1 440:1 505:1 2991:1 16934:1 32684:1 48117:0.107914 48118:0.02731 48119:0.563549 
0.1564143700727473 73:1 153:1 225:1 286:1 366:1 434:1 514:1 1673:1 17441:1 48117:0.158273 48118:0.0942194 48119:0.676259 
0.4105599612862691 15:1 72:1 154:1 225:1 285:1 368:1 450:1 500:1 2958:1 18726:1 32361:1 48117:0.0791367 48118:0.0318616 48119:0.318808 
0.007964057404140679 73:1 147:1 215:1 286:1 360:1 434:1 500:1 6053:1 21821:1 48117:0.179856 48118:0.194811 48119:0.603803 
0.001064491266189855 73:1 153:1 214:1 286:1 366:1 439:1 506:1 2864:1 18632:1 48117:0.0431655 48118:0.20528 48119:0.243453 
0.2394796619751181 1:1 72:1 148:1 214:1 285:1 361:1 456:1 501:1 1015:1 20598:1 36366:1 48117:0.0431655 48118:0.0596268 48119:0.184434 
0.2306580195276623 12:1 83:1 165:1 225:1 296:1 378:1 440:1 519:1 866:1 16634:1 40403:1 48117:0.115108 48118:0.0641784 48119:0.491825 
0.7636702441173716 12:1 72:1 144:1 215:1 286:1 366:1 440:1 500:1 3122:1 16600:1 32368:1 48117:0.0143885 48118:0.167501 48119:0.0382788 
0.06486107265041438 73:1 145:1 215:1 286:1 358:1 464:1 505:1 5753:1 21521:1 48117:0.129496 48118:0.174784 48119:0.344509 
0.4208988062681224 1:1 90:1 162:1 232:1 286:1 404:1 453:1 502:1 754:1 862:1 16630:1 33233:1 48117:0.266187 48118:0.183432 48119:0.708158 
0.04099555003645795 6:1 73:1 153:1 215:1 291:1 366:1 432:1 505:1 706:1 2652:1 20848:1 32448:1 48117:0.165468 48118:0.211652 48119:0.686204 
0.08717963251131815 2:1 73:1 146:1 215:1 286:1 359:1 435:1 500:1 838:1 27430:1 43198:1 48117:0.100719 48118:0.228038 48119:0.308727 
0.09690965785246425 2:1 73:1 146:1 215:1 286:1 359:1 435:1 500:1 838:1 19518:1 35286:1 48117:0.244604 48118:0.281293 48119:0.627077 
0.04988109432352887 73:1 171:1 225:1 286:1 384:1 434:1 502:1 1361:1 17605:1 48117:0.0647482 48118:0.294948 48119:0.351134 
0.2103616221634947 73:1 147:1 225:1 291:1 360:1 434:1 505:1 2325:1 18093:1 48117:0.057554 48118:0.332271 48119:0.579651 
1 72:1 157:1 285:1 370:1 508:1 825:1 17239:1 48117:0.115108 48118:0.361402 48119:0.954719 
0.3753695557501805 73:1 153:1 225:1 286:1 366:1 434:1 507:1 708:1 2459:1 18227:1 48117:0.0719424 48118:0.0236686 48119:0.483042 
0.005835403908083386 73:1 147:1 214:1 286:1 360:1 439:1 506:1 1933:1 17701:1 48117:0.0431655 48118:0.0364133 48119:0.264623 
0.04565248387332834 16:1 73:1 144:1 215:1 286:1 366:1 436:1 507:1 871:1 16639:1 34477:1 48117:0.0791367 48118:0.0832954 48119:0.79702 
1 12:1 73:1 144:1 215:1 286:1 366:1 440:1 514:1 4313:1 20081:1 32867:1 48117:0.0863309 48118:0.129267 48119:0.328991 
0.03946510608435173 2:1 83:1 155:1 225:1 285:1 368:1 477:1 508:1 1313:1 17081:1 32604:1 48117:0.129496 48118:0.131998 48119:0.493486 
0.6814507863666004 73:1 146:1 214:1 286:1 359:1 439:1 508:1 838:1 16657:1 48117:0.158273 48118:0.040965 48119:0.45544 
0.4862651059398518 6:1 73:1 147:1 215:1 291:1 360:1 432:1 505:1 706:1 1799:1 17374:1 32448:1 48117:0.0863309 48118:0.0646336 48119:0.486906 
0.04276491068925548 73:1 147:1 214:1 286:1 360:1 429:1 507:1 1134:1 16902:1 48117:0.0143885 48118:0.0878471 48119:0.126799 
0.03060719586892786 73:1 145:1 214:1 291:1 358:1 439:1 505:1 918:1 16686:1 48117:0.0719424 48118:0.00455166 48119:0.349789 
0.07072874667459282 2:1 83:1 155:1 225:1 285:1 368:1 467:1 502:1 11724:1 27492:1 41916:1 48117:0.129496 48118:0.0213928 48119:0.396935 
0.4488602430137381 7:1 73:1 144:1 215:1 291:1 366:1 434:1 505:1 1019:1 16787:1 32352:1 48117:0.028777 48118:0.0878471 48119:0.253597 
0.12705471574291 12:1 83:1 168:1 225:1 296:1 382:1 440:1 536:1 4779:1 16600:1 35928:1 48117:0.122302 48118:0.195266 48119:0.507194 
0.0426093612128093 7:1 73:1 144:1 215:1 286:1 360:1 434:1 500:1 1480:1 17248:1 32352:1 48117:0.136691 48118:0.0723714 48119:0.803058 
0.6538436872088348 87:1 152:1 214:1 285:1 365:1 432:1 502:1 706:1 11797:1 27565:1 48117:0.028777 48118:0.126536 48119:0.0943617 
0.3760178556850666 6:1 73:1 144:1 215:1 286:1 366:1 432:1 514:1 706:1 1943:1 17526:1 32448:1 48117:0.230216 48118:0.170687 48119:0.854222 
0.1375846709525653 1:1 83:1 156:1 225:1 296:1 369:1 450:1 515:1 3027:1 18795:1 43349:1 48117:0.028777 48118:0.222576 48119:0.23868 
0.09028686160356812 1:1 87:1 152:1 229:1 300:1 365:1 450:1 554:1 3361:1 19129:1 36444:1 48117:0.0791367 48118:0.297679 48119:0.348696 
0.09423509272866952 2:1 73:1 146:1 215:1 286:1 359:1 435:1 500:1 838:1 17608:1 33376:1 48117:0.172662 48118:0.374602 48119:0.676259 
1 73:1 147:1 225:1 286:1 360:1 434:1 506:1 708:1 929:1 16697:1 48117:0.0935252 48118:0.410105 48119:0.599411 
0.9152901618533005 73:1 187:1 225:1 286:1 400:1 453:1 502:1 830:1 19805:1 48117:0.0647482 48118:0.444242 48119:0.276651 
0.5318563348277515 73:1 147:1 225:1 291:1 360:1 450:1 505:1 11835:1 27603:1 48117:0.0791367 48118:0.013655 48119:0.531346 
0.8450478248334404 73:1 146:1 215:1 286:1 359:1 435:1 514:1 838:1 19244:1 48117:0.0863309 48118:0.16568 48119:0.338129 
0.6261455023591122 7:1 83:1 181:1 225:1 303:1 394:1 434:1 518:1 710:1 4687:1 20455:1 32995:1 48117:0.258993 48118:0.245335 48119:0.702269 
0.05148533015868004 73:1 153:1 214:1 286:1 366:1 448:1 507:1 1322:1 17090:1 48117:0.208633 48118:0.322713 48119:0.840493 
0.06894274741157397 2:1 73:1 146:1 215:1 286:1 359:1 435:1 500:1 838:1 26110:1 41878:1 48117:0.0215827 48118:0.326809 48119:0.0524684 
0.1824680858550644 73:1 147:1 214:1 286:1 360:1 444:1 502:1 3137:1 18905:1 48117:0.0431655 48118:0.0609923 48119:0.253597 
