svm_type c_svc
kernel_type rbf
gamma -7
nr_class 2
total_sv 2
rho nan
label -1 1
nr_sv 1 1
SV
5 17:1 73:1 193:1 215:1 291:1 406:1 443:1 505:1 1021:1 18069:1 33837:1 48117:9 48118:506 48119:0.5 
-5 72:1 187:1 285:1 400:1 512:1 830:1 16702:1 48117:20 48118:374 48119:0.95238095 
